document	feat_0	feat_1	feat_2	feat_3	feat_4	feat_5	feat_6	feat_7	feat_8	feat_9	feat_10	feat_11	feat_12	feat_13	feat_14	feat_15	feat_16	feat_17	feat_18	feat_19	feat_20	feat_21	feat_22	feat_23	feat_24	feat_25	feat_26	feat_27	feat_28	feat_29	feat_30	feat_31	feat_32	feat_33	feat_34	feat_35	feat_36	feat_37	feat_38	feat_39	feat_40	feat_41	feat_42	feat_43	feat_44	feat_45	feat_46	feat_47	feat_48	feat_49	feat_50	feat_51	feat_52	feat_53	feat_54	feat_55	feat_56	feat_57	feat_58	feat_59	feat_60	feat_61	feat_62	feat_63	feat_64	feat_65	feat_66	feat_67	feat_68	feat_69	feat_70	feat_71	feat_72	feat_73	feat_74	feat_75	feat_76	feat_77	feat_78	feat_79	feat_80	feat_81	feat_82	feat_83	feat_84	feat_85	feat_86	feat_87	feat_88	feat_89	feat_90	feat_91	feat_92	feat_93	feat_94	feat_95	feat_96	feat_97	feat_98	feat_99	feat_100	feat_101	feat_102	feat_103	feat_104	feat_105	feat_106	feat_107	feat_108	feat_109	feat_110	feat_111	feat_112	feat_113	feat_114	feat_115	feat_116	feat_117	feat_118	feat_119	feat_120	feat_121	feat_122	feat_123	feat_124	feat_125	feat_126	feat_127	feat_128	feat_129	feat_130	feat_131	feat_132	feat_133	feat_134	feat_135	feat_136	feat_137	feat_138	feat_139	feat_140	feat_141	feat_142	feat_143	feat_144	feat_145	feat_146	feat_147	feat_148	feat_149	feat_150	feat_151	feat_152	feat_153	feat_154	feat_155	feat_156	feat_157	feat_158	feat_159	feat_160	feat_161	feat_162	feat_163	feat_164	feat_165	feat_166	feat_167	feat_168	feat_169	feat_170	feat_171	feat_172	feat_173	feat_174	feat_175	feat_176	feat_177	feat_178	feat_179	feat_180	feat_181	feat_182	feat_183	feat_184	feat_185	feat_186	feat_187	feat_188	feat_189	feat_190	feat_191	feat_192	feat_193	feat_194	feat_195	feat_196	feat_197	feat_198	feat_199	feat_200	feat_201	feat_202	feat_203	feat_204	feat_205	feat_206	feat_207	feat_208	feat_209	feat_210	feat_211	feat_212	feat_213	feat_214	feat_215	feat_216	feat_217	feat_218	feat_219	feat_220	feat_221	feat_222	feat_223	feat_224	feat_225	feat_226	feat_227	feat_228	feat_229	feat_230	feat_231	feat_232	feat_233	feat_234	feat_235	feat_236	feat_237	feat_238	feat_239	feat_240	feat_241	feat_242	feat_243	feat_244	feat_245	feat_246	feat_247	feat_248	feat_249	feat_250	feat_251	feat_252	feat_253	feat_254	feat_255	feat_256	feat_257	feat_258	feat_259	feat_260	feat_261	feat_262	feat_263	feat_264	feat_265	feat_266	feat_267	feat_268	feat_269	feat_270	feat_271	feat_272	feat_273	feat_274	feat_275	feat_276	feat_277	feat_278	feat_279	feat_280	feat_281	feat_282	feat_283	feat_284	feat_285	feat_286	feat_287	feat_288	feat_289	feat_290	feat_291	feat_292	feat_293	feat_294	feat_295	feat_296	feat_297	feat_298	feat_299
838870_v1.xml	-0.23649565875530243	-0.1583898663520813	-0.13734295964241028	-0.0010113586904481053	-0.2840483486652374	-0.2718694508075714	0.041990917176008224	0.12046569585800171	0.26484373211860657	-0.32378652691841125	-0.5716757774353027	-0.7981284260749817	0.21660979092121124	-0.42831677198410034	-0.47340646386146545	-0.10947026312351227	0.5508013963699341	-0.6337077617645264	-0.03823321685194969	0.15762831270694733	0.07278735935688019	-0.3307972848415375	0.39319610595703125	0.5753204226493835	0.7184951901435852	-0.2778494656085968	-0.526491105556488	-0.001072369166649878	-0.30919456481933594	-0.45603734254837036	0.022628193721175194	-0.04362288862466812	-0.3030073642730713	0.23060911893844604	-0.29180750250816345	-0.14642685651779175	-0.37944284081459045	0.29082903265953064	1.0331368446350098	-0.6081967353820801	-0.012685159221291542	0.33784762024879456	-0.203634575009346	-0.3976500332355499	0.007387527264654636	-0.1951901614665985	0.2732979953289032	-0.2833927571773529	0.36699560284614563	0.5210956335067749	0.42614802718162537	-0.4907320737838745	-0.06704382598400116	-0.6298056840896606	-0.29125547409057617	0.7536892294883728	-0.18789663910865784	-0.18312808871269226	0.9648413062095642	-0.16171103715896606	-0.12000612169504166	-0.26183655858039856	0.11102684587240219	-0.2795218527317047	-0.7978429198265076	-0.4168907403945923	0.3185185194015503	0.6091001629829407	0.26247912645339966	0.9186710715293884	-0.15477192401885986	0.03196387365460396	-0.3787795603275299	-0.4989551901817322	-0.20037788152694702	0.15576712787151337	-0.17751961946487427	0.46049773693084717	-0.004914426244795322	0.08857820183038712	0.1655634641647339	-0.252963662147522	-0.21230201423168182	-0.7265278697013855	0.0068407440558075905	0.1024942547082901	-0.27619343996047974	0.8972533345222473	0.2150048464536667	-0.33970651030540466	-0.15476131439208984	-0.06893502175807953	0.4413774311542511	-0.14596155285835266	-0.15807564556598663	-0.24764712154865265	0.02245190553367138	0.3529520034790039	0.24136605858802795	-0.028659051284193993	-0.3991374969482422	-0.07478832453489304	-0.3792267441749573	-0.3902275562286377	-0.05444885045289993	-0.7575232982635498	0.09105078130960464	0.3138161599636078	-0.2048516720533371	1.0923042297363281	1.0189727544784546	-0.4046926498413086	0.5483269095420837	0.49884384870529175	0.1822354644536972	0.12307716906070709	-0.29969844222068787	0.13708660006523132	0.009686138480901718	-0.33567267656326294	0.6327483654022217	-0.2823941707611084	-0.058543067425489426	0.5764572024345398	-0.3541436195373535	0.36626994609832764	0.14186789095401764	0.42792627215385437	0.3380293548107147	0.23098614811897278	0.08499742299318314	0.1318686604499817	-0.08449826389551163	0.4551458954811096	-0.625431478023529	-0.17294281721115112	-0.3066166639328003	0.014228167943656445	-0.7811298370361328	0.1437670737504959	1.028998851776123	-0.13375601172447205	-0.1832076460123062	0.5161437392234802	0.1010674238204956	-0.7815806269645691	0.14390753209590912	0.2516860365867615	-0.18455870449543	-0.9895899891853333	-0.24706301093101501	0.578270673751831	0.09683001786470413	0.08525355905294418	-0.23883056640625	0.25907930731773376	-0.1541876345872879	0.6164402365684509	-0.6772075295448303	0.5878394246101379	0.1465585082769394	0.388053297996521	0.2133910208940506	-0.8695894479751587	-0.3557157814502716	-0.14428456127643585	-0.02091684192419052	0.7020882964134216	0.020489247515797615	0.265767365694046	0.5172746181488037	-0.2852362096309662	-0.06802826374769211	-0.13321083784103394	0.24060805141925812	0.7499573230743408	0.33715736865997314	0.4895206093788147	-0.305502712726593	0.3446183204650879	0.5908353924751282	-0.08683609962463379	1.1713556051254272	-0.2573515772819519	0.24670349061489105	0.623132050037384	-0.027270063757896423	-0.4482506215572357	-0.24059632420539856	0.11728210002183914	0.17867958545684814	-0.4477795660495758	0.08252019435167313	0.18406164646148682	0.3040120601654053	-0.537070631980896	0.5205947160720825	0.19574180245399475	0.4127143919467926	-0.26873302459716797	-0.28599438071250916	0.013986757025122643	-0.08587270230054855	-0.28065183758735657	0.8195340037345886	-0.3120962083339691	-0.1966274231672287	-0.16252394020557404	0.30991053581237793	0.5130593776702881	0.29190805554389954	-0.1974848061800003	0.3762505054473877	-0.5511344075202942	0.02773033082485199	0.04405098408460617	-0.23654413223266602	-0.0034248409792780876	-0.038026291877031326	0.056499775499105453	0.20671221613883972	-0.6570100784301758	0.17408990859985352	-0.4445764124393463	-0.5701903104782104	-0.4065549075603485	-0.5321687459945679	-0.3523879647254944	0.2265060991048813	0.09716028720140457	-0.8512431383132935	0.2404746115207672	0.04329155385494232	-0.14095959067344666	0.3567441999912262	-0.10021637380123138	-0.6671280860900879	-0.36963191628456116	0.6296290159225464	-0.20398400723934174	-0.6680219173431396	-0.9742929339408875	-0.06028706580400467	-0.2611292898654938	-0.24700312316417694	0.18056964874267578	0.7556135654449463	0.08521493524312973	0.4307597577571869	0.09397681802511215	-0.10738091170787811	0.3721119165420532	-0.05825095996260643	1.3377408981323242	0.48038262128829956	0.2185652107000351	-0.08626370131969452	-0.06059672683477402	-0.006352399010211229	0.6005250811576843	-0.5774027705192566	-0.16637475788593292	0.057547539472579956	0.42524290084838867	-0.06270060688257217	0.21933957934379578	-0.3724423050880432	0.15956081449985504	0.5230173468589783	0.066998191177845	0.002466283505782485	1.3233290910720825	-0.47286301851272583	0.1235133484005928	0.003785856068134308	-0.681259036064148	-0.08959631621837616	-0.042678508907556534	-0.43681618571281433	0.0018834142247214913	-0.34860143065452576	0.242294579744339	-0.3424965441226959	0.30559974908828735	0.4632011950016022	-0.11335819959640503	-0.26468995213508606	0.6746283769607544	0.2491752952337265	0.4926345944404602	0.1250620186328888	-0.13507962226867676	0.17088232934474945	-0.3085205852985382	-0.6002871990203857	-0.3455923795700073	0.039639897644519806	0.7301096320152283	-0.3485746383666992	0.3729321360588074
2020.02.13.945485_v1.xml	-0.2095395177602768	0.06212015450000763	-0.013420610688626766	-0.0002792597806546837	-0.3144225478172302	-0.3269851505756378	0.11054494976997375	0.24337348341941833	0.3383864462375641	-0.2188163548707962	-0.5755980610847473	-1.0204426050186157	0.23570473492145538	-0.3607533574104309	-0.6087504029273987	0.08573625236749649	0.43094122409820557	-0.5111202001571655	-0.08200754970312119	0.04523278772830963	0.06902754306793213	-0.4268307387828827	0.2972133159637451	0.777240514755249	0.5987107157707214	-0.13977409899234772	-0.35788699984550476	-0.052845969796180725	-0.5876418948173523	-0.458763062953949	0.2633202075958252	-0.38256025314331055	-0.3992299735546112	0.15155084431171417	-0.46273842453956604	0.0223215464502573	-0.6327149868011475	0.2857433259487152	0.7985861897468567	-0.6757395267486572	0.05113280192017555	0.38996925950050354	-0.021101806312799454	-0.26659005880355835	0.15849845111370087	0.014467897824943066	0.10290517657995224	-0.4609045684337616	0.33819735050201416	0.4209175705909729	0.5400570631027222	-0.4892853796482086	0.09967060387134552	-0.32956355810165405	-0.22446469962596893	0.5986380577087402	-0.042573049664497375	-0.01683502085506916	0.91582190990448	-0.10266987234354019	-0.1635618507862091	-0.17668792605400085	0.042939748615026474	-0.6321659088134766	-0.4693695902824402	-0.33168432116508484	0.11225184053182602	0.30644840002059937	0.3472481369972229	0.8210172057151794	-0.2640821933746338	0.2867740988731384	-0.46969544887542725	-0.46838507056236267	-0.08237066864967346	0.19125036895275116	-0.3274688422679901	0.47943195700645447	0.06958656013011932	0.09570902585983276	0.1518651694059372	-0.3856087327003479	-0.16766735911369324	-0.6634490489959717	0.07133830338716507	0.21134240925312042	-0.14191409945487976	0.8415682911872864	0.23893755674362183	-0.3619444668292999	-0.13903361558914185	0.04371872916817665	0.44126030802726746	-0.28167667984962463	0.013613954186439514	0.001902787247672677	-0.0035561409313231707	0.20039144158363342	0.23609037697315216	0.19578799605369568	-0.07467684894800186	-0.05814436823129654	-0.3975638449192047	-0.6376899480819702	-0.14016111195087433	-0.5223824977874756	0.25367677211761475	0.39432311058044434	0.1502404510974884	0.7092423439025879	0.9819260239601135	-0.3866380453109741	0.33299726247787476	0.4095405042171478	0.30001047253608704	0.16399402916431427	-0.23492391407489777	-0.019675374031066895	0.039613280445337296	-0.4930155277252197	0.4783676564693451	-0.30695921182632446	-0.011614404618740082	0.7390434145927429	-0.13684619963169098	0.2262231558561325	-0.1347382664680481	0.536965548992157	0.2740445137023926	0.05662386119365692	-0.03464487940073013	0.012669479474425316	-0.06327971816062927	0.34998074173927307	-0.7776980400085449	-0.22620226442813873	-0.3764744997024536	0.042711272835731506	-0.7181098461151123	0.23890918493270874	1.2792574167251587	-0.027881011366844177	-0.38131675124168396	0.40767648816108704	-0.379852294921875	-0.39486321806907654	-0.017260082066059113	0.2605355978012085	-0.011982187628746033	-1.0194058418273926	-0.39472252130508423	0.7298996448516846	-0.15631546080112457	-0.1675054281949997	-0.37033966183662415	-0.010631533339619637	-0.33733755350112915	0.6449540257453918	-0.7965794205665588	0.5894526839256287	0.014376820996403694	0.4775475561618805	0.18406248092651367	-0.7661354541778564	-0.3184853792190552	-0.125034362077713	-0.0153391407802701	0.6373457908630371	-0.13384373486042023	0.4001995027065277	0.3616943359375	-0.20714908838272095	0.030079031363129616	-0.2128688395023346	0.0917365774512291	0.45906174182891846	0.3188311457633972	0.5600244402885437	-0.19725225865840912	0.29364386200904846	0.6093326210975647	-0.05209238454699516	0.6376276016235352	-0.4052313268184662	0.23108342289924622	0.6382285356521606	-0.18904423713684082	-0.4514419734477997	-0.027659425511956215	0.01619761623442173	-0.038370538502931595	-0.5057125687599182	0.040915366262197495	0.09362562745809555	0.4051768481731415	-0.2736732065677643	0.5004913806915283	0.26046934723854065	0.16813847422599792	-0.14073370397090912	-0.24747927486896515	0.027560507878661156	-0.08499224483966827	-0.3713130056858063	0.7567042112350464	-0.2641441822052002	-0.4007909595966339	0.08894296735525131	0.3929954469203949	0.5671584010124207	0.4267563819885254	0.17426609992980957	0.17351990938186646	-0.3815922141075134	-0.08451146632432938	0.15307702124118805	-0.21842898428440094	-0.0042091356590390205	0.01902400143444538	0.1012440174818039	0.16091184318065643	-0.7635306119918823	-0.10397765040397644	-0.5677719116210938	-0.5689920783042908	-0.2249433696269989	-0.5475332140922546	-0.2746862769126892	0.2512669563293457	0.12581883370876312	-0.7839362621307373	0.08665820211172104	0.2789059579372406	-0.281467080116272	0.2225877195596695	-0.28459256887435913	-0.8850064873695374	-0.34760746359825134	0.6554476618766785	-0.11382179707288742	-0.3968867361545563	-0.9344097375869751	-0.2164650857448578	-0.2922404706478119	-0.1815396100282669	0.23825420439243317	0.9717708826065063	0.17470817267894745	0.31679290533065796	0.4373418688774109	0.07524241507053375	0.2653534710407257	-0.08869494497776031	0.9411380887031555	0.8257623314857483	0.34628304839134216	-0.11396940052509308	0.07707390934228897	-0.17405910789966583	0.3974980115890503	-0.4398300349712372	-0.22237825393676758	-0.2605074942111969	0.4679586887359619	-0.0011830164585262537	0.19935660064220428	-0.42719385027885437	0.1360984444618225	0.4296557903289795	0.16066548228263855	0.20059143006801605	1.2088382244110107	-0.3977702260017395	0.38842350244522095	0.09170383214950562	-0.5239193439483643	0.05100112035870552	0.05691996216773987	-0.5987421274185181	0.15240761637687683	-0.48664894700050354	0.31501778960227966	-0.16852176189422607	0.20805825293064117	0.5232344269752502	-0.05929770693182945	-0.36630967259407043	0.44282981753349304	0.17553593218326569	0.4738798141479492	-0.11952793598175049	0.03575028479099274	-0.06443118304014206	-0.09489770978689194	-0.7110481262207031	-0.044813286513090134	0.3246147632598877	0.6553353071212769	-0.4027053117752075	0.4604339897632599
2020.01.13.905190_v1.xml	0.22924695909023285	0.10371989011764526	-0.6752172708511353	-0.2796511650085449	0.14152653515338898	-0.4149263799190521	-0.12508957087993622	0.1697676032781601	0.501924991607666	-0.42074042558670044	-0.45749154686927795	-0.7699516415596008	0.28131482005119324	-0.09374178200960159	-0.36065512895584106	-0.07154793292284012	0.16646243631839752	0.1350059062242508	-0.2369082272052765	-0.08527426421642303	-0.13035696744918823	0.11520987004041672	0.24793286621570587	0.38429898023605347	0.9809187054634094	-0.14490818977355957	-0.36782681941986084	-0.1353456974029541	-0.5084258317947388	-0.10372257977724075	-0.05045414716005325	-0.01132033858448267	-0.05058367922902107	-0.12266059964895248	0.3294852375984192	0.11964498460292816	-0.34365570545196533	0.28853321075439453	0.5641312003135681	0.08633603900671005	0.02202812023460865	0.5378140211105347	0.3070523738861084	0.08515307307243347	-0.021078284829854965	0.11694204062223434	-0.12938609719276428	-0.1573115736246109	-0.056603845208883286	0.23451577126979828	0.3136040270328522	0.11355932801961899	-0.01520377118140459	-0.6195199489593506	-0.14066673815250397	0.10406450182199478	0.008063206449151039	-0.25420984625816345	0.2753102481365204	0.30802229046821594	0.1238151416182518	-0.6185958385467529	-0.16555583477020264	-0.2470632642507553	-0.4625757336616516	-0.32946938276290894	-0.14800818264484406	0.15982121229171753	0.0008695730357430875	0.2579830288887024	-0.5709450840950012	0.2950032353401184	-0.540976881980896	-0.8172191381454468	0.167959064245224	-0.1957731992006302	-0.4073183238506317	0.2274727076292038	0.2633715569972992	-0.035569626837968826	-0.6667608022689819	0.1847526878118515	0.1351909190416336	-0.4818815290927887	0.021646661683917046	0.44523555040359497	-0.14737699925899506	0.7705564498901367	0.35228151082992554	-0.23250384628772736	0.013256395235657692	-0.002940797945484519	-0.19894939661026	-0.35956767201423645	0.06248757243156433	-0.12290062755346298	0.1977839320898056	-0.1032705157995224	0.25278931856155396	-0.14021804928779602	-0.08764583617448807	0.38509589433670044	-0.39160794019699097	-0.17307816445827484	0.2621892988681793	-0.8530237078666687	-0.11150962859392166	0.5677121877670288	-0.2494211047887802	0.7116197943687439	1.032914638519287	0.2623217701911926	0.014635575003921986	0.265781432390213	0.53999263048172	0.1638522446155548	0.2187015414237976	0.07595887035131454	-0.16235634684562683	-0.2999657690525055	0.3366512954235077	0.17771822214126587	-0.01636163890361786	0.629359245300293	-0.4713340103626251	-0.03764588013291359	-0.39325615763664246	0.44416069984436035	-0.03273118659853935	-0.1557207703590393	0.004401268437504768	-0.29302480816841125	-0.028618590906262398	0.11994044482707977	-0.46080321073532104	-0.2447848916053772	-0.33348438143730164	-0.8357795476913452	-0.3817750811576843	-0.3056204915046692	1.4434194564819336	-0.3137121796607971	-0.5554646849632263	-0.34436720609664917	0.5119677186012268	0.531673014163971	-0.8958755135536194	0.23557715117931366	0.035309743136167526	-0.510973334312439	-0.28833383321762085	0.03066052496433258	-0.2974010705947876	0.17304886877536774	-0.34265273809432983	-0.3833746910095215	-0.4323100447654724	0.21039852499961853	0.11202314496040344	-0.010919388383626938	0.2889641225337982	0.5674771666526794	0.3380589485168457	-0.3841879665851593	-0.5195960402488708	-0.19265037775039673	0.13059701025485992	0.2731359004974365	0.02239328622817993	0.15366369485855103	0.08618730306625366	0.003690029727295041	0.39962494373321533	0.0021409038454294205	0.06329218298196793	-0.09105336666107178	-0.009405311197042465	1.1072494983673096	-0.2376491129398346	0.1292097121477127	0.271364688873291	-0.19238409399986267	0.411398321390152	-0.5076166391372681	-0.046811528503894806	0.3735775053501129	0.14274069666862488	-0.00917653739452362	0.4194050431251526	-0.41413986682891846	0.21536336839199066	-0.4451638460159302	-0.2737990617752075	0.17825980484485626	0.03923268988728523	-0.6369121670722961	0.4905831217765808	0.04802144691348076	0.464841365814209	-0.4314924478530884	-0.36926016211509705	-0.0052927350625395775	0.21349091827869415	-0.06642095744609833	0.3394852876663208	0.3014298379421234	-0.34937718510627747	0.1152253970503807	0.6276374459266663	0.422503799200058	0.09402873367071152	0.0397169291973114	0.13928991556167603	-0.19291937351226807	-0.11199778318405151	-0.37020155787467957	-0.19688208401203156	0.5343160629272461	-0.052584126591682434	-0.4847140908241272	0.04598637670278549	-0.9572264552116394	-0.30200517177581787	0.08639843016862869	-0.38380008935928345	0.10354496538639069	-0.473501056432724	-0.39393293857574463	-0.07592092454433441	0.14961615204811096	-0.6622737050056458	0.40656399726867676	-0.2775332033634186	-0.6418665051460266	0.22791613638401031	-0.24936054646968842	-0.80643230676651	-0.4586656391620636	0.6411394476890564	-0.2984747290611267	-0.7299547791481018	-0.45794034004211426	-0.4342714548110962	0.061416883021593094	-0.3606133759021759	-0.46763768792152405	1.1064194440841675	0.5195913314819336	-0.1669660359621048	0.3764990270137787	0.07502134889364243	0.1160084456205368	0.09091964364051819	0.7837749719619751	-0.09943468868732452	0.2231997549533844	-0.19695109128952026	-0.16846127808094025	-0.23506449162960052	0.0009145516669377685	-0.04117405414581299	0.12994396686553955	-0.3023090064525604	0.4004114866256714	0.046218886971473694	0.8018847107887268	0.0070851994678378105	-0.09826093912124634	-0.10045019537210464	-0.20150123536586761	0.07267845422029495	1.2735815048217773	0.8023675680160522	0.4164346754550934	0.18025699257850647	-0.11910666525363922	0.3606320321559906	-0.1087973490357399	-0.1127234697341919	-0.102058045566082	-0.38823211193084717	0.30506736040115356	-0.1027095839381218	0.18842491507530212	0.44373226165771484	-0.19982147216796875	0.03867033123970032	0.09204205125570297	0.02803848683834076	0.5205921530723572	0.2824919521808624	0.0429493710398674	0.18278367817401886	-0.17821374535560608	-0.29232528805732727	0.06788935512304306	0.26649513840675354	0.43476781249046326	-0.672433078289032	0.6289612650871277
865089_v1.xml	0.25948405265808105	0.18786518275737762	-0.47649532556533813	0.10427152365446091	-0.2399064004421234	-0.3279969394207001	0.08798329532146454	0.27865538001060486	0.5485207438468933	-0.3678869605064392	-0.7122174501419067	-0.4516322910785675	-0.12491440773010254	-0.05438529700040817	0.020131591707468033	0.2593354880809784	-0.5281994938850403	-0.055393896996974945	-0.2589900493621826	-0.5283459424972534	-0.18557032942771912	-0.03755928575992584	0.2857435345649719	0.01296824961900711	0.4699043035507202	-0.011677189730107784	-0.8023005127906799	-0.27136409282684326	-0.6196849346160889	0.0997791662812233	-0.05346449837088585	0.3557360768318176	-0.07376852631568909	0.23039419949054718	0.19169265031814575	0.08775382488965988	-0.4186851382255554	0.3145604133605957	0.7599621415138245	0.29849979281425476	0.14972233772277832	0.42215433716773987	0.07204794883728027	0.07310882210731506	-0.22621344029903412	-0.3102922737598419	-0.22420693933963776	-0.4157375991344452	0.12896734476089478	0.5682944655418396	0.15562215447425842	-0.13451756536960602	-0.03427239507436752	-0.4860857129096985	0.06698089092969894	0.4145130515098572	-0.005296764429658651	-0.31689080595970154	0.4799917936325073	0.1742822378873825	-0.03889539837837219	-0.2407488077878952	-0.12970401346683502	-0.6218956708908081	-0.5904672145843506	-0.21506468951702118	0.1013060212135315	0.39111658930778503	-0.16207873821258545	0.11430604755878448	-0.5234270095825195	0.05185598134994507	-0.25563088059425354	-0.8868827819824219	-0.18011027574539185	-0.17206846177577972	-0.08864379674196243	0.18864287436008453	0.5516570806503296	-0.14217104017734528	-0.44054731726646423	0.2534681260585785	0.418104887008667	-0.5922548770904541	-0.39500465989112854	0.4802402853965759	0.018388312309980392	0.7403814196586609	0.01079043373465538	-0.0032668437343090773	-0.11966213583946228	-0.20611177384853363	0.019948333501815796	-0.31845828890800476	0.07678907364606857	-0.044478174299001694	0.12689374387264252	0.05525105074048042	0.43751442432403564	-0.047206129878759384	-0.49360814690589905	0.48721566796302795	-0.11264902353286743	-0.3402617871761322	0.1463291198015213	-0.8215172290802002	0.01801612414419651	0.4322684407234192	-0.567222535610199	0.7865058779716492	0.9637936353683472	0.07054401934146881	0.4400523602962494	0.014851583167910576	0.13419130444526672	-0.11618541181087494	0.06065988913178444	-0.4085739850997925	0.07277566194534302	0.11658664047718048	0.06608277559280396	-0.5684474110603333	-0.12004268914461136	0.46510475873947144	-0.19204716384410858	-0.4984789788722992	0.05017222464084625	0.3381494879722595	-0.018117673695087433	0.4067586660385132	0.13367262482643127	-0.22726470232009888	-0.3463345766067505	0.12547172605991364	-0.5438298583030701	-0.26905152201652527	0.07153230905532837	-0.9126782417297363	-0.3857905864715576	-0.47203487157821655	1.2060025930404663	-0.6915383338928223	-0.6786292195320129	0.03658481314778328	0.2532574236392975	0.21671460568904877	-0.479695588350296	0.4094197452068329	-0.28304407000541687	-0.6208986639976501	-0.623017430305481	0.27323365211486816	-0.25897836685180664	0.5233826041221619	-0.33528879284858704	-0.5677952766418457	-0.7968283891677856	0.1435192972421646	0.12134713679552078	0.366800457239151	0.15249177813529968	0.4865252673625946	0.0837181881070137	-0.4999476969242096	-0.37604638934135437	0.0670909509062767	-0.020882802084088326	0.15486866235733032	-0.024593589827418327	0.37950363755226135	-0.11322847008705139	0.10019847005605698	-0.1945781260728836	0.2306285947561264	0.07454337924718857	-0.061270859092473984	-0.4912151098251343	0.950151264667511	-0.31373873353004456	-0.14461486041545868	0.22849802672863007	-0.03069244511425495	0.6154271364212036	-0.4344457685947418	0.2424953430891037	0.47284528613090515	0.2507105767726898	0.15085846185684204	0.37738046050071716	-0.07574165612459183	0.5457618832588196	-0.36655908823013306	-0.09768795222043991	0.2656106948852539	0.05094107985496521	-0.14242343604564667	0.1908283531665802	-0.06398936361074448	0.4878985583782196	-0.1953839212656021	0.01589200459420681	0.28084543347358704	-0.06898866593837738	-0.14458097517490387	0.482288658618927	-0.10828827321529388	-0.4576428532600403	0.013911869376897812	0.8508555889129639	0.4306589365005493	0.1845279037952423	-0.14912080764770508	0.5283236503601074	-0.5193668007850647	-0.15637518465518951	-0.46741989254951477	-0.6895350217819214	-0.10879842936992645	-0.00014132641081232578	-0.1756688505411148	0.233488067984581	-0.5657203793525696	0.05382545664906502	-0.2273407131433487	-0.39512306451797485	0.029260650277137756	-0.49099740386009216	-0.18245205283164978	-0.09966844320297241	0.17779523134231567	-0.8056334853172302	0.3948686122894287	-0.29402366280555725	-0.7550472021102905	0.30446764826774597	0.18642178177833557	-0.5555039644241333	-0.5907662510871887	0.4201465845108032	-0.06246039643883705	-0.8295367956161499	0.090114526450634	-0.3299632668495178	-0.16196219623088837	0.14692339301109314	-0.3924914598464966	0.80825275182724	0.595415472984314	-0.1074625700712204	-0.018434938043355942	-0.16656628251075745	0.4567984342575073	0.40040603280067444	0.6927284002304077	0.09887025505304337	0.38600194454193115	-0.44147035479545593	0.11365737020969391	-0.39919912815093994	0.25644683837890625	-0.4451087713241577	-0.17649708688259125	-0.384234219789505	0.13450972735881805	-0.44326359033584595	0.5914941430091858	-0.37501290440559387	-0.2029169350862503	0.372294545173645	-0.6882912516593933	-0.005846594925969839	1.0686075687408447	0.3708638846874237	0.6627861857414246	0.4089948832988739	0.312443345785141	-0.008979407139122486	0.2511802017688751	0.05553304776549339	-0.3762563169002533	-0.5159314274787903	0.22294224798679352	0.00447135278955102	0.44685468077659607	0.6384466290473938	-0.16627423465251923	-0.6588547825813293	0.11422046273946762	-0.32506266236305237	0.32103970646858215	0.27354729175567627	0.44251155853271484	0.1379126012325287	-0.3765420913696289	-0.6623786091804504	-0.009104276075959206	0.1526295393705368	0.02615031599998474	-0.47890034317970276	0.47306981682777405
832675_v1.xml	0.33150359988212585	0.39730003476142883	-0.6622207164764404	-0.0822385773062706	0.14270444214344025	-0.48371946811676025	-0.2254340797662735	0.28969311714172363	0.7500712275505066	-0.40719205141067505	-0.49973735213279724	-0.6617606282234192	0.2286357283592224	-0.4759974479675293	-0.34424880146980286	-0.25296732783317566	-0.17574499547481537	0.11590539664030075	-0.253301203250885	0.13611070811748505	-0.1209404319524765	-0.04817725718021393	0.39793452620506287	0.325493723154068	0.9273921847343445	-0.10000983625650406	-0.5476330518722534	-0.6086944937705994	-0.7648237347602844	-0.031343258917331696	0.08168702572584152	0.3007200360298157	-0.09700953215360641	0.009939877316355705	0.16375362873077393	0.27910587191581726	-0.2676663100719452	0.26721104979515076	0.8067488670349121	-0.2184198945760727	0.3314351737499237	0.3874690532684326	0.4915190637111664	0.019886506721377373	0.07664987444877625	0.01717822067439556	-0.05083996430039406	0.04631851240992546	0.022068768739700317	0.08669569343328476	0.24619606137275696	0.032081734389066696	-0.13277815282344818	-0.5969144701957703	-0.07169055938720703	0.07297364622354507	0.1299174278974533	-0.21234305202960968	0.30962881445884705	0.3101908564567566	-0.06965779513120651	-0.5327821969985962	-0.27955740690231323	-0.1450739949941635	-0.33807843923568726	-0.5166404247283936	-0.19517870247364044	0.1879703253507614	-0.036807168275117874	0.25486811995506287	-0.49173974990844727	0.3805215060710907	-0.23440852761268616	-0.6030386090278625	0.42801058292388916	-0.18464449048042297	-0.46074992418289185	0.2579376995563507	0.3225696384906769	-0.08186725527048111	-0.29641398787498474	0.5111557841300964	0.10686954110860825	-0.47677117586135864	-0.2757386267185211	0.43654733896255493	-0.28762975335121155	0.8514047861099243	0.5773167014122009	-0.49746519327163696	-0.006216054316610098	-0.16617774963378906	-0.24341368675231934	-0.1185809001326561	0.17872001230716705	-0.06622882932424545	-0.03085080347955227	-0.10410358011722565	0.3886171579360962	-0.2757885754108429	-0.09802024811506271	0.15482883155345917	-0.32027438282966614	-0.3648313879966736	-0.024104781448841095	-1.0379362106323242	-0.17725646495819092	0.7354233264923096	-0.4459536373615265	0.5904057025909424	0.8468452095985413	0.23026394844055176	0.34378451108932495	0.17889559268951416	0.4976866841316223	0.13374082744121552	-0.1823740154504776	0.09971070289611816	0.13409423828125	-0.37113848328590393	0.677570641040802	0.011302139610052109	0.08641994744539261	0.4984058737754822	-0.36441755294799805	0.2126687914133072	0.3199380934238434	0.5277624130249023	0.035038840025663376	0.06661584228277206	0.24675901234149933	-0.06942938268184662	0.07237997651100159	0.47812020778656006	-0.6674858927726746	-0.40891340374946594	-0.056730903685092926	-0.9589674472808838	-0.4416298568248749	-0.22444182634353638	1.5463931560516357	-0.4802458584308624	-0.1939372718334198	-0.2915460169315338	0.3291405141353607	0.3176433742046356	-1.0666136741638184	0.4237193167209625	-0.2556712031364441	-0.5103663206100464	-0.3739467263221741	0.017882689833641052	-0.18587173521518707	0.17711883783340454	-0.5215644240379333	-0.13426120579242706	-0.22180157899856567	0.10894204676151276	-0.04031212627887726	0.24276643991470337	0.2500101625919342	0.4164928197860718	0.06674414128065109	-0.5874717831611633	-0.5425687432289124	-0.21706514060497284	0.02479310892522335	0.44322776794433594	0.24515730142593384	-0.022979335859417915	0.17445677518844604	-0.05417637526988983	0.34437912702560425	0.06309836357831955	0.0651141107082367	-0.1276654601097107	-0.18881243467330933	1.0058014392852783	-0.7575948238372803	0.3536478579044342	0.2723572254180908	-0.08830872923135757	0.46302568912506104	-0.4436405599117279	-0.01812170259654522	0.40278658270835876	0.22326669096946716	0.26304373145103455	0.4498424828052521	-0.385071724653244	0.3078671991825104	-0.4560263454914093	-0.03864520788192749	0.28826338052749634	0.0031251616310328245	-0.5467246174812317	0.31041404604911804	0.20094510912895203	0.6009049415588379	-0.34043821692466736	-0.41699057817459106	0.301017165184021	0.26954346895217896	0.039654068648815155	0.8477634787559509	0.21784918010234833	-0.11904419958591461	0.03686095029115677	0.8335567116737366	0.5718029737472534	-0.31501585245132446	-0.39189839363098145	0.1723666936159134	-0.6178975105285645	-0.16873477399349213	-0.2746807336807251	-0.09202343225479126	0.29030922055244446	-0.0712495967745781	-0.21364876627922058	-0.0359293669462204	-0.9737898111343384	-0.2114962488412857	-0.08019023388624191	-0.6275432109832764	-0.06244289129972458	-0.4549032747745514	-0.19702692329883575	0.11125823110342026	0.24612733721733093	-0.7866372466087341	0.28268662095069885	-0.20934146642684937	-0.6282404661178589	-0.08415909111499786	-0.25974515080451965	-0.6467776894569397	-0.5823226571083069	1.2772300243377686	-0.24140195548534393	-0.5570933818817139	-0.3331041932106018	-0.40585556626319885	-0.05971462279558182	-0.08508864790201187	-0.2768765687942505	0.8025362491607666	0.5921704769134521	-0.10562426596879959	0.29995661973953247	0.2830260694026947	0.17139612138271332	-0.22263559699058533	0.7729337811470032	-0.012235874310135841	-0.06674474477767944	-0.36448830366134644	-0.28011924028396606	-0.2730270028114319	-0.0011921890545636415	-0.1153256818652153	0.12826412916183472	-0.2343062162399292	0.24072855710983276	0.16475450992584229	0.5019165277481079	-0.08565782755613327	0.1276988983154297	0.42769816517829895	-0.3894619345664978	0.21332299709320068	1.1686300039291382	0.522304117679596	0.39023640751838684	0.16774453222751617	-0.0943378433585167	0.46597111225128174	-0.15684618055820465	-0.15970076620578766	0.02225125953555107	-0.7631364464759827	0.1460152417421341	-0.3827013671398163	0.0373302660882473	0.39328503608703613	-0.4261672794818878	0.046113304793834686	0.14696469902992249	0.011892721056938171	0.4136647582054138	0.35751959681510925	0.03120017796754837	0.3698621690273285	-0.42579033970832825	-0.4615978002548218	-0.7687659859657288	0.22917385399341583	0.5047886371612549	-0.7088145017623901	0.09432438760995865
2020.02.29.965418_v2.xml	0.18197672069072723	0.26461276412010193	-0.48620176315307617	0.11773839592933655	-0.2947608530521393	-0.49946945905685425	-0.267307847738266	0.35542625188827515	0.7350142598152161	0.0205103550106287	-0.6666797995567322	-0.6804009675979614	0.23293371498584747	-0.62579745054245	-0.5108246207237244	0.31753402948379517	0.29080912470817566	-0.08188626915216446	-0.5236495137214661	0.28084251284599304	-0.04595235735177994	-0.3081769645214081	0.5579102635383606	0.3679899275302887	0.9018450379371643	-0.13609212636947632	-0.5881170034408569	0.20557188987731934	-0.7923498153686523	-0.2918728291988373	-0.025914086028933525	0.16106075048446655	-0.40273284912109375	0.27712348103523254	-0.3452777564525604	-0.30360859632492065	-0.284943550825119	0.00024977506836876273	1.3087124824523926	-0.28796690702438354	0.5192842483520508	0.5160657167434692	-0.1081252247095108	0.1461515575647354	0.1493629813194275	-0.23792563378810883	-0.17901360988616943	-0.3681243062019348	0.2687076926231384	0.5840961933135986	-0.03655192628502846	-0.3112739324569702	-0.018411733210086823	-0.5664544701576233	-0.05183681100606918	0.9106397032737732	-0.10596912354230881	-0.15438589453697205	0.8625122308731079	0.3239884078502655	-0.3173617422580719	0.00778838898986578	-0.026698758825659752	-0.5802857279777527	-0.6741239428520203	-1.0362845659255981	0.551755428314209	0.2619200050830841	0.077001191675663	0.5533483028411865	-0.6642332673072815	0.17708587646484375	-0.4060739576816559	-0.26736485958099365	0.11568798869848251	-0.27559420466423035	-0.16531077027320862	0.3340289890766144	-0.13869981467723846	-0.22116456925868988	0.19662019610404968	-0.018880248069763184	0.019599858671426773	-0.3612767457962036	-0.298285573720932	0.3922704756259918	0.012180909514427185	0.7647193074226379	0.47881585359573364	-0.4754273593425751	-0.21668729186058044	0.20325331389904022	0.27947643399238586	-0.2266325205564499	-0.3603658378124237	-0.14041279256343842	-0.34924519062042236	-0.17195937037467957	0.4845896363258362	0.09752124547958374	-0.2534332275390625	-0.10041167587041855	-0.09379339963197708	-0.41808342933654785	-0.006394074764102697	-1.165912389755249	0.3874826729297638	0.3087112605571747	-0.1636921912431717	0.9509993195533752	1.3792922496795654	-0.06637955456972122	0.6684237718582153	0.017445972189307213	0.35256049036979675	0.4514310359954834	-0.2753866910934448	0.10353397578001022	0.14621707797050476	-0.29826340079307556	0.5739018321037292	-0.12680086493492126	-0.22557397186756134	0.8450079560279846	-0.16905061900615692	-0.22215920686721802	0.2524857223033905	0.37781980633735657	0.24709953367710114	0.16372518241405487	0.09207013249397278	0.036837607622146606	0.016014138236641884	0.7668296694755554	-0.664268970489502	0.030826019123196602	-0.10165300965309143	-0.3793073296546936	-0.825605034828186	-0.25741687417030334	1.5986169576644897	-0.10233592242002487	-0.609857976436615	0.253561794757843	-0.09482710063457489	-0.46005699038505554	-0.2634308636188507	0.6029147505760193	-0.24153006076812744	-0.7432478666305542	-0.6946026682853699	0.6318137645721436	-0.28970643877983093	0.42291349172592163	-0.2759229242801666	-0.16952861845493317	-0.41500231623649597	0.6189022660255432	-0.3289737403392792	0.5349037647247314	0.13182923197746277	0.4052245616912842	0.46179571747779846	-0.8548040390014648	-0.4354844093322754	0.01954149268567562	-0.2994407117366791	0.5097302794456482	0.05438819155097008	0.35542064905166626	0.27472665905952454	-0.13624514639377594	-0.11485355347394943	-0.20807018876075745	0.14489854872226715	0.21286247670650482	0.05732552707195282	0.6335672736167908	-0.39634379744529724	0.40230464935302734	0.4270341396331787	-0.064999058842659	0.8638025522232056	-0.4518165588378906	0.18291345238685608	0.8076798319816589	0.18653087317943573	-0.4305857717990875	-0.14759793877601624	-0.0598883219063282	0.4286794066429138	-0.3002449870109558	0.16214968264102936	0.1885489523410797	0.16021624207496643	-0.3173885643482208	0.18801766633987427	0.2798610031604767	0.5092286467552185	-0.3472629487514496	0.15294227004051208	0.294803649187088	0.26846733689308167	-0.26131945848464966	0.935715913772583	-0.19104354083538055	-0.6709545850753784	0.06313730776309967	0.8587366938591003	0.6048194766044617	0.0016149672446772456	-0.044840384274721146	0.5057960748672485	-1.1232893466949463	0.09081806987524033	0.046520449221134186	-0.33027327060699463	-0.20239095389842987	-0.26447391510009766	-0.06931768357753754	0.050764672458171844	-0.7132681608200073	0.0009721446549519897	-0.46725305914878845	-0.6588565707206726	-0.3277425765991211	-0.3288439214229584	-0.14508379995822906	0.3780595064163208	0.6611986756324768	-0.9059451222419739	0.17102426290512085	0.11601541936397552	-0.30473583936691284	0.4205254316329956	-0.3707672953605652	-0.6103019714355469	-0.6673290729522705	0.6374610066413879	-0.2800581753253937	-0.838661253452301	-0.5627469420433044	-0.3958379626274109	-0.3676147758960724	-0.07975266873836517	0.07710003852844238	1.1328965425491333	0.53882896900177	0.0015023566083982587	0.12977613508701324	-0.09460370987653732	0.15054814517498016	-0.36532652378082275	1.3608949184417725	0.6087493300437927	0.3270895779132843	-0.3659020662307739	0.25573864579200745	-0.3148956298828125	0.25774312019348145	-0.3245457112789154	0.04191598296165466	-0.1042364314198494	0.39784538745880127	-0.20168375968933105	0.40549156069755554	-0.42463231086730957	-0.005849738605320454	0.5256724953651428	-0.12455805391073227	0.10889791697263718	1.5028821229934692	-0.0019405955681577325	0.5156282782554626	0.418040931224823	0.13303464651107788	0.5108250379562378	-0.26163655519485474	-0.4629872441291809	-0.023408329114317894	-0.848412811756134	0.5382804870605469	0.08922544121742249	0.44631585478782654	1.0245113372802734	-0.329129159450531	-0.30911362171173096	0.2560579180717468	-0.08394316583871841	0.3388276994228363	0.2963257431983948	-0.010926071554422379	0.06550934165716171	-0.2585773169994354	-0.8395954370498657	-0.46060919761657715	0.24214211106300354	0.8995881676673889	-0.7803251147270203	0.05991777405142784
785691_v2.xml	-0.06577547639608383	0.19829724729061127	-0.2424595057964325	-0.22248855233192444	0.03971158713102341	-0.4484485685825348	-0.21334700286388397	-0.04806996136903763	0.4989446997642517	-0.4068771302700043	-0.60456383228302	-0.8374568819999695	0.29954051971435547	-0.7028220295906067	-0.5366148352622986	-0.17075958847999573	0.5156720280647278	-0.2826148271560669	-0.24563908576965332	0.27248677611351013	-0.27944064140319824	-0.13796328008174896	0.6765316128730774	0.5964328646659851	0.7773395776748657	-0.4667566418647766	-0.640684962272644	-0.2997342050075531	-0.7077534198760986	-0.3991410434246063	0.35174664855003357	-0.18312771618366241	-0.47301700711250305	0.19070543348789215	-0.45352232456207275	0.003588942112401128	-0.3215199112892151	0.32666346430778503	1.1512746810913086	-0.5740606784820557	0.2984083294868469	0.40852728486061096	0.09652657061815262	-0.32394227385520935	0.15356333553791046	0.05296819657087326	0.2139631062746048	-0.20493967831134796	0.2635997533798218	0.4657450318336487	0.259766161441803	-0.3776949644088745	-0.1826205551624298	-0.6703910827636719	-0.38017114996910095	0.6931076049804688	0.18083980679512024	-0.07218558341264725	1.0540211200714111	-0.08218292891979218	-0.18184992671012878	-0.4520622491836548	0.30442899465560913	-0.49332335591316223	-0.7547702789306641	-0.7995989918708801	0.09208881109952927	0.5587285161018372	0.36872628331184387	0.9150395393371582	-0.11273211240768433	0.2773221433162689	-0.2772214114665985	-0.32850515842437744	-0.05157465860247612	-0.08094193786382675	0.045289527624845505	0.5883211493492126	-0.2287365347146988	0.035558752715587616	0.10755594074726105	-0.07410591095685959	-0.17661556601524353	-0.6421732902526855	-0.13784655928611755	0.2306511551141739	-0.0926087275147438	1.0085804462432861	0.33484208583831787	-0.5668481588363647	0.16097213327884674	0.10832919180393219	0.47024795413017273	-0.36670687794685364	-0.38944241404533386	-0.051649730652570724	-0.16918893158435822	0.16728328168392181	0.34030699729919434	-0.04620857164263725	-0.24282515048980713	-0.13882234692573547	-0.2550574839115143	-0.5003183484077454	-0.14135023951530457	-1.012728214263916	0.13705061376094818	0.7245924472808838	-0.26385271549224854	1.1359050273895264	1.0924643278121948	-0.3066709339618683	0.3496715724468231	0.23768998682498932	0.26069751381874084	0.3616524934768677	-0.024686384946107864	0.06417793780565262	0.09420602768659592	-0.6408959031105042	0.853863537311554	0.09096726030111313	0.12091556936502457	0.8651340007781982	-0.5871326327323914	0.39533931016921997	0.272687166929245	0.43756937980651855	0.15686112642288208	-0.08502277731895447	0.025913026183843613	-0.022164832800626755	0.1466556191444397	0.7968558073043823	-0.9895395636558533	-0.22851447761058807	-0.29689913988113403	-0.16036765277385712	-0.8453603386878967	0.2673395276069641	1.239399790763855	-0.23122459650039673	-0.1285642385482788	0.3935019075870514	-0.04372779279947281	-0.5428370833396912	-0.01231661718338728	0.19263535737991333	-0.32982105016708374	-0.5923808217048645	-0.3249507248401642	0.5969665050506592	-0.1757597178220749	0.06733408570289612	-0.4505648612976074	0.1729625165462494	-0.18430620431900024	0.3434063792228699	-0.7049647569656372	0.6490564942359924	0.3288692235946655	0.4645729064941406	0.15847153961658478	-0.9542515873908997	-0.5190713405609131	-0.46801647543907166	-0.1384330540895462	0.5635862350463867	0.012256436049938202	0.2803959846496582	0.43571990728378296	-0.17815905809402466	0.07789523899555206	-0.35209017992019653	0.3510846197605133	0.42349210381507874	0.35696104168891907	0.8609302043914795	-0.4881208539009094	0.3556270897388458	0.43376705050468445	-0.12187124043703079	0.8787099123001099	-0.34376320242881775	0.17923270165920258	0.6892527937889099	-0.12848186492919922	-0.4225154221057892	-0.002525151474401355	-0.0030889466870576143	0.32871487736701965	-0.794838011264801	0.12778259813785553	0.31347474455833435	0.20450271666049957	-0.5618894696235657	0.44009390473365784	0.17022892832756042	0.600165069103241	-0.18159762024879456	-0.11183643341064453	0.2928147614002228	0.24276648461818695	-0.2247389853000641	1.0512361526489258	-0.2762187421321869	-0.15529920160770416	-0.0028724740259349346	0.6844668388366699	0.7368048429489136	0.13279244303703308	-0.21024538576602936	0.4495699405670166	-0.7213156819343567	0.18374961614608765	0.0738615021109581	0.05848945677280426	0.03464098274707794	-0.0034094499424099922	-0.08894582837820053	0.18978296220302582	-0.8881188035011292	-0.213793084025383	-0.45909059047698975	-0.6996052861213684	-0.20432545244693756	-0.39347776770591736	-0.4070930778980255	0.3249579966068268	0.2873319983482361	-0.8721464276313782	0.03882114216685295	0.24342645704746246	-0.1984005868434906	0.11907164007425308	-0.10607583075761795	-0.7083184719085693	-0.4998300075531006	0.6724528670310974	-0.2578257620334625	-0.7491372227668762	-0.8249073624610901	-0.15613387525081635	-0.48277536034584045	-0.1657048910856247	0.13674691319465637	0.7584405541419983	0.3445596694946289	0.21535205841064453	0.5589534640312195	-0.09959834814071655	0.3314565420150757	-0.34907928109169006	1.1998374462127686	0.4611922800540924	0.2351343184709549	-0.193364217877388	-0.2389342337846756	-0.3136175572872162	0.27929577231407166	-0.20148730278015137	0.1334293782711029	-0.2972167730331421	0.5843692421913147	0.21736352145671844	0.40204450488090515	-0.42116573452949524	0.06635909527540207	0.5961595177650452	0.04998069256544113	0.04813317954540253	1.362865924835205	-0.08814089000225067	0.14402765035629272	0.006394261494278908	-0.6909193992614746	0.3605582118034363	-0.05336049944162369	-0.3824329376220703	0.0014837449416518211	-0.6059434413909912	0.22109107673168182	-0.29430851340293884	0.28367850184440613	0.8307853937149048	-0.21544495224952698	-0.12864115834236145	0.3501587510108948	0.21185621619224548	0.5624663829803467	0.24268049001693726	-0.022384602576494217	0.2005617469549179	-0.10788512229919434	-0.6990731954574585	-0.5062309503555298	0.355102002620697	0.8330301642417908	-0.33400464057922363	0.2755874693393707
2020.02.16.951913_v1.xml	0.1949203759431839	0.34080421924591064	-0.5073860287666321	-0.30861884355545044	-0.15578030049800873	-0.26550859212875366	-0.009278845973312855	0.5068226456642151	0.21504521369934082	-0.5096606612205505	-0.515767514705658	-0.8707345724105835	0.011153950355947018	-0.15862761437892914	-0.2660749852657318	0.042703595012426376	0.0860954001545906	0.07997212558984756	-0.5605234503746033	-0.09316691756248474	-0.015350397676229477	0.08831263333559036	0.16335006058216095	0.23265548050403595	0.6160486936569214	-0.21182389557361603	-0.5639703869819641	-0.040089450776576996	-0.9955588579177856	0.17378850281238556	0.2820456326007843	-0.10386291146278381	-0.42674770951271057	0.1630597710609436	0.06333893537521362	0.18838389217853546	-0.47346100211143494	0.44815880060195923	0.8676372170448303	-0.040976088494062424	0.3147597908973694	0.5499099493026733	0.08579777181148529	-0.04558372125029564	0.28257617354393005	0.0840919017791748	-0.24528245627880096	-0.4326070547103882	0.5171293020248413	0.6160086393356323	0.5301368832588196	-0.09363534301519394	0.2353353500366211	-0.5651612877845764	-0.23249326646327972	0.5572136044502258	0.02476571500301361	-0.3730294108390808	0.9309220910072327	0.39720040559768677	0.033952705562114716	-0.5206849575042725	0.12416239827871323	-0.494872123003006	-0.5002081990242004	-0.7104129195213318	-0.17662517726421356	0.3164052963256836	-0.11601413786411285	0.08109348267316818	-0.7302674651145935	0.42125222086906433	-0.4096924960613251	-0.7197815775871277	0.1741780936717987	-0.1211097463965416	-0.5372673273086548	0.3710877299308777	0.4902878701686859	-0.09818073362112045	-0.6695479154586792	-0.044764548540115356	-0.011222516186535358	-0.12727446854114532	0.002685288665816188	0.4403477907180786	0.16157710552215576	0.8039659261703491	0.477884441614151	-0.09432024508714676	0.026905052363872528	0.19602210819721222	0.5274428129196167	-0.30100008845329285	-0.010779676958918571	-0.14978258311748505	0.17785149812698364	-0.11788767576217651	0.5837481021881104	0.2542944848537445	-0.49580520391464233	0.25504881143569946	-0.2860102653503418	-0.49314460158348083	0.05206746235489845	-1.0933669805526733	0.2490285485982895	0.5721679329872131	-0.24335108697414398	0.6259249448776245	0.9888734221458435	0.32034173607826233	0.01880117692053318	0.3352394700050354	0.5956510901451111	-0.08802583813667297	-0.2047983705997467	-0.29119160771369934	0.014885342679917812	-0.476423978805542	0.217988982796669	-0.19605790078639984	-0.10779369622468948	1.1698590517044067	-0.3676694631576538	-0.31986677646636963	-0.10825587064027786	0.576199471950531	0.2732492685317993	0.2504517436027527	0.17364101111888885	0.0186692513525486	0.05090797692537308	0.14235754311084747	-0.6011467576026917	-0.25706562399864197	-0.3499516248703003	-0.48812493681907654	-0.7197059392929077	-0.4726797938346863	1.7230324745178223	0.08240179717540741	-0.693375825881958	-0.027626631781458855	-0.0358646996319294	0.4875359535217285	-0.4849562644958496	0.5686171650886536	0.04431570693850517	-0.8935186862945557	-0.9722040891647339	0.2409329116344452	-0.3111799955368042	0.25075238943099976	-0.6330485939979553	-0.5331940650939941	-0.4547605812549591	0.6471471190452576	-0.048821911215782166	0.6801207065582275	0.19680674374103546	0.5198860168457031	0.24656802415847778	-0.2975291311740875	-0.2029067426919937	-0.11850699037313461	0.3696804344654083	0.17658233642578125	0.22260476648807526	0.37497904896736145	0.24263493716716766	0.06201934441924095	0.1560274064540863	0.09322652220726013	0.08902227133512497	-0.294511616230011	0.2501644492149353	1.2255334854125977	-0.0649881437420845	0.1954941302537918	0.6213378310203552	-0.18258076906204224	0.5390371680259705	-0.24007320404052734	0.1910131424665451	0.3914076089859009	0.13531644642353058	0.0264784786850214	0.5623331665992737	0.04944206774234772	-0.26877984404563904	-0.3706924319267273	0.006579986773431301	0.0052427914924919605	-0.0382455438375473	-0.5203288793563843	0.08015944063663483	0.42068061232566833	0.9054293036460876	-0.21456463634967804	-0.040513910353183746	0.13988791406154633	0.3323049247264862	-0.10185830295085907	0.7346067428588867	0.06973779946565628	-0.647534966468811	0.07679397612810135	0.5578795671463013	0.40446794033050537	0.40806862711906433	0.2353690266609192	0.4625910520553589	-0.3618437349796295	-0.39562880992889404	-0.10604699701070786	-0.6730372309684753	0.0971103310585022	0.058403380215168	-0.22730855643749237	0.24495342373847961	-0.7046242356300354	-0.3272823393344879	-0.4688306152820587	-0.8452624678611755	-0.16436858475208282	-0.19892989099025726	0.09285694360733032	0.20309017598628998	0.16036216914653778	-0.8115249276161194	0.019054817035794258	0.01566924713551998	-0.7618048191070557	0.14514903724193573	-0.048123300075531006	-1.1971755027770996	-0.6835697889328003	0.6208234429359436	-0.3095756769180298	-0.6791262626647949	-0.26776885986328125	-0.6194903254508972	-0.2825535833835602	-0.02461910992860794	-0.4997427761554718	1.3035882711410522	0.6454735994338989	0.18231002986431122	0.5045434236526489	-0.06129525229334831	0.20905429124832153	-0.29643648862838745	0.40308815240859985	0.30521106719970703	0.21211206912994385	-0.34017762541770935	0.26817840337753296	0.03152325376868248	-0.09394415467977524	0.08081982284784317	0.0980813205242157	-0.32472655177116394	0.3649081289768219	-0.4646247327327728	1.0145742893218994	-0.1812160313129425	0.035218413919210434	0.3594679832458496	0.06729182600975037	0.2483145296573639	1.1261976957321167	0.694272518157959	0.5296885371208191	0.22612981498241425	0.08553805202245712	0.26598837971687317	-0.005422479007393122	0.043533697724342346	-0.3208078145980835	-0.8348091840744019	0.24859990179538727	-0.17548102140426636	0.2607128322124481	0.7369781136512756	-0.5077837109565735	-0.258145272731781	-0.16103151440620422	-0.2921208143234253	0.2794603705406189	0.4885183572769165	0.7269425988197327	-0.14720243215560913	0.17994315922260284	-0.7784011363983154	0.0424467995762825	0.5294824838638306	0.4173559844493866	-0.2653811275959015	0.40736061334609985
2020.01.22.914952_v2.xml	-0.03537408262491226	0.02473764307796955	-0.2916402816772461	-0.21857395768165588	-0.3227800130844116	-0.34768062829971313	0.03672558069229126	0.36191895604133606	0.3940577507019043	-0.1404723972082138	-0.7098039984703064	-0.9545521140098572	0.2271159142255783	-0.28934842348098755	-0.41136857867240906	0.12897935509681702	0.32584327459335327	-0.0885540321469307	-0.273129403591156	0.05963447690010071	0.05296769738197327	-0.3113967478275299	0.3569050431251526	0.4413055181503296	0.5707226991653442	-0.07676269114017487	-0.4377369284629822	-0.09435077011585236	-0.6763037443161011	-0.15277090668678284	0.20799364149570465	-0.20545312762260437	-0.29234611988067627	0.14512720704078674	-0.2524883449077606	-0.09292982518672943	-0.5840692520141602	0.1883581429719925	0.8824340105056763	-0.5390366315841675	0.3363683819770813	0.3210359215736389	-0.025852540507912636	-0.11884117871522903	0.022656448185443878	-0.14605572819709778	0.015545246191322803	-0.5944963693618774	0.2189006805419922	0.5239303112030029	0.3971389830112457	-0.2680463194847107	0.013487243093550205	-0.37660324573516846	-0.15871289372444153	0.5305559635162354	-0.14608807861804962	-0.13061410188674927	0.5206665992736816	0.09606064110994339	-0.24176424741744995	-0.14070606231689453	-0.10399889200925827	-0.5741174817085266	-0.3597673177719116	-0.546399712562561	-0.020077276974916458	0.16109654307365417	0.20597316324710846	0.5276245474815369	-0.5686296820640564	0.3494627773761749	-0.34710821509361267	-0.4241589605808258	0.0441867969930172	-0.04018635302782059	-0.49602359533309937	0.5322380661964417	0.11244244128465652	-0.0031898512970656157	0.033850155770778656	-0.13686159253120422	-0.04927872121334076	-0.49570485949516296	0.040168602019548416	0.29706141352653503	-0.023852387443184853	0.893184244632721	0.24111422896385193	-0.46410736441612244	-0.1383301168680191	0.15613141655921936	0.28346532583236694	-0.2689962685108185	-0.00446041114628315	-0.03656943887472153	-0.0026245866902172565	0.055033981800079346	0.515272319316864	0.18781474232673645	-0.1321168690919876	0.047332897782325745	-0.2893461585044861	-0.5671855211257935	-0.016298392787575722	-0.5620679259300232	0.2802959978580475	0.39393967390060425	0.042398981750011444	0.6887259483337402	1.039757251739502	-0.1715516597032547	0.25202542543411255	0.3960456848144531	0.2429574579000473	0.1493537425994873	-0.14265283942222595	-0.1488344371318817	-0.13305886089801788	-0.5489286780357361	0.34479600191116333	-0.13062772154808044	-0.16751331090927124	0.865619957447052	0.004802844487130642	0.06368739157915115	-0.05016186088323593	0.6379166841506958	0.2201450914144516	0.15679699182510376	-0.02381776086986065	-0.021383486688137054	-0.1333816647529602	0.22598090767860413	-0.6584300398826599	-0.22679777443408966	-0.23919455707073212	-0.3033590316772461	-0.6465286016464233	0.005417858716100454	1.4376676082611084	-0.07230425626039505	-0.5831254720687866	0.1269931197166443	-0.4194961488246918	-0.1221444234251976	-0.21750189363956451	0.3354859948158264	0.0448274202644825	-0.8348878622055054	-0.5969803333282471	0.5104343891143799	-0.3847697377204895	0.017127376049757004	-0.30198219418525696	-0.19356031715869904	-0.35803648829460144	0.6214232444763184	-0.5580263733863831	0.6220280528068542	-0.13987816870212555	0.4208700656890869	0.360378235578537	-0.5959815979003906	-0.3984779715538025	0.08029285818338394	0.041826315224170685	0.5788314342498779	-0.06936422735452652	0.4441145956516266	0.2790914475917816	-0.09408967196941376	0.218424990773201	-0.18634942173957825	-0.06716950982809067	0.17317071557044983	0.06089536100625992	0.7645366191864014	-0.12385200709104538	0.2532242238521576	0.6400346755981445	0.02837110310792923	0.6860243678092957	-0.2938540577888489	0.1482180505990982	0.580346941947937	-0.02150215394794941	-0.3480556607246399	0.07246710360050201	-0.1278962641954422	0.08163436502218246	-0.2703796625137329	0.05343145877122879	0.22055724263191223	0.3770712614059448	-0.4216361343860626	0.26931247115135193	0.3508515954017639	0.32461148500442505	-0.2647247612476349	-0.18942418694496155	0.04329570382833481	-0.06280988454818726	-0.31805363297462463	0.6896054148674011	-0.18844152987003326	-0.49334120750427246	0.09130722284317017	0.7044793963432312	0.469216912984848	0.45840203762054443	0.14566445350646973	0.136594757437706	-0.40856191515922546	-0.11672291159629822	-0.07397361844778061	-0.5114094018936157	-0.06855981796979904	-0.1298885941505432	-0.1533677726984024	0.09938790649175644	-0.6269760727882385	-0.11184613406658173	-0.4674839675426483	-0.5626199245452881	-0.07782726734876633	-0.33643314242362976	-0.23859460651874542	0.024513481184840202	0.21063746511936188	-0.9820930361747742	0.2207331657409668	0.04518842697143555	-0.55138099193573	0.24086537957191467	-0.16571125388145447	-0.8073562979698181	-0.5504589080810547	0.771359920501709	-0.07438730448484421	-0.441468745470047	-0.5441238284111023	-0.376497358083725	-0.2540058493614197	-0.2684735357761383	0.10370047390460968	1.0991795063018799	0.23989301919937134	0.44270581007003784	0.3614705502986908	-0.15028482675552368	0.1443949192762375	-0.11328402906656265	0.9625710844993591	0.8021592497825623	0.34985077381134033	-0.26329973340034485	0.06516652554273605	-0.3664269745349884	0.4127313792705536	-0.3732775151729584	-0.16615600883960724	-0.2973843216896057	0.5055555105209351	-0.11202392727136612	0.45719262957572937	-0.3217429220676422	-0.052873097360134125	0.2980232238769531	-0.1345195323228836	0.10513480007648468	1.172699213027954	0.004557372070848942	0.4652295708656311	0.21688780188560486	-0.18950556218624115	0.015571696683764458	-0.001525569474324584	-0.38383451104164124	0.07989635318517685	-0.5218161344528198	0.4539186656475067	0.04474567994475365	0.3392989933490753	0.6756491661071777	-0.23600977659225464	-0.4883084297180176	0.2107505053281784	-0.002944281790405512	0.46830272674560547	-0.04694481939077377	0.22516867518424988	-0.06437250971794128	-0.1297103613615036	-0.8005103468894958	-0.14055608212947845	0.48272505402565	0.5463081002235413	-0.5903599858283997	0.4962172210216522
819037_v1.xml	0.13981308043003082	-0.004045835696160793	-0.5593763589859009	-0.02938527800142765	-0.0951475277543068	-0.2837291955947876	-0.0864894762635231	-0.025438038632273674	0.2568151354789734	-0.5010622143745422	-0.5400356650352478	-0.8051775097846985	-0.08406446874141693	-0.3858807384967804	-0.3520900309085846	0.010322483256459236	0.3750844895839691	-0.13447268307209015	0.007579092867672443	-0.04526328667998314	-0.06522782891988754	0.15134131908416748	0.20931662619113922	0.2443351149559021	0.7330360412597656	-0.0810607299208641	-0.3522210121154785	-0.1426483690738678	-0.6036075949668884	0.08492688834667206	0.15695172548294067	0.04625377431511879	-0.13303066790103912	0.09396228194236755	0.0037546977400779724	0.13571478426456451	-0.22035826742649078	0.7338205575942993	0.7362270951271057	0.15952716767787933	-0.07116835564374924	0.6003111600875854	0.41221070289611816	-0.025380214676260948	-0.1439448446035385	0.20744387805461884	-0.08858640491962433	-0.4750858247280121	0.5237128734588623	0.4385864734649658	0.13846085965633392	-0.3884005844593048	0.05418523773550987	-0.9042258858680725	-0.1746380478143692	0.1979198008775711	0.12234579771757126	-0.2546805739402771	0.7861267924308777	0.355919748544693	0.1869542896747589	-0.500625729560852	0.34434908628463745	-0.42587050795555115	-0.498401403427124	-0.35879790782928467	-0.06945773959159851	0.14670877158641815	-0.08136550337076187	0.2189752608537674	-0.471863716840744	0.3837016224861145	-0.38757115602493286	-0.48818540573120117	0.07782479375600815	-0.17407603561878204	-0.2314860224723816	0.41170209646224976	0.21774068474769592	-0.1969640552997589	-0.6732935309410095	-0.2610153555870056	0.15741002559661865	-0.2898153066635132	-0.053170278668403625	0.5368248224258423	-0.07362478971481323	0.6716659069061279	0.4286176860332489	-0.10982965677976608	-0.006066576112061739	0.10628864914178848	0.3140758275985718	-0.33335256576538086	-0.3126678466796875	0.001803395338356495	0.03059721179306507	0.24693597853183746	0.3506879210472107	0.08297539502382278	-0.13633787631988525	0.3435716927051544	-0.5700307488441467	-0.32865405082702637	0.0485028475522995	-0.9462068676948547	0.09362754225730896	0.5159730315208435	-0.25134047865867615	0.7845508456230164	1.096826434135437	0.045812200754880905	0.26343023777008057	0.19312229752540588	0.5256134867668152	0.10472889244556427	0.035694584250450134	-0.07597510516643524	-0.18870346248149872	-0.11912037432193756	0.5567032694816589	-0.09501790255308151	-0.08107737451791763	0.756407618522644	-0.59247225522995	-0.049186114221811295	-0.1831781417131424	0.5430663824081421	0.19217753410339355	0.005011998116970062	-0.11062251031398773	-0.1975369155406952	-0.13902035355567932	0.3283819854259491	-0.8226251602172852	-0.33097922801971436	-0.5371052622795105	-0.35207653045654297	-0.3806553781032562	-0.26299694180488586	1.174446702003479	-0.406769335269928	-0.78651362657547	-0.013588867150247097	-0.005191644188016653	0.052792709320783615	-0.588265061378479	0.30209624767303467	-0.1708080768585205	-0.8129258751869202	-0.6494896411895752	0.11989625543355942	-0.25093376636505127	0.3328005373477936	-0.48896902799606323	-0.13377679884433746	-0.6074910163879395	0.5963718891143799	0.03725140914320946	0.22467908263206482	0.48927903175354004	0.2738893926143646	0.19964314997196198	-0.42788994312286377	-0.6442210674285889	-0.1882004737854004	-0.01748080551624298	0.4469907581806183	0.18929781019687653	0.03915780782699585	0.08372175693511963	-0.1414417028427124	0.1516696661710739	0.07363436371088028	0.22897900640964508	0.07106894999742508	0.1785869598388672	1.0257169008255005	-0.320865660905838	-0.11223345994949341	0.1833447366952896	-0.16668610274791718	0.543664813041687	-0.30433839559555054	0.2589372396469116	0.48087024688720703	0.06327752023935318	-0.22676637768745422	0.41421079635620117	0.003956223372370005	0.0792207345366478	-0.5686923265457153	-0.18205079436302185	-0.0289914570748806	0.03714340925216675	-0.6503993272781372	0.1920199692249298	0.26902079582214355	0.7048904895782471	-0.276449590921402	-0.11155533790588379	-0.0007732334197498858	0.3250662088394165	-0.060938600450754166	0.6341568231582642	0.21942101418972015	-0.4621654748916626	-0.010717306286096573	0.5684681534767151	0.6203643083572388	0.0835970938205719	0.016917984932661057	0.21259556710720062	-0.3362071216106415	-0.2678154706954956	-0.35365235805511475	-0.04006345942616463	-0.09984047710895538	-0.1293831765651703	-0.1750132143497467	-0.07621194422245026	-0.6917418241500854	-0.29019129276275635	-0.11817409098148346	-0.1887366622686386	-0.05301348492503166	-0.5643565654754639	-0.2747281789779663	0.10372260957956314	0.14922459423542023	-0.5715488791465759	0.2875371277332306	0.20123453438282013	-0.7756660580635071	0.0943017303943634	0.08505307137966156	-0.9189314246177673	-0.5626600384712219	0.4122597277164459	-0.24004405736923218	-0.5926786065101624	-0.437317818403244	-0.2948962152004242	-0.2567526698112488	-0.2216966450214386	-0.21635080873966217	1.0374138355255127	0.5267439484596252	-0.0034229152370244265	0.4465516209602356	0.09780295193195343	0.2166905403137207	0.15537747740745544	0.6035900115966797	0.04021335393190384	0.2729921042919159	-0.20910264551639557	0.0022850402165204287	-0.25870567560195923	-0.006970585323870182	-0.05064542591571808	0.041590120643377304	-0.2571913003921509	0.3344808518886566	-0.23931841552257538	0.5299358367919922	-0.03732902184128761	0.023295460268855095	0.27578476071357727	-0.0013703281292691827	0.028698932379484177	1.0919349193572998	0.40192535519599915	0.15161538124084473	0.09259290248155594	-0.28453099727630615	0.29065847396850586	0.12478667497634888	0.06803574413061142	-0.18070454895496368	-0.32271265983581543	0.14126716554164886	-0.32772767543792725	0.13216599822044373	0.8560996651649475	-0.30115818977355957	-0.1325739473104477	-0.04306210204958916	-0.30574503540992737	0.5890495777130127	0.2497677057981491	0.3149673640727997	0.11830683052539825	0.1399296075105667	-0.6477769613265991	0.11746753007173538	0.5178040266036987	0.3414311110973358	-0.2342129796743393	0.37037786841392517
2020.03.21.001933_v1.xml	-0.00021797492809128016	0.030234578996896744	-0.39847302436828613	-0.10297032445669174	0.038866277784109116	-0.4560984969139099	-0.30633240938186646	-0.021029867231845856	0.6706069707870483	-0.19713091850280762	-0.5806205868721008	-0.9129805564880371	0.39625638723373413	-0.7472366094589233	-0.7097328901290894	0.008200233802199364	0.625644862651825	-0.16534094512462616	-0.04284321144223213	0.07805056124925613	-0.09479106217622757	-0.17931091785430908	0.6409953236579895	0.6398366093635559	0.8415141701698303	-0.43324583768844604	-0.4098605215549469	-0.11297653615474701	-0.5371139049530029	-0.20432353019714355	0.18514060974121094	-0.07510660588741302	-0.4549699127674103	-0.011277484707534313	-0.634467601776123	0.034228965640068054	-0.3242792785167694	0.361797034740448	0.7859183549880981	-0.3960299789905548	0.3186928629875183	0.45380011200904846	0.17279265820980072	-0.2135760337114334	0.2797148823738098	0.041124310344457626	0.10784560441970825	-0.35355067253112793	0.19242650270462036	0.436757892370224	0.23119689524173737	-0.3662170171737671	-0.005975678097456694	-0.5357896685600281	-0.21491889655590057	0.7976753115653992	0.12045489251613617	-0.0698336586356163	1.0042616128921509	-0.0624898225069046	0.14086081087589264	-0.2500153183937073	0.26719021797180176	-0.5964434742927551	-0.671258270740509	-0.6074853539466858	-0.10549034923315048	0.3298213481903076	0.26419922709465027	0.8181259036064148	-0.2697572410106659	0.3144778311252594	-0.5757147669792175	-0.3330705463886261	0.15730591118335724	-0.20127953588962555	-0.23793494701385498	0.48993661999702454	-0.10487370938062668	0.04297405481338501	-0.2672371566295624	-0.1829892247915268	-0.16603954136371613	-0.606795072555542	-0.1900356411933899	0.3626860976219177	0.17466849088668823	0.6737276315689087	0.19270296394824982	-0.2454017996788025	0.11235330998897552	0.37391507625579834	0.30811047554016113	-0.47743654251098633	-0.39833781123161316	0.1290384829044342	-0.11464963108301163	0.10298421233892441	0.17612436413764954	0.1404457837343216	0.06812459975481033	-0.1162525862455368	-0.3215824365615845	-0.4541442394256592	-0.09561225026845932	-0.694115161895752	0.17621161043643951	0.5858322381973267	0.10555528104305267	0.8075985312461853	1.2278801202774048	-0.409930557012558	0.12411963939666748	0.3182099461555481	0.2891860902309418	0.40622416138648987	-0.2956835925579071	0.18254205584526062	-0.0026258956640958786	-0.4469608962535858	0.5251076817512512	0.01848793961107731	-0.12622740864753723	0.8868987560272217	-0.33248886466026306	0.1612575352191925	-0.1799439638853073	0.6155645847320557	0.36840638518333435	-0.06782572716474533	0.08172441273927689	-0.11793887615203857	0.1716303527355194	0.6146357655525208	-0.6944707036018372	-0.16001446545124054	-0.40511539578437805	-0.04360447824001312	-0.6937525868415833	0.25773605704307556	1.359829306602478	-0.13893066346645355	-0.2734230160713196	0.2531897723674774	-0.18231840431690216	-0.38488930463790894	-0.3849865794181824	0.44403359293937683	0.0795278325676918	-0.8399972319602966	-0.6338748335838318	0.3033547103404999	-0.33139893412590027	0.10378102958202362	-0.29073694348335266	-0.12730135023593903	-0.5105828046798706	0.431540310382843	-0.4966028034687042	0.5645103454589844	0.29256120324134827	0.4662367105484009	0.2324800044298172	-0.8445637822151184	-0.44372981786727905	-0.2647959589958191	-0.15500006079673767	0.7230520248413086	-0.11260128766298294	-0.11897145956754684	0.4605889320373535	-0.22088561952114105	0.14262013137340546	-0.34058722853660583	0.05828317999839783	0.41323018074035645	0.2958294749259949	0.6847967505455017	-0.47895348072052	0.4250284731388092	0.49800270795822144	0.08234497159719467	0.35625210404396057	-0.44323861598968506	0.11403582245111465	0.4198906719684601	0.013879287987947464	-0.757729709148407	-0.05472266301512718	-0.08956751972436905	0.3256549835205078	-0.9122547507286072	0.07567616552114487	0.02351045422255993	0.3510490655899048	-0.3140479028224945	0.6151310205459595	0.27827027440071106	0.5493769645690918	-0.295551598072052	-0.16874884068965912	0.009027496911585331	0.46378353238105774	-0.2297266572713852	0.8431929349899292	-0.020433450117707253	-0.29367417097091675	-0.04339783266186714	0.523608386516571	0.6383334994316101	-0.038313478231430054	-0.02274545468389988	0.3114640414714813	-0.6671832203865051	0.1787802129983902	-0.044482991099357605	0.19857649505138397	-0.06188877671957016	-0.19117797911167145	0.0063959164544939995	-0.02141304314136505	-0.7731993198394775	0.0018109593074768782	-0.3765409290790558	-0.3851926028728485	-0.2244480550289154	-0.5591974854469299	-0.36429837346076965	0.09622153639793396	0.34344059228897095	-0.6564357876777649	0.16568811237812042	0.19854532182216644	-0.032758429646492004	0.0033588497899472713	-0.18096700310707092	-0.7342702746391296	-0.4645754098892212	0.5433744192123413	-0.1901484727859497	-0.5043366551399231	-0.8598219156265259	-0.23990829288959503	-0.42110514640808105	-0.27422410249710083	0.011736498214304447	1.1409227848052979	0.37628740072250366	0.13280771672725677	0.5489740371704102	-0.05030173808336258	0.272797554731369	-0.05726253241300583	1.1897530555725098	0.544055163860321	0.44677600264549255	-0.1236705332994461	0.12821698188781738	-0.21738773584365845	0.08717815577983856	-0.20941731333732605	0.0017038423102349043	-0.25958964228630066	0.6271605491638184	0.34618818759918213	0.32219094038009644	0.03437783569097519	0.04200026020407677	0.40301260352134705	0.11000081151723862	0.11875130236148834	1.6157727241516113	-0.0926797166466713	0.3114370107650757	0.19981658458709717	-0.5720767378807068	0.4326547682285309	-0.24568535387516022	-0.5108889937400818	0.11751905828714371	-0.4428308606147766	0.29167449474334717	-0.2010039985179901	0.32996392250061035	0.7452160120010376	-0.19454924762248993	0.05662776157259941	0.37279292941093445	-0.06578235328197479	0.5404542684555054	0.19136255979537964	0.03701874613761902	-0.003989261109381914	0.06668814271688461	-0.6833289861679077	-0.12287218123674393	0.5364010334014893	0.8807083368301392	-0.4075523316860199	0.42383724451065063
2020.02.17.952903_v1.xml	-0.37855812907218933	0.04359656944870949	-0.7165234684944153	0.018138090148568153	0.20744194090366364	-0.608612060546875	-0.3944803774356842	0.12658245861530304	0.748669445514679	-0.04346179589629173	-0.19701525568962097	-0.6996431350708008	0.26009401679039	-0.2873321771621704	-0.6817020773887634	0.1425514668226242	0.6783109307289124	0.12484589964151382	-0.14562925696372986	-0.15217682719230652	-0.06545385718345642	-0.16142316162586212	0.4711245894432068	0.5090335011482239	0.9131672978401184	-0.15892928838729858	-0.4774860739707947	-0.1570197194814682	-0.6720503568649292	0.013810733333230019	0.1855887621641159	0.021609123796224594	-0.13335677981376648	-0.08035088330507278	-0.5495031476020813	0.13402587175369263	-0.27120697498321533	0.5093249678611755	0.5270240902900696	-0.18381255865097046	0.3505689203739166	0.5488113760948181	0.07341869920492172	0.023647690191864967	-0.12322542071342468	0.028465919196605682	0.014464760199189186	-0.36043044924736023	0.04364148899912834	0.2133086770772934	0.14136438071727753	-0.1800660789012909	-0.2677196264266968	-0.38222575187683105	-0.1826874166727066	0.4013080596923828	-0.14768140017986298	0.10517457127571106	0.9232683777809143	0.3435807228088379	-0.04623975232243538	-0.10191858559846878	0.062285713851451874	-0.5986101627349854	-0.3917217254638672	-0.5199399590492249	-0.08082518726587296	-0.1187322735786438	0.27428773045539856	0.8453839421272278	-0.5214088559150696	0.6545073390007019	-0.5919627547264099	-0.3950899839401245	0.09925778210163116	-0.1345137059688568	-0.7183154225349426	0.2491469830274582	-0.058083005249500275	0.22032131254673004	-0.24947133660316467	-0.11370998620986938	0.1632678061723709	-0.8167560696601868	-0.1299644410610199	0.5139451026916504	0.1092972382903099	0.5008375644683838	0.23152117431163788	-0.19685856997966766	-0.030935589224100113	0.25071805715560913	0.146317720413208	-0.47150206565856934	-0.1983729898929596	0.15583185851573944	-0.38275033235549927	-0.2717755138874054	0.23487459123134613	0.12764666974544525	0.3371843993663788	0.16728147864341736	-0.4606795907020569	-0.056041114032268524	-0.09259216487407684	-0.7693874835968018	0.27756577730178833	0.48493772745132446	0.6353422999382019	0.5689034461975098	1.1587222814559937	-0.15609750151634216	0.1407882124185562	0.2353547364473343	0.16581006348133087	0.2995714247226715	-0.05040383338928223	0.09814193844795227	0.007141034118831158	-0.6318838596343994	0.44292357563972473	-0.08253569155931473	-0.2460974156856537	0.8697835803031921	-0.442295104265213	0.26454591751098633	-0.40354785323143005	0.6127384901046753	0.07405274361371994	-0.519812285900116	0.04439646378159523	-0.24303463101387024	-0.06186230480670929	0.35392361879348755	-0.6089843511581421	-0.0960770919919014	-0.3419741094112396	-0.2263551652431488	-0.6517345905303955	0.005916056223213673	1.3390380144119263	-0.10704049468040466	-0.405066579580307	-0.008909160271286964	0.18009179830551147	-0.08001483976840973	-0.8517675995826721	0.29955363273620605	0.23541869223117828	-0.8558871746063232	-0.4877517521381378	0.16339364647865295	-0.3825419545173645	0.26928645372390747	-0.07423130422830582	-0.45259153842926025	-0.5236010551452637	0.3259528875350952	-0.41025999188423157	0.19367200136184692	0.051583029329776764	0.5453782081604004	0.38509681820869446	-0.7358066439628601	-0.5050816535949707	-0.12202425301074982	-0.10507430881261826	0.6249545216560364	-0.2595925033092499	-0.03123731166124344	0.3876630663871765	-0.054932963103055954	0.4973399043083191	-0.2615576684474945	-0.038907360285520554	0.1864609718322754	-0.1848064661026001	0.7740850448608398	-0.3079093098640442	0.43747884035110474	0.5139107704162598	0.028165630996227264	0.3724094331264496	-0.25463470816612244	-0.044007401913404465	0.6476094722747803	-0.08010060340166092	-0.6276212334632874	0.11847090721130371	-0.31940269470214844	0.4207346439361572	-0.9649827480316162	-0.27044621109962463	-0.04371126368641853	0.3390587270259857	-0.2179684340953827	0.6234034895896912	0.5076472759246826	0.5490114688873291	-0.6475814580917358	-0.22431324422359467	0.0770753026008606	0.45266804099082947	-0.07691112905740738	0.5144110321998596	0.1316676139831543	-0.38023602962493896	0.01503615453839302	0.6947718262672424	0.3420621156692505	0.32016536593437195	0.23097674548625946	0.3651662766933441	-0.645248293876648	-0.17788217961788177	-0.17506416141986847	0.18255484104156494	0.05091322585940361	-0.33224183320999146	-0.011720203794538975	0.13034780323505402	-1.0028197765350342	-0.047182414680719376	-0.04922400414943695	-0.33293798565864563	0.15488599240779877	-0.6402518153190613	-0.2575935423374176	0.08172788470983505	0.4805813133716583	-0.8903389573097229	0.35636332631111145	-0.13733379542827606	-0.36579492688179016	0.038297295570373535	-0.17244845628738403	-0.8426229357719421	-0.43974578380584717	0.6564849615097046	-0.23963966965675354	-0.39576131105422974	-0.6794641613960266	-0.1655563861131668	-0.15246152877807617	-0.3958418369293213	-0.1265593022108078	1.2648284435272217	0.663996696472168	-0.1854594200849533	0.5318410992622375	-0.12651367485523224	0.08457193523645401	0.03634649142622948	1.1993199586868286	0.39678388833999634	0.5907233357429504	-0.022060679271817207	0.17917777597904205	-0.4756045937538147	-0.06514240801334381	-0.31237176060676575	-0.10656115412712097	-0.3328627347946167	0.6053646206855774	0.4055343568325043	0.3026323616504669	0.3320603668689728	-0.01654912903904915	0.19713804125785828	0.19297605752944946	0.10905902087688446	1.5488080978393555	0.17906519770622253	0.5074909329414368	0.2548942267894745	-0.6046784520149231	0.5819503664970398	-0.27427998185157776	-0.4176687002182007	0.07003538310527802	-0.4778696894645691	0.36900466680526733	0.11895810812711716	0.1041799858212471	0.35988569259643555	-0.3374407887458801	-0.012429061345756054	0.505626380443573	0.044631920754909515	0.5293906927108765	0.06998520344495773	0.03814158961176872	0.05442190170288086	0.2102898359298706	-0.6204366087913513	0.24095407128334045	0.7311374545097351	0.7367067933082581	-0.6465901136398315	0.5270582437515259
2020.03.13.991570_v1.xml	-0.14603781700134277	-0.03568950667977333	-0.7206811904907227	-0.14852595329284668	0.06621549278497696	-0.5412927865982056	-0.3144894242286682	0.11430319398641586	0.3513883054256439	-0.24077168107032776	-0.42374974489212036	-0.7636658549308777	0.08582480251789093	-0.05532984435558319	-0.5774635076522827	0.1220240443944931	0.46920591592788696	0.17921538650989532	-0.10474009811878204	-0.3691633939743042	-0.09421522170305252	-0.058689720928668976	0.2974466383457184	0.48171091079711914	0.7530913949012756	-0.24289380013942719	-0.4428778290748596	-0.25239452719688416	-0.5082153677940369	-0.08599095046520233	0.2071276605129242	-0.036945294588804245	-0.21320758759975433	-0.09075099229812622	-0.2824591100215912	0.08430751413106918	-0.4499056041240692	0.33140039443969727	0.3324652910232544	0.05035559833049774	0.14711527526378632	0.6872743368148804	-0.01604892872273922	-0.010470021516084671	-0.13769781589508057	0.016955187544226646	-0.21853086352348328	-0.6188240647315979	0.10120407491922379	0.19756470620632172	0.2961857318878174	-0.15493200719356537	-0.1319020837545395	-0.3652366101741791	-0.06834279745817184	0.2805479168891907	-0.06253117322921753	-0.1352638453245163	0.6284939050674438	0.2455139458179474	-0.04455900564789772	-0.37727805972099304	0.143011212348938	-0.6632801294326782	-0.31737858057022095	-0.10750773549079895	-0.027263667434453964	-0.06494215130805969	0.2220069020986557	0.6968181729316711	-0.5344526171684265	0.46631813049316406	-0.4405461251735687	-0.2557188868522644	0.1066112071275711	-0.13008248805999756	-0.5626479983329773	0.4292250871658325	0.010375049896538258	-0.10321830213069916	-0.5269384980201721	-0.23963242769241333	0.1090075671672821	-0.8572761416435242	-0.20590926706790924	0.50080406665802	0.08135250955820084	0.6216570138931274	0.3208092153072357	-0.19295595586299896	-0.19059878587722778	0.3566446900367737	0.21794414520263672	-0.576766312122345	-0.28388917446136475	0.1146106943488121	-0.21126790344715118	0.11259473860263824	0.24752773344516754	0.15405014157295227	0.08520296216011047	0.26092618703842163	-0.5449681282043457	-0.3260507881641388	-0.008230584673583508	-0.5201608538627625	-0.09586776047945023	0.5087583661079407	0.4260764718055725	0.5173779129981995	1.007375955581665	-0.16911152005195618	0.049277275800704956	0.34644582867622375	0.24040880799293518	0.2292158603668213	0.1541355699300766	0.15715722739696503	-0.35482171177864075	-0.4160349369049072	0.3869263231754303	0.135432630777359	-0.12385545670986176	0.846349835395813	-0.28976768255233765	0.10968369245529175	-0.4552364647388458	0.4168556332588196	-0.04979324713349342	-0.5080100893974304	0.050336215645074844	-0.26155921816825867	0.01606656238436699	0.09549488872289658	-0.5940822958946228	0.05140417441725731	-0.41539502143859863	-0.11303374171257019	-0.4522778391838074	-0.0038146055303514004	1.262142300605774	-0.20135004818439484	-0.6378243565559387	-0.04107707366347313	-0.06375573575496674	-0.007761538960039616	-0.5620386004447937	0.2661369740962982	0.32957059144973755	-0.7054057121276855	-0.412709504365921	0.033788785338401794	-0.5133057236671448	0.06018410623073578	-0.16886325180530548	-0.4173484146595001	-0.4949624836444855	0.41789519786834717	-0.5535104274749756	0.23038175702095032	0.08091043680906296	0.6490645408630371	0.3042144775390625	-0.6171977519989014	-0.7061009407043457	-0.24900978803634644	0.04807592183351517	0.4813549816608429	-0.2382991760969162	-0.13169261813163757	0.2336333990097046	-0.14938665926456451	0.40964141488075256	-0.1749538630247116	-0.23239777982234955	0.31951647996902466	-0.23070459067821503	0.6002198457717896	-0.17781317234039307	0.211192324757576	0.5343900322914124	0.007847226224839687	0.3923291265964508	-0.15643027424812317	-0.12137707322835922	0.47911861538887024	0.10624247789382935	-0.5254495143890381	0.3181014358997345	-0.3544202446937561	0.21887147426605225	-0.728845477104187	-0.26361238956451416	0.0813920870423317	0.32094335556030273	-0.3599341809749603	0.417940616607666	0.3791975975036621	0.4363906681537628	-0.5617498159408569	-0.28819483518600464	-0.006631203927099705	0.22756488621234894	-0.21642597019672394	0.35823389887809753	-0.01038679014891386	-0.30666157603263855	0.21829137206077576	0.7555047869682312	0.450417160987854	0.40572717785835266	0.25745469331741333	0.08007689565420151	-0.4895954728126526	-0.06149721145629883	-0.38107919692993164	-0.13640479743480682	0.3111365735530853	-0.1621982455253601	-0.22802506387233734	0.02796919457614422	-0.8259904384613037	-0.25952789187431335	0.09409283846616745	-0.11611291766166687	0.10571499168872833	-0.7401446104049683	-0.3475085496902466	-0.2986617982387543	0.359803706407547	-0.9254348874092102	-0.05771173909306526	-0.030242526903748512	-0.22927936911582947	-0.06736642122268677	-0.2369162142276764	-0.8327476978302002	-0.4103170335292816	0.7224591374397278	-0.16408677399158478	-0.4339683949947357	-0.7612655758857727	-0.11793390661478043	-0.039679691195487976	-0.4591362178325653	-0.29698649048805237	1.3639881610870361	0.4960513114929199	0.13024868071079254	0.7116566300392151	0.06161466985940933	0.27256515622138977	0.3670623302459717	1.0493693351745605	0.35085737705230713	0.6271761059761047	0.0029623666778206825	-0.07223071902990341	-0.6704557538032532	0.09949139505624771	-0.38840147852897644	-0.07819836586713791	-0.24474842846393585	0.6029113531112671	0.3846767842769623	0.5236626267433167	0.35234785079956055	-0.21670527756214142	-0.0320388488471508	-0.15010732412338257	-0.06134558841586113	1.4490331411361694	0.399927020072937	0.5775861740112305	0.1944957673549652	-0.5214390754699707	0.22192686796188354	-0.21588246524333954	-0.2184414267539978	0.1402146816253662	-0.49194204807281494	0.36898964643478394	0.13764557242393494	0.12857893109321594	0.3451133072376251	-0.16585586965084076	0.14901405572891235	0.3781248927116394	-0.2573125660419464	0.41609102487564087	-0.030960092321038246	0.08978895097970963	0.08478004485368729	0.07676083594560623	-0.6559240818023682	0.1338164210319519	0.6999365091323853	0.6687641143798828	-0.5354763865470886	0.8888347148895264
813378_v2.xml	0.41687139868736267	0.3424749970436096	-0.5321681499481201	-0.2595117390155792	-0.2474517524242401	-0.36331242322921753	-0.11402330547571182	0.12465060502290726	0.5296971797943115	-0.4081164598464966	-0.5124102234840393	-0.8891304731369019	0.2728133201599121	-0.38396069407463074	-0.3113277852535248	-0.018951764330267906	0.3433986306190491	-0.08562352508306503	-0.3643464744091034	0.09675932675600052	-0.13974198698997498	0.35997578501701355	0.1317528784275055	0.31171125173568726	0.6690306067466736	-0.18237851560115814	-0.4170973598957062	-0.25022199749946594	-0.7265564799308777	0.17567408084869385	0.11317446827888489	-0.33560729026794434	-0.18042990565299988	-0.02288850210607052	0.012957502156496048	-0.10653617978096008	-0.39783424139022827	0.3932701349258423	1.1229169368743896	-0.2558833658695221	0.05803902819752693	0.45596566796302795	0.32231447100639343	-0.04597873613238335	0.1287001520395279	0.19637642800807953	-0.1888016164302826	-0.1788056194782257	0.4481179118156433	0.3450676500797272	0.15984509885311127	-0.06571884453296661	0.13441091775894165	-0.6628522276878357	-0.3136080205440521	0.2777407765388489	-0.12951096892356873	-0.3440016210079193	0.821453332901001	0.47829920053482056	0.22111661732196808	-0.4326941967010498	0.012204001657664776	-0.18983447551727295	-0.5198729634284973	-0.93180912733078	-0.2402820587158203	0.22370128333568573	-0.003453281242400408	0.13138945400714874	-0.398340106010437	0.19868071377277374	-0.5143237709999084	-0.46285003423690796	0.27246803045272827	-0.1351386457681656	-0.36744052171707153	0.4019775390625	0.07812165468931198	0.029813770204782486	-0.4343922734260559	0.10405764728784561	0.0885503739118576	-0.0003689550794661045	-0.18718864023685455	0.31329575181007385	-0.1623135507106781	0.9716833829879761	0.4732612073421478	-0.17324066162109375	-0.048111457377672195	0.09604942053556442	0.15283644199371338	-0.39230868220329285	-0.2701086699962616	-0.13790583610534668	0.14177502691745758	-0.08230570703744888	0.39703506231307983	0.17632733285427094	-0.3074788451194763	0.12213733047246933	-0.5233131647109985	-0.47102442383766174	0.08174771070480347	-1.0567317008972168	0.22111563384532928	0.7509868741035461	-0.4357873499393463	0.8021152019500732	0.7907072305679321	0.08071307092905045	0.20195381343364716	0.2243804782629013	0.4850592315196991	0.2368939071893692	0.0590750016272068	0.049728188663721085	-0.22056008875370026	-0.37087705731391907	0.4720955789089203	0.07462067157030106	0.35256919264793396	0.8304889798164368	-0.5771310925483704	-0.04134087264537811	0.004772992804646492	0.252518892288208	0.022224243730306625	0.34734785556793213	0.2578568458557129	0.0350777767598629	0.1201505959033966	0.037925634533166885	-0.6425703763961792	-0.26643574237823486	-0.7292904853820801	-0.6958551406860352	-0.694766640663147	-0.25067922472953796	1.2723292112350464	0.016717752441763878	-0.34040653705596924	-0.07074777781963348	0.23265182971954346	0.29069599509239197	-0.2284805327653885	0.2873268127441406	-0.01660151779651642	-0.7680726647377014	-0.742548942565918	0.31904447078704834	-0.3697861433029175	0.08902575820684433	-0.6182928681373596	-0.0697864443063736	-0.27318185567855835	0.3630252778530121	0.2646498680114746	0.16592718660831451	0.21126125752925873	0.5983119010925293	0.2309788316488266	-0.3031310439109802	-0.2973569333553314	-0.08730769902467728	0.4500682055950165	0.23246359825134277	0.23627342283725739	0.20747292041778564	0.28463321924209595	0.18288415670394897	0.15814508497714996	-0.017537664622068405	0.10790576785802841	-0.15392369031906128	0.40774640440940857	1.3114670515060425	-0.45713159441947937	0.1890510767698288	0.39477917551994324	-0.3172476887702942	0.6424453258514404	-0.443325936794281	0.06860926002264023	0.26316824555397034	0.030695859342813492	-0.05356602743268013	0.4662524461746216	0.008990773931145668	-0.07160703837871552	-0.5723123550415039	-0.14168360829353333	0.08801250159740448	0.0019212501356378198	-0.685149610042572	-0.029256096109747887	0.19768239557743073	0.47543323040008545	-0.16386045515537262	-0.028007186949253082	-0.11328673362731934	0.3528004586696625	-0.15328259766101837	0.6212185025215149	0.12666718661785126	-0.3753722012042999	0.023878159001469612	0.5413206219673157	0.49476757645606995	0.1101357564330101	-0.12641824781894684	0.33708447217941284	-0.4993111491203308	-0.3454473614692688	-0.1326337456703186	-0.3850374221801758	0.21905966103076935	0.19331000745296478	-0.3947233259677887	-0.006270728539675474	-0.7887370586395264	-0.3165684938430786	-0.11363339424133301	-0.5616496205329895	-0.13985556364059448	-0.2311745434999466	-0.2531084716320038	0.3837549388408661	0.039995867758989334	-0.6705727577209473	0.18651236593723297	-0.02590312622487545	-0.6808791160583496	0.018056483939290047	-0.005134151317179203	-0.6502116918563843	-0.7601829171180725	0.6427842378616333	-0.48506757616996765	-0.5990438461303711	-0.4219037890434265	-0.5924573540687561	-0.0722019150853157	-0.12113094329833984	-0.2326665222644806	1.1715351343154907	0.426778107881546	0.2317792773246765	-0.0008551696664653718	-0.14739227294921875	0.429691880941391	-0.27503567934036255	0.4022722542285919	0.15680065751075745	0.006568719167262316	-0.6387315988540649	0.07577337324619293	-0.030376112088561058	0.07722972333431244	0.2391659915447235	0.14666138589382172	-0.15675731003284454	0.3080991804599762	-0.4649812579154968	0.7350371479988098	-0.10146068781614304	-0.0801238939166069	0.3370541036128998	-0.1036219373345375	0.11950396001338959	0.9813412427902222	0.5248489379882812	0.10505940020084381	0.13824956119060516	-0.047576550394296646	0.5537256598472595	0.05010296776890755	-0.006774555426090956	0.0319441556930542	-0.8074066042900085	0.10176967829465866	-0.18328288197517395	0.3700132369995117	0.8294939994812012	-0.4271599054336548	-0.10868194699287415	-0.229368194937706	-0.06427589058876038	0.3711410462856293	0.5779598951339722	0.4423622488975525	-0.06462765485048294	0.04226870834827423	-0.631341278553009	-0.04868542402982712	0.16773703694343567	0.5147812962532043	-0.2747969627380371	0.47310948371887207
2020.03.09.983247_v1.xml	0.07337205857038498	0.0948667898774147	-0.7092519998550415	-0.10415740311145782	-0.07536478340625763	-0.4392743408679962	-0.2208642214536667	0.16911432147026062	0.4065709710121155	-0.2524566650390625	-0.4498784840106964	-0.5329208970069885	0.13318869471549988	0.10105592757463455	-0.5056437849998474	0.22670717537403107	0.2686241865158081	0.11257663369178772	-0.43228933215141296	-0.31928032636642456	0.03514872118830681	-0.08050880581140518	0.159532368183136	0.42605310678482056	0.7959069013595581	-0.0637316107749939	-0.5161395072937012	-0.22681157290935516	-0.6283950209617615	-0.13635659217834473	0.08236078172922134	-0.035193946212530136	0.039200253784656525	-0.05654870346188545	-0.033903609961271286	0.05125856399536133	-0.5102623105049133	0.18430061638355255	0.22176134586334229	-0.0899750292301178	0.08609551191329956	0.6402027606964111	0.12866061925888062	0.06913615018129349	-0.13481587171554565	-0.0036807432770729065	-0.33528465032577515	-0.43182918429374695	0.13657870888710022	0.3062443435192108	0.22477972507476807	-0.030906932428479195	0.02945074997842312	-0.4188534617424011	-0.12361001968383789	0.1693718582391739	-0.07687229663133621	-0.0925183892250061	0.4709126353263855	0.37395378947257996	0.11331852525472641	-0.3166738450527191	-0.08822443336248398	-0.45499056577682495	-0.2630317509174347	-0.3042382597923279	-0.08504749089479446	0.1267462521791458	0.11544331908226013	0.49677446484565735	-0.6549254655838013	0.3297657072544098	-0.4408542811870575	-0.5338824987411499	0.1439616084098816	-0.09579431265592575	-0.6236888766288757	0.2660581171512604	0.2037622332572937	-0.09370273351669312	-0.5079673528671265	0.012047944590449333	0.26384449005126953	-0.5854319930076599	-0.0682164877653122	0.43393033742904663	0.012671448290348053	0.6982843279838562	0.2182493954896927	-0.19232508540153503	-0.18952946364879608	0.07163801789283752	0.1054869219660759	-0.413862019777298	-0.1508668065071106	0.02791530266404152	-0.05938098952174187	0.001317752874456346	0.3470250964164734	0.14469172060489655	-0.015913723036646843	0.11741092801094055	-0.4881284832954407	-0.19654563069343567	-0.03419724851846695	-0.6461154222488403	0.012018333189189434	0.48236218094825745	0.05206447094678879	0.48412397503852844	1.132795810699463	-0.07478354126214981	0.11938290297985077	0.1854221671819687	0.34424087405204773	0.08352670818567276	0.1337142288684845	0.04897678270936012	-0.1170499250292778	-0.3884023129940033	0.354967325925827	-0.19640764594078064	-0.13559654355049133	0.6220885515213013	-0.2729850113391876	0.05225740000605583	-0.18769173324108124	0.3389093577861786	-0.052666593343019485	-0.2244127243757248	0.07434512674808502	-0.11483439058065414	-0.0961541160941124	0.14688417315483093	-0.6108466982841492	-0.11083991080522537	-0.2954389750957489	-0.4563286006450653	-0.5060690641403198	-0.07724706828594208	1.1951736211776733	-0.23075921833515167	-0.6041299104690552	-0.13687951862812042	0.12815293669700623	0.3669596016407013	-0.7377925515174866	0.26880672574043274	0.10716696828603745	-0.7602189779281616	-0.6306817531585693	-0.00856852438300848	-0.49450790882110596	0.26098331809043884	-0.22657093405723572	-0.36665013432502747	-0.5445799231529236	0.3483215868473053	-0.1987614929676056	0.11530835181474686	0.070488341152668	0.6398314237594604	0.415851354598999	-0.5328838229179382	-0.5161401033401489	-0.07370404899120331	0.20568658411502838	0.4754980802536011	-0.1571628600358963	0.09062383323907852	0.21788357198238373	-0.004780758172273636	0.44661298394203186	0.047986168414354324	0.0672634020447731	0.1744070202112198	-0.22804301977157593	0.8711997866630554	-0.30255305767059326	0.3172172009944916	0.4580732583999634	-0.09297026693820953	0.28865736722946167	-0.233113095164299	-0.2015983909368515	0.4155086576938629	0.2383865863084793	-0.04718901962041855	0.253717839717865	-0.2641991078853607	0.11448575556278229	-0.5191298723220825	-0.2635077238082886	0.06945343315601349	0.2663891911506653	-0.40812161564826965	0.5738276839256287	0.1986539363861084	0.4519175589084625	-0.37118738889694214	-0.29779312014579773	-0.09476537257432938	0.10567234456539154	-0.032442864030599594	0.3231750726699829	0.1425134539604187	-0.46321356296539307	0.11865656822919846	0.6945942640304565	0.3162483870983124	0.4114168882369995	0.10036131739616394	0.1610931158065796	-0.34176215529441833	-0.22487376630306244	-0.33298370242118835	-0.2510327994823456	0.37794414162635803	-0.07673454284667969	-0.13840213418006897	0.09789449721574783	-0.7185032367706299	-0.12203513830900192	-0.14620986580848694	-0.3560730814933777	0.0051410505548119545	-0.42345449328422546	-0.3299408555030823	-0.14507019519805908	0.31877318024635315	-1.01620614528656	0.29162290692329407	-0.06144724413752556	-0.4570283889770508	0.05388931930065155	-0.3055513799190521	-0.8393439054489136	-0.46936628222465515	0.7490546107292175	-0.06280288845300674	-0.5542284250259399	-0.461770236492157	-0.33755892515182495	0.055427905172109604	-0.4362972676753998	-0.35089483857154846	1.2423702478408813	0.5357092618942261	-0.014556885696947575	0.49629783630371094	-0.000799569592345506	0.155971497297287	0.054445501416921616	0.8408803343772888	0.2828935980796814	0.4071894884109497	-0.24009662866592407	0.0942196324467659	-0.5216003060340881	-0.06571081280708313	-0.2925563156604767	-0.01629098691046238	-0.2500126361846924	0.38703012466430664	0.17712774872779846	0.6031961441040039	0.08622263371944427	-0.15653729438781738	0.09977569431066513	-0.2368861734867096	-0.053279563784599304	1.32793128490448	0.4972863495349884	0.6071456074714661	0.14592832326889038	-0.28584378957748413	0.2877829968929291	-0.11620519310235977	-0.22942252457141876	0.005234340205788612	-0.4963875114917755	0.19987283647060394	-0.023034485056996346	0.15141324698925018	0.5422147512435913	-0.27574828267097473	-0.12847700715065002	0.09731626510620117	-0.19713030755519867	0.4195237159729004	0.3586960434913635	0.05915699526667595	0.11481434851884842	-0.10200195759534836	-0.6734224557876587	0.06553251296281815	0.3292633295059204	0.4102119207382202	-0.7249109745025635	0.7373904585838318
2019.12.15.877035_v1.xml	-0.035713184624910355	0.22739695012569427	-0.412383496761322	0.036394815891981125	-0.1810474544763565	-0.23008403182029724	-0.2610744833946228	0.08859755098819733	0.5306592583656311	-0.6364923715591431	-0.1772625595331192	-0.7273410558700562	0.27615347504615784	-0.5376163125038147	-0.32099783420562744	0.21494734287261963	0.3359390199184418	-0.03285238519310951	-0.2173881083726883	-0.008051592856645584	-0.03737303614616394	-0.04829953610897064	0.3617355525493622	0.39163094758987427	0.7346588373184204	-0.30721405148506165	-0.31172528862953186	-0.6366402506828308	-0.7989611625671387	-0.2773969769477844	0.06431660801172256	-0.33400779962539673	0.024374382570385933	0.007134026847779751	-0.23911209404468536	0.22495107352733612	-0.5785831809043884	0.34879711270332336	0.7626981735229492	-0.20975607633590698	0.15135161578655243	0.8015084266662598	0.17762616276741028	-0.3679409325122833	0.13636742532253265	0.3486083149909973	-0.20438842475414276	-0.0428963378071785	0.38685157895088196	0.36488571763038635	0.24054552614688873	0.09860652685165405	-0.17737913131713867	-0.5254092216491699	-0.3969065546989441	0.25669950246810913	0.13225054740905762	0.12024860084056854	0.5002495050430298	0.35533982515335083	-0.045167360454797745	-0.5612040758132935	0.028639890253543854	-0.4096750020980835	-0.58986896276474	-0.530519962310791	-0.11846509575843811	0.18795455992221832	0.08680227398872375	0.3040197491645813	-0.23966550827026367	0.10572031140327454	-0.38796260952949524	-0.6053357124328613	-0.03884875401854515	0.13525055348873138	-0.23738926649093628	0.41069936752319336	-0.05084626376628876	0.009329931810498238	-0.3714740574359894	0.325949102640152	0.04654133319854736	-0.5057804584503174	-0.2340657114982605	0.30486297607421875	-0.03530253469944	0.8141142129898071	0.5810760259628296	-0.2316853404045105	0.16732917726039886	-0.05328396335244179	0.12593571841716766	-0.3620412349700928	-0.1626942753791809	-0.014295456930994987	0.2100917547941208	0.19636546075344086	0.38270050287246704	0.019411666318774223	-0.26458004117012024	0.4390507638454437	-0.66407310962677	-0.33694419264793396	-0.005042782984673977	-0.872475802898407	-0.03570150211453438	0.6868525147438049	-0.23938806354999542	1.0514752864837646	1.0796648263931274	-0.300021231174469	0.23467013239860535	0.12342090904712677	0.40421462059020996	0.42900410294532776	0.07408273965120316	-0.03645091876387596	-0.06467204540967941	-0.537838339805603	0.4660506546497345	-0.28371357917785645	0.1757446527481079	0.6516006588935852	-0.5214062929153442	0.3572511374950409	0.2148105502128601	0.20153774321079254	0.16556625068187714	0.034132327884435654	0.19691400229930878	-0.18207697570323944	-0.017770277336239815	0.22255966067314148	-0.5894292593002319	-0.23088327050209045	-0.5006358027458191	-0.46185389161109924	-0.628235936164856	0.136797234416008	1.4121217727661133	-0.23401208221912384	-0.30918964743614197	-0.06920886039733887	0.33961403369903564	0.012907895259559155	-0.5403165221214294	0.34661173820495605	-0.1278226524591446	-0.7022263407707214	-0.6139848828315735	0.1444617062807083	-0.07784978300333023	0.40867748856544495	-0.44100072979927063	0.013733922503888607	-0.06765095144510269	0.30355915427207947	-0.2643127143383026	0.292012095451355	0.19760243594646454	0.45496854186058044	0.11817862838506699	-0.8094499111175537	-0.6185193657875061	-0.20398679375648499	0.20427200198173523	0.4223588705062866	-0.01910238154232502	0.1836296021938324	0.3347718417644501	0.015231440775096416	0.28398823738098145	-0.24156874418258667	0.3968427777290344	0.17125748097896576	0.1528642326593399	1.033936619758606	-0.5598952174186707	0.23020099103450775	0.5696426630020142	-0.23913408815860748	0.8705578446388245	-0.46446844935417175	-0.039172735065221786	0.3667343258857727	0.03315579146146774	-0.028914300724864006	0.23184683918952942	-0.08468671888113022	0.3618257939815521	-0.7075058221817017	-0.1785944700241089	0.3022223711013794	-0.011158793233335018	-0.6843885183334351	0.24435248970985413	0.0005000411183573306	0.4614582359790802	-0.2692534625530243	-0.3805161714553833	-0.12149351090192795	0.20212295651435852	-0.14225588738918304	0.7235085368156433	0.05609738454222679	-0.0032965114805847406	-0.3082699775695801	0.41613444685935974	0.43080955743789673	0.24951660633087158	0.12231221795082092	0.42593446373939514	-0.3523152768611908	0.12704160809516907	-0.2893708348274231	0.009034978225827217	0.5267431735992432	0.06956295669078827	-0.024253997951745987	0.13920965790748596	-0.9272815585136414	0.0573689304292202	-0.19912897050380707	-0.5053250193595886	0.011387391947209835	-0.49280092120170593	-0.3819546103477478	0.1799779087305069	0.06071978807449341	-1.054661750793457	0.27968040108680725	-0.02354303188621998	-0.5092132091522217	0.05621833726763725	0.126838818192482	-0.7456968426704407	-0.724258542060852	0.8049122095108032	-0.27541637420654297	-0.6832841038703918	-0.5942305326461792	-0.31562426686286926	-0.2165565937757492	-0.12245426326990128	-0.3173690736293793	0.9853637218475342	0.19079378247261047	-0.04160906746983528	0.4606070816516876	0.12285376340150833	0.4420492649078369	-0.37578830122947693	0.7184237837791443	0.3541874289512634	0.04103782773017883	-0.03300171345472336	-0.08023793250322342	-0.16488663852214813	-0.07444418221712112	-0.39587143063545227	0.045148007571697235	0.00020516318909358233	0.4405287504196167	0.04351184889674187	0.905876636505127	0.006797718815505505	-0.05756693705916405	0.41251713037490845	-0.3419129252433777	-0.0366847962141037	1.2182326316833496	0.40576332807540894	0.4675051271915436	0.08604258298873901	-0.34936457872390747	0.463299423456192	0.025809189304709435	-0.16235046088695526	-0.04993260279297829	-0.5753859877586365	0.021286720409989357	-0.1539897918701172	0.22263191640377045	0.5808586478233337	-0.023966852575540543	-0.053772516548633575	0.3063295781612396	0.24405893683433533	0.7076356410980225	0.24861641228199005	-0.10412156581878662	0.43678367137908936	-0.2565694749355316	-0.48037949204444885	-0.14990262687206268	0.17077559232711792	0.43014296889305115	-0.5055332779884338	0.36811912059783936
