document	feat_0	feat_1	feat_2	feat_3	feat_4	feat_5	feat_6	feat_7	feat_8	feat_9	feat_10	feat_11	feat_12	feat_13	feat_14	feat_15	feat_16	feat_17	feat_18	feat_19	feat_20	feat_21	feat_22	feat_23	feat_24	feat_25	feat_26	feat_27	feat_28	feat_29	feat_30	feat_31	feat_32	feat_33	feat_34	feat_35	feat_36	feat_37	feat_38	feat_39	feat_40	feat_41	feat_42	feat_43	feat_44	feat_45	feat_46	feat_47	feat_48	feat_49	feat_50	feat_51	feat_52	feat_53	feat_54	feat_55	feat_56	feat_57	feat_58	feat_59	feat_60	feat_61	feat_62	feat_63	feat_64	feat_65	feat_66	feat_67	feat_68	feat_69	feat_70	feat_71	feat_72	feat_73	feat_74	feat_75	feat_76	feat_77	feat_78	feat_79	feat_80	feat_81	feat_82	feat_83	feat_84	feat_85	feat_86	feat_87	feat_88	feat_89	feat_90	feat_91	feat_92	feat_93	feat_94	feat_95	feat_96	feat_97	feat_98	feat_99	feat_100	feat_101	feat_102	feat_103	feat_104	feat_105	feat_106	feat_107	feat_108	feat_109	feat_110	feat_111	feat_112	feat_113	feat_114	feat_115	feat_116	feat_117	feat_118	feat_119	feat_120	feat_121	feat_122	feat_123	feat_124	feat_125	feat_126	feat_127	feat_128	feat_129	feat_130	feat_131	feat_132	feat_133	feat_134	feat_135	feat_136	feat_137	feat_138	feat_139	feat_140	feat_141	feat_142	feat_143	feat_144	feat_145	feat_146	feat_147	feat_148	feat_149	feat_150	feat_151	feat_152	feat_153	feat_154	feat_155	feat_156	feat_157	feat_158	feat_159	feat_160	feat_161	feat_162	feat_163	feat_164	feat_165	feat_166	feat_167	feat_168	feat_169	feat_170	feat_171	feat_172	feat_173	feat_174	feat_175	feat_176	feat_177	feat_178	feat_179	feat_180	feat_181	feat_182	feat_183	feat_184	feat_185	feat_186	feat_187	feat_188	feat_189	feat_190	feat_191	feat_192	feat_193	feat_194	feat_195	feat_196	feat_197	feat_198	feat_199	feat_200	feat_201	feat_202	feat_203	feat_204	feat_205	feat_206	feat_207	feat_208	feat_209	feat_210	feat_211	feat_212	feat_213	feat_214	feat_215	feat_216	feat_217	feat_218	feat_219	feat_220	feat_221	feat_222	feat_223	feat_224	feat_225	feat_226	feat_227	feat_228	feat_229	feat_230	feat_231	feat_232	feat_233	feat_234	feat_235	feat_236	feat_237	feat_238	feat_239	feat_240	feat_241	feat_242	feat_243	feat_244	feat_245	feat_246	feat_247	feat_248	feat_249	feat_250	feat_251	feat_252	feat_253	feat_254	feat_255	feat_256	feat_257	feat_258	feat_259	feat_260	feat_261	feat_262	feat_263	feat_264	feat_265	feat_266	feat_267	feat_268	feat_269	feat_270	feat_271	feat_272	feat_273	feat_274	feat_275	feat_276	feat_277	feat_278	feat_279	feat_280	feat_281	feat_282	feat_283	feat_284	feat_285	feat_286	feat_287	feat_288	feat_289	feat_290	feat_291	feat_292	feat_293	feat_294	feat_295	feat_296	feat_297	feat_298	feat_299
PMC7095418	0.024888543412089348	-0.07097543776035309	-0.3771819770336151	-0.10249640047550201	-0.4347260892391205	-0.36865416169166565	0.028183745220303535	0.35394537448883057	0.44088777899742126	-0.21825724840164185	-0.5634281635284424	-0.8092759251594543	0.2201065719127655	-0.018270697444677353	-0.46455514430999756	0.18654581904411316	0.3580121695995331	-0.09802314639091492	-0.14536821842193604	-0.021862752735614777	0.28029707074165344	-0.36222541332244873	0.26561254262924194	0.4690491855144501	0.6096079349517822	0.036562949419021606	-0.44501960277557373	-0.03348280116915703	-0.5179648399353027	-0.40562859177589417	0.016191372647881508	-0.14381290972232819	-0.14726480841636658	0.13420458137989044	-0.13363614678382874	0.03776038438081741	-0.7100434303283691	0.11819640547037125	0.7074639201164246	-0.416931688785553	0.12732172012329102	0.5901756286621094	-0.15636324882507324	-0.06640849262475967	-0.08689688891172409	-0.12141134589910507	-0.0008874167106114328	-0.5257853269577026	0.305160790681839	0.4312107563018799	0.45962920784950256	-0.14418742060661316	0.03780068829655647	-0.40383821725845337	-0.1324656903743744	0.4883638620376587	-0.272315114736557	-0.20993372797966003	0.3822194039821625	0.10792648047208786	-0.20777541399002075	-0.1376560777425766	-0.18386481702327728	-0.4827916622161865	-0.33313530683517456	-0.1892641931772232	0.04044926539063454	0.2262386977672577	0.040694963186979294	0.46718212962150574	-0.6272245049476624	0.2608596980571747	-0.2751372754573822	-0.5920594334602356	-0.006017566192895174	0.047039248049259186	-0.4498712122440338	0.3614613115787506	0.18274910748004913	0.005014547146856785	0.16213040053844452	-0.012661379761993885	0.15120746195316315	-0.6194762587547302	0.014338561333715916	0.315689355134964	-0.23910748958587646	0.8918817043304443	0.3816691040992737	-0.5339232087135315	-0.21862375736236572	0.04130854085087776	0.311144083738327	-0.1719437837600708	0.08180680125951767	-0.14769063889980316	0.06651246547698975	0.02155902422964573	0.23669150471687317	0.04513251408934593	-0.1674039363861084	0.11487053334712982	-0.3846847712993622	-0.4608769118785858	-0.07697498053312302	-0.6465763449668884	0.19555072486400604	0.3866807520389557	0.02949524112045765	0.5462045669555664	1.0575828552246094	-0.1031404659152031	0.4346548616886139	0.3750675320625305	0.30137744545936584	0.1461784392595291	-0.039160531014204025	-0.028623009100556374	-0.03650389239192009	-0.4356141984462738	0.35261082649230957	-0.3108978867530823	-0.11830323934555054	0.6566579937934875	-0.022509105503559113	0.16144800186157227	0.02205093391239643	0.46028271317481995	0.04195209965109825	0.19210989773273468	0.08969765156507492	0.04799382761120796	-0.20755936205387115	0.06632420420646667	-0.58880615234375	-0.10675150901079178	-0.32607194781303406	-0.49153298139572144	-0.6494308710098267	-0.0968252420425415	1.293210506439209	-0.14397622644901276	-0.4869269132614136	0.019763760268688202	-0.01946163922548294	-0.13607916235923767	-0.274941086769104	0.2512468099594116	0.08451037853956223	-1.0245707035064697	-0.5144925713539124	0.4452802538871765	-0.33263036608695984	0.1582014262676239	-0.21888738870620728	-0.04598185792565346	-0.34189653396606445	0.6240788102149963	-0.6147743463516235	0.39057469367980957	0.04601086303591728	0.49347013235092163	0.5332097411155701	-0.6747440695762634	-0.4426691234111786	0.1050591841340065	-0.015829166397452354	0.6580725908279419	-0.12820683419704437	0.5178887844085693	0.337116003036499	-0.101178377866745	0.04224661365151405	-0.021159803494811058	0.06791070103645325	0.4167788326740265	0.023975281044840813	0.752623438835144	-0.2098008394241333	0.271891713142395	0.6584520936012268	-0.04224535450339317	0.7702016234397888	-0.1930435597896576	0.08233388513326645	0.5526441335678101	0.021774375811219215	-0.0893268808722496	0.09494084119796753	-0.20023493468761444	0.15918675065040588	-0.219741091132164	-0.1478724181652069	0.2565053701400757	0.2872801423072815	-0.32963430881500244	0.5064240097999573	0.24999471008777618	0.15942783653736115	-0.31764379143714905	-0.3213742971420288	-0.12673042714595795	-0.24487198889255524	-0.007865261286497116	0.5718891620635986	-0.09263111650943756	-0.444038063287735	-0.003691369201987982	0.5166652798652649	0.3167755901813507	0.4816381633281708	0.0875682607293129	0.1810103803873062	-0.26444703340530396	-0.18664716184139252	0.059241246432065964	-0.5795305371284485	0.28223833441734314	-0.12865182757377625	-0.10164819657802582	0.20191720128059387	-0.8013691306114197	0.057722028344869614	-0.39642325043678284	-0.47809234261512756	-0.055884357541799545	-0.44462618231773376	-0.3457784652709961	-0.03948858380317688	0.17340172827243805	-0.943162202835083	0.20049871504306793	0.022667821496725082	-0.5415095686912537	0.11083021759986877	-0.16093221306800842	-0.8803371787071228	-0.49287375807762146	0.763289749622345	0.03677361458539963	-0.5731824636459351	-0.6581081748008728	-0.3172213137149811	-0.0869443342089653	-0.3676377236843109	0.0466533899307251	0.9665066599845886	0.26328137516975403	0.4074559211730957	0.3002975881099701	-0.14145588874816895	0.18023405969142914	0.018507862463593483	0.9398917555809021	0.7407786846160889	0.4716757833957672	-0.15453490614891052	-0.02068442851305008	-0.2023729681968689	0.34124043583869934	-0.5323294997215271	-0.2250966876745224	-0.13390807807445526	0.246101513504982	-0.1655443161725998	0.44527119398117065	-0.2770204246044159	-0.0066539449617266655	0.22075660526752472	-0.22237561643123627	0.09870187938213348	1.1489166021347046	-0.11845943331718445	0.5153329372406006	-0.018132658675312996	-0.3248821198940277	0.08488519489765167	0.013114855624735355	-0.3951372504234314	0.06735198199748993	-0.5930941104888916	0.3937820494174957	-0.025068432092666626	0.2995375692844391	0.6455574631690979	-0.021598760038614273	-0.3986198604106903	0.33786529302597046	0.1062052845954895	0.47857263684272766	0.1263406127691269	-0.08450919389724731	-0.014971086755394936	-0.33341097831726074	-0.5279030203819275	-0.1469629406929016	0.20491208136081696	0.4196717143058777	-0.7349210977554321	0.6615541577339172
PMC7054013	0.023555418476462364	0.21586409211158752	-0.44353631138801575	0.04764309525489807	-0.16421465575695038	-0.3075641393661499	-0.11110562086105347	0.013011430390179157	0.2140146940946579	-0.560381293296814	-0.6281907558441162	-0.8747774362564087	0.12192828953266144	-0.5653278827667236	-0.5170043110847473	0.1581103652715683	0.015162215568125248	0.006396634969860315	-0.29353782534599304	0.05512119084596634	-0.26088637113571167	0.014864970929920673	0.19845300912857056	0.4046217203140259	0.7094593644142151	-0.3852064907550812	-0.40969395637512207	-0.4214775562286377	-0.7208006978034973	-0.11085856705904007	0.0354350283741951	-0.03009074367582798	-0.12489641457796097	-0.0617600716650486	0.11775818467140198	-0.017143135890364647	-0.39944931864738464	0.2601209878921509	0.5555543899536133	-0.07487883418798447	0.15518370270729065	0.5628369450569153	0.39979636669158936	-0.1708456128835678	0.04462932050228119	0.19140572845935822	-0.26004558801651	-0.06456340104341507	0.2432553470134735	0.4160546362400055	0.16471071541309357	-0.12917794287204742	-0.15524286031723022	-0.562423586845398	-0.12817765772342682	0.28216978907585144	0.21093586087226868	-0.21290719509124756	0.3185267448425293	0.1887073516845703	0.17983964085578918	-0.6156736612319946	0.007275786716490984	-0.381578266620636	-0.563088059425354	-0.37713438272476196	-0.021098922938108444	0.14256973564624786	0.06859393417835236	0.33071303367614746	-0.4328824281692505	0.26538464426994324	-0.5027603507041931	-0.666452944278717	0.1290905922651291	-0.20256373286247253	-0.33917126059532166	0.48153600096702576	0.21094831824302673	-0.12097148597240448	-0.7499989867210388	0.24281659722328186	0.1093880906701088	-0.2177683562040329	-0.23396727442741394	0.40958473086357117	-0.0016415899153798819	0.4552202820777893	0.4956069886684418	-0.2327246516942978	-0.11757533252239227	-0.04979515075683594	0.0504332110285759	-0.2186708301305771	-0.08458862453699112	0.23540392518043518	0.11629506200551987	0.28497472405433655	0.3540838360786438	-0.08305532485246658	-0.1023377850651741	0.2600677013397217	-0.5234243273735046	-0.17228321731090546	0.04061935842037201	-0.8377324342727661	-0.10864333808422089	0.46914616227149963	-0.19840160012245178	0.86661696434021	1.0324368476867676	-0.21986748278141022	0.1046971008181572	0.2623768150806427	0.3363398611545563	0.06068090349435806	0.013185176067054272	0.10932658612728119	-0.16918529570102692	-0.20605821907520294	0.4066222310066223	-0.22597962617874146	-0.1976291388273239	0.5133944153785706	-0.38043737411499023	-0.061428505927324295	0.04305090382695198	0.36107587814331055	0.13209885358810425	-0.06778010725975037	0.30628150701522827	-0.3123837411403656	-0.0770590752363205	0.4189375042915344	-0.46775153279304504	-0.06765872985124588	-0.3588554859161377	-0.4896615445613861	-0.3883051574230194	-0.00884582381695509	1.2254691123962402	-0.37176576256752014	-0.5879251956939697	-0.22991639375686646	0.06384584307670593	0.09832610934972763	-0.5126956701278687	0.37773245573043823	-0.22224393486976624	-0.6310338973999023	-0.715399444103241	0.1203053668141365	-0.45994406938552856	0.4776676297187805	-0.30243605375289917	-0.37074440717697144	-0.4372919201850891	0.43109193444252014	0.22272302210330963	0.18778562545776367	0.19314351677894592	0.5233197808265686	0.03334213048219681	-0.6322969198226929	-0.5805336833000183	-0.35831165313720703	0.3129923641681671	0.6222134232521057	0.22170674800872803	-0.3093651831150055	0.21785558760166168	-0.19117675721645355	0.5184918642044067	-0.07933299243450165	0.12385514378547668	0.12351249903440475	0.1998157650232315	0.7613832950592041	-0.6197025775909424	0.18740426003932953	0.3314543068408966	-0.011973494663834572	0.2695986032485962	-0.3601926565170288	0.0945601835846901	0.30258244276046753	0.1390722095966339	-0.15482911467552185	0.2306366264820099	-0.081137515604496	0.11864997446537018	-0.5126399993896484	-0.015504436567425728	0.24399477243423462	-0.10774289816617966	-0.4038320481777191	0.39735424518585205	-0.026113413274288177	0.5207646489143372	-0.07170066237449646	-0.2553521394729614	-0.031013155356049538	0.04423774033784866	-0.1028250977396965	0.4415420591831207	0.09527170658111572	-0.017673002555966377	-0.14464040100574493	0.5382001399993896	0.6427121758460999	0.2270844578742981	-0.05961020663380623	0.1696273237466812	-0.46015021204948425	0.035415127873420715	-0.29305267333984375	-0.09294155985116959	0.391066312789917	-0.07766144722700119	-0.12988099455833435	-0.2700556814670563	-0.7300529479980469	-0.026656847447156906	-0.1460178792476654	-0.5026348829269409	-0.24102292954921722	-0.4439704716205597	-0.27825719118118286	0.03377215564250946	0.07676633447408676	-0.7006402611732483	0.30968207120895386	0.042588550597429276	-0.40958088636398315	0.16110248863697052	-0.016396531835198402	-0.7187068462371826	-0.5564964413642883	0.7227625250816345	-0.208599254488945	-0.506707489490509	-0.6149085164070129	-0.4081020951271057	-0.23450332880020142	-0.40033385157585144	-0.15820705890655518	0.9077775478363037	0.2785009443759918	-0.25735533237457275	0.22525252401828766	0.2311984896659851	0.492632657289505	-0.05052860453724861	0.7738320827484131	0.14588813483715057	0.020729506388306618	-0.2597413659095764	-0.06635848432779312	-0.21989238262176514	-0.2612494230270386	-0.16925515234470367	0.0672360211610794	-0.027172047644853592	0.2343805432319641	0.12456738948822021	0.46208903193473816	0.1980971097946167	-0.08508668094873428	0.25314584374427795	-0.291775643825531	-0.14136207103729248	1.1248759031295776	0.6150743365287781	0.29429373145103455	0.2457880824804306	-0.06376492232084274	0.23799492418766022	-0.14606395363807678	-0.36326321959495544	-0.005516009405255318	-0.3696421980857849	0.006541765294969082	-0.26759377121925354	-0.04264447093009949	0.5574992895126343	-0.07915852218866348	0.18704982101917267	0.004969646688550711	-0.09814459085464478	0.5616590976715088	0.39782246947288513	0.08783592283725739	0.17627234756946564	-0.18525561690330505	-0.40607282519340515	-0.11196982115507126	0.28232717514038086	0.5644258260726929	-0.3162373900413513	0.3043404519557953
PMC7182430	-0.055630266666412354	-0.159897580742836	-0.45529526472091675	0.13100336492061615	-0.007354998029768467	-0.3763745427131653	-0.22012101113796234	0.16808174550533295	0.5653684735298157	-0.2533612549304962	-0.3309952914714813	-0.5847206115722656	0.2617751359939575	-0.2259620726108551	-0.33920910954475403	-0.0373457595705986	0.44568654894828796	-0.0722813531756401	0.03070320188999176	-0.13385693728923798	0.11123143881559372	-0.07491293549537659	0.34808459877967834	0.3378998041152954	0.7957862019538879	-0.0032989729661494493	-0.4478090703487396	-0.11835742741823196	-0.21208666265010834	-0.3772168755531311	-0.035607147961854935	0.27081871032714844	0.15539449453353882	-0.09950659424066544	-0.09702098369598389	0.30176061391830444	-0.4113549292087555	0.3860478103160858	0.5744886994361877	-0.061584457755088806	0.13235415518283844	0.7545375227928162	0.14864009618759155	-0.0004144458216615021	-0.06910254806280136	0.32172641158103943	0.013807782903313637	-0.22506402432918549	0.2540683448314667	0.313681036233902	0.3722449243068695	-0.1885722428560257	0.12799817323684692	-0.8048692941665649	-0.009746156632900238	0.45479264855384827	0.015665965154767036	-0.14724451303482056	0.6235942840576172	-0.007294451352208853	0.06080339476466179	-0.25093644857406616	0.21452735364437103	-0.4525335431098938	-0.35612305998802185	-0.3072701692581177	-0.036841943860054016	0.26546767354011536	0.027356291189789772	0.365754097700119	-0.5905948281288147	0.4464772045612335	-0.4300699234008789	-0.706121027469635	0.3108699917793274	-0.21532224118709564	-0.41793006658554077	0.2731654942035675	0.3848445415496826	0.2216949164867401	-0.4475661814212799	-0.10827890038490295	0.10414449125528336	-0.5960971117019653	-0.16589392721652985	0.4277498126029968	-0.08397794514894485	0.6147885322570801	0.29180970788002014	-0.16531549394130707	0.06524104624986649	0.02456006594002247	-0.02980109490454197	-0.09707917273044586	-0.0713953897356987	-0.15414787828922272	-0.13356070220470428	-0.059541068971157074	0.017816387116909027	-0.27899426221847534	0.04435987398028374	0.40945011377334595	-0.2356334775686264	-0.21518395841121674	0.11555985361337662	-0.9521430730819702	-0.18820837140083313	0.5800302624702454	-0.12115927040576935	0.5325097441673279	1.0963107347488403	0.36021843552589417	0.17022594809532166	0.38051652908325195	0.5560585856437683	0.4018475115299225	0.07281767576932907	0.18271924555301666	0.11172319948673248	-0.21655747294425964	0.4705086350440979	-0.0029641150031238794	-0.23484908044338226	0.5347291231155396	-0.19951988756656647	0.07316448539495468	-0.16139009594917297	0.3157018721103668	0.36996763944625854	-0.14648772776126862	0.1087457686662674	-0.26637643575668335	-0.22588710486888885	0.3264378011226654	-0.6860241889953613	-0.2042224109172821	-0.36869707703590393	-0.6392319798469543	-0.3777872323989868	-0.23794177174568176	1.1277034282684326	-0.31148573756217957	-0.3720904588699341	0.2017047256231308	0.4551708400249481	0.13601669669151306	-0.7273686528205872	0.3749074935913086	-0.019066423177719116	-0.8701158165931702	-0.44060418009757996	0.14608731865882874	0.0011583039304241538	0.246977299451828	-0.2903044819831848	-0.1744644045829773	-0.6439898014068604	0.2418253868818283	-0.25821202993392944	0.019943520426750183	0.26668208837509155	0.4604220390319824	0.2826128900051117	-0.6482077836990356	-0.3860838711261749	-0.04577196389436722	-0.2507666349411011	0.6329273581504822	0.006170797161757946	0.2093704789876938	0.37552112340927124	-0.27819523215293884	0.2323196679353714	0.24093014001846313	0.24205219745635986	0.20736216008663177	0.0024594708811491728	0.9676709771156311	-0.47448623180389404	0.10570129752159119	0.39046335220336914	-0.2054460197687149	0.5406508445739746	-0.2841334939002991	0.1271904557943344	0.44883644580841064	0.2080536186695099	-0.21262666583061218	0.17897199094295502	-0.36104142665863037	0.34661197662353516	-0.6591322422027588	-0.007170682307332754	-0.0434010773897171	-0.029371188953518867	-0.5472396016120911	0.4438852369785309	0.4377768933773041	0.4615194797515869	-0.40267041325569153	-0.4082019031047821	0.02697301283478737	0.49478667974472046	-0.025804761797189713	0.6188114881515503	0.12624822556972504	-0.22447143495082855	-0.2262282520532608	0.4078066945075989	0.5106266736984253	-0.018945178017020226	0.060160696506500244	0.07741305232048035	-0.35754483938217163	-0.2019159495830536	-0.03322496637701988	-0.16322100162506104	0.12831541895866394	-0.0701020136475563	-0.21198086440563202	0.24628055095672607	-1.0631169080734253	-0.15181252360343933	-0.1547355353832245	-0.10454320907592773	-0.3147875964641571	-0.6233928799629211	-0.18963822722434998	0.22106140851974487	0.3275028169155121	-0.5177560448646545	0.19811460375785828	-0.0376761369407177	-0.3795466721057892	0.31611567735671997	-0.22353747487068176	-0.7385801076889038	-0.4581429362297058	0.6599410772323608	-0.2821015417575836	-0.575165331363678	-0.6338106989860535	-0.36248889565467834	-0.12259776890277863	-0.27602100372314453	-0.20669406652450562	0.809286892414093	0.44824233651161194	-0.1947590857744217	0.4799187183380127	0.17152710258960724	0.25665420293807983	0.10404136776924133	1.0531277656555176	-0.00482477992773056	0.3868449926376343	-0.1322558969259262	-0.18212507665157318	-0.08122503757476807	0.04150306060910225	-0.5203554630279541	0.11533720791339874	-0.1336107850074768	0.2998199164867401	-0.1393495798110962	0.2113620489835739	0.023307733237743378	-0.059992715716362	0.14480282366275787	-0.08478868752717972	0.1723584681749344	1.1411123275756836	0.3383570611476898	0.2944283187389374	-0.0074762627482414246	-0.33360567688941956	0.38125351071357727	-0.1833139955997467	-0.4458686411380768	-0.0891227200627327	-0.3628990948200226	0.09304371476173401	-0.0900510773062706	0.1261356621980667	0.5583010911941528	-0.22891339659690857	0.1484307050704956	0.19689370691776276	0.09033897519111633	0.8101997375488281	0.225263312458992	-0.1071387454867363	0.3992532789707184	-0.197414830327034	-0.39132052659988403	-0.2625962495803833	0.4292161464691162	0.5567891597747803	-0.6634875535964966	0.19100116193294525
PMC7176908	0.11771219968795776	-0.00885072723031044	-0.11669798195362091	0.3196236789226532	-0.25089964270591736	-0.3970748484134674	0.05595296248793602	0.2260204702615738	0.2597994804382324	-0.5839764475822449	-0.768426239490509	-0.865918755531311	0.14277969300746918	-0.40007033944129944	-0.39287883043289185	0.12456908822059631	0.06448937952518463	-0.3664538860321045	-0.2150210440158844	0.3061940371990204	0.11485818773508072	-0.11846742779016495	0.2575856149196625	0.5865126848220825	0.4089760184288025	-0.12087647616863251	-0.09999766945838928	-0.057297397404909134	-0.48491519689559937	-0.23962637782096863	0.18753130733966827	0.05477932468056679	-0.4244270920753479	0.12276217341423035	-0.03478255867958069	-0.137598916888237	-0.4222921133041382	0.29814574122428894	0.968488335609436	-0.5233824253082275	0.047627709805965424	0.3555764853954315	0.40017467737197876	-0.18683010339736938	0.08074808120727539	-0.1593140810728073	-0.22060613334178925	-0.33404192328453064	0.3466044068336487	0.3566873073577881	0.2506466805934906	-0.36385855078697205	0.36803480982780457	-0.8972411751747131	-0.24015900492668152	0.42785826325416565	0.1591051071882248	-0.27668052911758423	0.5610612630844116	0.08677379786968231	-0.06672746688127518	-0.4444984793663025	0.17459049820899963	-0.31757593154907227	-0.694998025894165	-0.41432690620422363	0.23807480931282043	0.36838310956954956	0.3377697169780731	0.6013616919517517	-0.216493621468544	0.2935766577720642	-0.35134357213974	-0.32521554827690125	0.08419173955917358	0.10172730684280396	-0.36279773712158203	0.5835808515548706	0.37152090668678284	0.1599574089050293	-0.22950847446918488	0.2027856856584549	-0.021470507606863976	-0.37078002095222473	-0.04480883479118347	0.23407089710235596	-0.1988173872232437	0.6817247271537781	0.3329302668571472	-0.5719134211540222	-0.1591542661190033	-0.17463642358779907	0.1447148621082306	-0.08302425593137741	-0.1257038414478302	-0.13213364779949188	0.13466542959213257	0.28637874126434326	0.3981338441371918	-0.059414394199848175	-0.39997291564941406	-0.07692324370145798	-0.3203573226928711	-0.4782869815826416	0.06823981553316116	-0.7395326495170593	-0.1795545071363449	0.5506511926651001	-0.21300360560417175	0.7705151438713074	1.0433555841445923	-0.18005219101905823	0.36852598190307617	0.06143913418054581	0.41661274433135986	0.014247052371501923	-0.25592899322509766	-0.005093075800687075	0.09313473850488663	-0.03366123139858246	0.447106271982193	-0.42558524012565613	0.05801551789045334	0.43010565638542175	-0.3851284980773926	0.12406119704246521	0.19340062141418457	0.3324143886566162	0.32701778411865234	0.17142514884471893	0.18461088836193085	-0.006747242528945208	-0.10846948623657227	0.23354555666446686	-0.9191345572471619	-0.3710566461086273	-0.3424749970436096	-0.49662670493125916	-0.32858872413635254	-0.1659247726202011	1.0835586786270142	-0.3501034677028656	-0.5419594645500183	0.42053741216659546	0.020942488685250282	-0.029148587957024574	-0.30274587869644165	0.3243476450443268	0.10333678126335144	-0.6158165335655212	-0.45513051748275757	0.27660003304481506	-0.2539208233356476	0.20300914347171783	-0.2459515929222107	0.16909921169281006	-0.18072962760925293	0.7243255376815796	-0.4913317561149597	0.40543803572654724	0.29897308349609375	0.47501030564308167	0.37927621603012085	-0.7712631225585938	-0.2897425889968872	-0.3645334243774414	-0.014976982027292252	0.7203506827354431	0.20478367805480957	0.03957914561033249	0.315182089805603	-0.09455212950706482	0.3361813724040985	0.017618969082832336	0.4555778503417969	0.4018236994743347	0.3898484408855438	0.7050570249557495	-0.5420745611190796	0.12991955876350403	0.36657005548477173	-0.10015316307544708	0.7592582106590271	-0.2991827726364136	0.13545019924640656	0.37621957063674927	0.1662287563085556	0.10235264152288437	0.11016879975795746	-0.25319305062294006	-0.09765485674142838	-0.31266236305236816	0.08127626031637192	0.17500795423984528	0.32584089040756226	-0.6840545535087585	0.3697487413883209	0.10137151181697845	0.35785531997680664	-0.26171717047691345	-0.5555247068405151	-0.0006988730747252703	0.12944182753562927	-0.32834675908088684	0.5852357745170593	-0.07846450805664062	-0.104671910405159	-0.04633965343236923	0.3629324734210968	0.44303256273269653	-0.018321199342608452	-0.4081917405128479	0.3090440630912781	-0.44290587306022644	0.011509486474096775	-0.12049835920333862	-0.35634976625442505	0.14798620343208313	0.013807831332087517	-0.0533759780228138	-0.27138587832450867	-0.6066701412200928	0.057862602174282074	-0.4813813269138336	-0.8194243311882019	-0.354708194732666	-0.49411317706108093	-0.2606280446052551	0.1991235911846161	0.013383514247834682	-0.9759405255317688	0.09272532165050507	0.05511658266186714	-0.34669730067253113	0.031556062400341034	-0.2595490515232086	-0.5685378313064575	-0.4339555501937866	0.7644416093826294	-0.17539076507091522	-0.2815164625644684	-0.6958511471748352	-0.13994963467121124	-0.16289003193378448	-0.29726240038871765	0.25043895840644836	0.6882280707359314	0.48404181003570557	0.3096249997615814	0.2806985080242157	0.029653949663043022	0.3697826862335205	0.13186302781105042	0.9643172025680542	0.4440583288669586	-0.047330908477306366	-0.24775665998458862	-0.11385577917098999	-0.3264116644859314	0.06885503232479095	-0.17752890288829803	-0.02978210523724556	0.17915943264961243	-0.01801728457212448	0.015144719742238522	0.6188647747039795	-0.2793149948120117	0.08177939057350159	0.29527315497398376	0.22737455368041992	-0.1932760775089264	1.246194839477539	0.0055125863291323185	0.17956195771694183	-0.007601362187415361	-0.37599581480026245	0.1761188507080078	-0.04090297967195511	-0.06858418136835098	-0.10824712365865707	-0.6469494700431824	0.11776655912399292	-0.22320401668548584	0.1419544816017151	0.6891087293624878	-0.14468078315258026	0.14137625694274902	0.1936093419790268	-0.04751751571893692	0.58086097240448	0.4043895900249481	-0.11528140306472778	-0.020957769826054573	-0.006601477041840553	-0.5521091222763062	-0.38995134830474854	-0.11804170161485672	0.7439824342727661	-0.1582798957824707	0.31841957569122314
PMC6907167	0.22609496116638184	0.1616499125957489	-0.38245007395744324	0.5040414929389954	-0.20285984873771667	-0.007195703685283661	0.05629917234182358	0.07411637157201767	0.1999371200799942	-0.49277007579803467	-0.5440910458564758	-0.771743655204773	-0.16865916550159454	-0.2266288846731186	-0.1394493579864502	0.4122466444969177	-0.20796319842338562	-0.01859072409570217	-0.01579529233276844	-0.14131993055343628	-0.08535502851009369	-0.1596110761165619	0.13235561549663544	0.1199626475572586	0.2984858453273773	-0.0985686331987381	-0.6033356785774231	-0.19898520410060883	-0.8161459565162659	0.022740235552191734	0.3315492272377014	-0.11232621222734451	-0.18912503123283386	0.051363151520490646	0.3548487722873688	0.0395299568772316	-0.525686502456665	0.46059492230415344	0.4033581018447876	0.07636105269193649	-0.053827811032533646	0.748862624168396	0.479004442691803	-0.5224299430847168	-0.1197514608502388	0.02659883163869381	-0.5785892605781555	-0.5077471137046814	0.746326208114624	0.3673573136329651	0.036667488515377045	-0.19184057414531708	0.18825727701187134	-0.7662251591682434	-0.36290910840034485	0.2545391619205475	0.2529248893260956	-0.1581888347864151	0.35647207498550415	0.3498729169368744	0.19479569792747498	-0.5761494636535645	0.6482407450675964	-0.41496461629867554	-0.6020020842552185	-0.2930351793766022	0.07653316855430603	0.3115178346633911	0.21066707372665405	0.06840433925390244	-0.10313944518566132	0.1355760246515274	-0.5057567358016968	-0.3134063184261322	-0.12492524832487106	-0.08442807197570801	-0.29054921865463257	0.24561196565628052	-0.012435459531843662	-0.5791476368904114	-0.6830075979232788	0.34205588698387146	0.2376299798488617	-0.3384024500846863	-0.10178933292627335	0.6166755557060242	0.18444056808948517	0.8059543371200562	0.4718117415904999	-0.19115550816059113	0.09153072535991669	-0.27594295144081116	0.2718496024608612	-0.21560905873775482	-0.4402815103530884	0.27510419487953186	0.037689197808504105	0.5249536633491516	0.6901856660842896	-0.07856790721416473	-0.21825546026229858	0.2199452668428421	-0.11251639574766159	-0.6432510614395142	0.09649265557527542	-0.7780271172523499	0.07755176723003387	0.3802572786808014	-0.39244335889816284	0.9357174634933472	1.108618974685669	0.06910813599824905	0.21179291605949402	0.025652041658759117	0.4241521656513214	-0.32343608140945435	-0.07659231126308441	-0.2824426293373108	0.021130263805389404	0.0781451165676117	0.3569985628128052	-0.5465342998504639	-0.24140901863574982	0.5607835650444031	-0.7360976934432983	-0.3494836390018463	0.39649683237075806	0.6347988843917847	0.15860256552696228	-0.0061767008155584335	0.15204498171806335	-0.22666683793067932	-0.4303596019744873	0.1591409593820572	-0.985747754573822	-0.4280259311199188	-0.20798064768314362	-0.19023466110229492	-0.3874296545982361	-0.34045636653900146	1.215550422668457	-0.5534824132919312	-0.9729512929916382	-0.02416648343205452	-0.1654437929391861	0.07644208520650864	-0.26389601826667786	0.25730398297309875	-0.013124871999025345	-0.7064209580421448	-0.4320478141307831	0.3386123776435852	-0.217219278216362	0.7451858520507812	-0.6905911564826965	-0.255573570728302	-0.8473876118659973	0.256673127412796	-0.010525943711400032	0.6061941385269165	0.19088338315486908	0.46933311223983765	-0.012249276041984558	-0.6424307227134705	-0.4712349474430084	-0.08403284847736359	0.04296506941318512	0.4417511522769928	-0.11632572114467621	0.30503514409065247	0.029323367401957512	-0.1525966227054596	-0.0030696706380695105	0.07938577234745026	0.17868615686893463	-0.21161268651485443	0.15954440832138062	0.599043071269989	-0.168561190366745	-0.07999226450920105	0.4965105354785919	-0.10863297432661057	0.4839867651462555	-0.6050455570220947	0.1944788098335266	0.3971506655216217	0.5947237610816956	0.20545697212219238	0.31115052103996277	0.10145720094442368	-0.09306547045707703	-0.4544956386089325	-0.15496638417243958	0.3166126608848572	0.11900975555181503	-0.4143773913383484	0.002814989537000656	-0.04994293674826622	0.9134244918823242	-0.16340377926826477	-0.2507574260234833	0.19092535972595215	0.3622121810913086	-0.1378713697195053	0.43432021141052246	-0.019902881234884262	-0.18831714987754822	-0.09524218738079071	0.7471893429756165	0.4422492980957031	0.2783542275428772	-0.20647715032100677	0.7186879515647888	-0.5104719400405884	-0.055994559079408646	-0.7740349769592285	-0.060364410281181335	-0.3261692523956299	0.09917091578245163	0.0069641657173633575	-0.14650852978229523	-0.5338715314865112	-0.5031958222389221	-0.28251299262046814	-0.2997605502605438	-0.4320870041847229	-0.7259970903396606	-0.053661372512578964	0.5120632648468018	0.13298113644123077	-0.6172270178794861	0.2838781476020813	0.09615568816661835	-0.5041090250015259	0.23542381823062897	0.17074435949325562	-0.7082000970840454	-0.39862459897994995	0.5208348035812378	-0.3738815486431122	-0.23732002079486847	-0.347503125667572	-0.28391310572624207	-0.24408721923828125	0.09681910276412964	-0.2879849672317505	0.639365017414093	0.5535588264465332	-0.11362855136394501	0.26713329553604126	0.08446626365184784	0.6121123433113098	0.09704810380935669	0.4723224937915802	-0.0021870252676308155	0.37145134806632996	-0.16620635986328125	0.11367558687925339	-0.23336602747440338	0.14906416833400726	-0.4261157214641571	0.291750431060791	-0.39329957962036133	0.25866231322288513	-0.2839272618293762	0.5926827192306519	-0.04628538712859154	-0.02963327057659626	0.24464191496372223	0.06347771733999252	0.1447562277317047	0.9452564716339111	0.5493596792221069	0.3533390164375305	0.2739645838737488	-0.4205394685268402	0.13852621614933014	0.3602447509765625	0.0646778866648674	-0.478172242641449	-0.46225622296333313	0.08274299651384354	-0.09757311642169952	0.17976123094558716	0.5399816632270813	-0.08471866697072983	-0.43434110283851624	-0.27175188064575195	-0.14418652653694153	0.29749760031700134	0.2283979207277298	0.2931267321109772	0.44447898864746094	0.20621314644813538	-0.649696946144104	0.10461698472499847	0.13998427987098694	0.28134068846702576	-0.4747673273086548	0.4667023718357086
PMC7095430	0.03999214246869087	0.16799262166023254	-0.5805727243423462	-0.14503781497478485	-0.08884350210428238	-0.4701971709728241	-0.25130781531333923	0.4580233693122864	0.29760757088661194	-0.2753334045410156	-0.4300220012664795	-0.757205605506897	0.08295987546443939	-0.13634167611598969	-0.5063867568969727	0.1748141199350357	0.19413968920707703	-0.0036809525918215513	-0.203615203499794	-0.1679106205701828	0.05020393431186676	-0.2105083465576172	0.2851519286632538	0.5705821514129639	0.7845193147659302	-0.19756360352039337	-0.4095076024532318	-0.10134515166282654	-0.6274733543395996	-0.1372656226158142	0.1393650323152542	-0.11590920388698578	-0.17323942482471466	-0.04832376167178154	-0.20188261568546295	0.04566183313727379	-0.43472105264663696	0.4186071753501892	0.56117844581604	-0.2140723466873169	0.23411665856838226	0.5397076606750488	0.21227256953716278	-0.22652001678943634	-0.0463571660220623	-0.062476757913827896	-0.16849660873413086	-0.5254323482513428	0.1478167176246643	0.2638300657272339	0.5101105570793152	-0.07349187135696411	-0.11001904308795929	-0.5025820732116699	-0.1476472169160843	0.2693743109703064	-0.05144205316901207	-0.2134615182876587	0.7407439947128296	0.350037544965744	-0.021495765075087547	-0.41470274329185486	-0.03421570360660553	-0.5126632452011108	-0.20165030658245087	-0.35998350381851196	-0.05227802321314812	0.08722041547298431	0.030937081202864647	0.5652252435684204	-0.6320790648460388	0.34525877237319946	-0.2512681782245636	-0.742144763469696	0.27065029740333557	-0.1145317479968071	-0.6048673391342163	0.4654812216758728	0.06724494695663452	0.03950400650501251	-0.424725741147995	0.20920930802822113	0.04058755189180374	-0.52678382396698	0.18845222890377045	0.47288620471954346	0.12952807545661926	0.917967677116394	0.5890491604804993	-0.20881769061088562	-0.14255231618881226	0.23162305355072021	0.34386932849884033	-0.10906701534986496	-0.1623600721359253	-0.04060919210314751	0.001473529846407473	0.07095446437597275	0.3491612374782562	0.10243203490972519	-0.10093821585178375	-0.015408651903271675	-0.4074961841106415	-0.4280238747596741	-0.1798146367073059	-0.6627197265625	0.2467339038848877	0.5344169735908508	0.054290421307086945	0.48190221190452576	1.1720595359802246	-0.2619067430496216	0.27021777629852295	0.19571812450885773	0.5263930559158325	0.08328408747911453	-0.03152882680296898	-0.14827752113342285	-0.22436290979385376	-0.4442313015460968	0.2847798466682434	-0.17510740458965302	-0.10023032873868942	0.7752233743667603	-0.39061838388442993	-0.03052014485001564	-0.2668728828430176	0.5873556137084961	0.022464169189333916	-0.1609436273574829	0.07763319462537766	-0.11038243770599365	-0.10912206023931503	0.1163703054189682	-0.8421153426170349	-0.3101697266101837	-0.3444157540798187	-0.5699166655540466	-0.7017248272895813	0.014510332606732845	1.5147154331207275	-0.10040393471717834	-0.5207187533378601	-0.1578867882490158	0.08270550519227982	0.12693871557712555	-0.629755973815918	0.1714322865009308	0.20699459314346313	-0.7544984817504883	-0.7179046869277954	0.20191389322280884	-0.37961849570274353	0.09500648826360703	-0.2662264406681061	-0.3101324141025543	-0.45384079217910767	0.36118680238723755	-0.36950919032096863	0.37697741389274597	0.27143731713294983	0.5458253026008606	0.6219255924224854	-0.6735360026359558	-0.5265395045280457	-0.06512448936700821	0.11954108625650406	0.524196445941925	0.0065390001982450485	0.05629551038146019	0.2766600251197815	-0.021707817912101746	0.20749488472938538	-0.032752931118011475	0.0953449234366417	0.11128418147563934	0.035006698220968246	0.7766475677490234	-0.2814214527606964	0.3121005892753601	0.7540069222450256	-0.17855922877788544	0.5556217432022095	-0.39971619844436646	-0.06470783054828644	0.5718977451324463	0.022064080461859703	-0.11124368011951447	0.16813884675502777	-0.00018192802963312715	0.1275845766067505	-0.7020205855369568	-0.17644821107387543	0.15712854266166687	0.4149468243122101	-0.40319857001304626	0.5087956786155701	0.02274787612259388	0.3863796591758728	-0.4669489562511444	-0.30960506200790405	-0.13315515220165253	-0.0847281813621521	0.010586953721940517	0.5237725377082825	0.10427361726760864	-0.4582999050617218	-0.05258910730481148	0.6182747483253479	0.2930913269519806	0.4031405448913574	0.02753596194088459	0.2588592767715454	-0.27742043137550354	-0.06530897319316864	-0.3227602243423462	-0.19403675198554993	0.10911312699317932	-0.177090585231781	-0.10191424190998077	0.10321766883134842	-0.8268141150474548	0.03165353462100029	-0.2035728394985199	-0.4977038502693176	-0.09576477855443954	-0.44262197613716125	-0.3014461100101471	0.06488143652677536	0.06780073791742325	-1.001656174659729	0.05168042704463005	0.0632862001657486	-0.5573375821113586	-0.05233366787433624	-0.12171927094459534	-0.9776188731193542	-0.39953622221946716	0.7467365264892578	0.03532792627811432	-0.6284922957420349	-0.6252554059028625	-0.431805282831192	-0.18150776624679565	-0.2376970797777176	-0.2610023021697998	1.3250993490219116	0.5292130708694458	0.21399229764938354	0.6566755175590515	-0.011806712485849857	0.054174527525901794	0.009210385382175446	0.8201737999916077	0.624340832233429	0.2775842249393463	-0.4112144112586975	0.13153620064258575	-0.42497146129608154	0.01884334906935692	-0.2295069396495819	0.009426240809261799	-0.11523693799972534	0.6919711232185364	0.12606799602508545	0.7541576027870178	-0.1131834015250206	-0.030791372060775757	-0.01714928261935711	-0.07112230360507965	0.1269685924053192	1.4198768138885498	0.08125574141740799	0.5468556880950928	0.04632316157221794	-0.33983057737350464	0.13314436376094818	-0.06928182393312454	-0.21111975610256195	-0.03146697208285332	-0.6313793063163757	0.18132184445858002	-0.08960231393575668	0.2008640319108963	0.5365478992462158	-0.37081673741340637	-0.1749342679977417	0.22070054709911346	-0.123444102704525	0.4524165987968445	0.2172919660806656	0.08544780313968658	0.03793781250715256	-0.10369524359703064	-0.5608062744140625	0.04618610441684723	0.25669923424720764	0.39365774393081665	-0.5879839658737183	0.7352240681648254
PMC7139599	0.40912091732025146	0.3418335020542145	-0.5349247455596924	-0.2694452404975891	-0.26343342661857605	-0.3458486497402191	-0.06851863861083984	0.08897358924150467	0.5509583950042725	-0.38902711868286133	-0.5162838697433472	-0.8414238691329956	0.2667928636074066	-0.31728750467300415	-0.33168718218803406	-0.009641955606639385	0.35445234179496765	-0.07291798293590546	-0.3677990138530731	0.06933420151472092	-0.11503512412309647	0.3359227776527405	0.1379978060722351	0.29403963685035706	0.6434606313705444	-0.15929363667964935	-0.4046922028064728	-0.2870611846446991	-0.7089033126831055	0.1625388264656067	0.123539999127388	-0.33010658621788025	-0.15961459279060364	-0.01247583981603384	0.03717069700360298	-0.10478320717811584	-0.4428407549858093	0.3637956976890564	1.0455820560455322	-0.27488866448402405	0.030620185658335686	0.42570236325263977	0.30922192335128784	-0.04678196460008621	0.0976128876209259	0.2090308666229248	-0.19376905262470245	-0.1676376760005951	0.4699414372444153	0.3258640468120575	0.19113726913928986	-0.0619904063642025	0.1659558266401291	-0.6109110116958618	-0.29802846908569336	0.2774990200996399	-0.12300090491771698	-0.2869112491607666	0.7926211357116699	0.4171801507472992	0.2665659785270691	-0.4193493723869324	0.05443796142935753	-0.18561556935310364	-0.4986160695552826	-0.9224897623062134	-0.22429795563220978	0.2266760766506195	0.005204784218221903	0.14810682833194733	-0.36305198073387146	0.2160530388355255	-0.5365473031997681	-0.43071284890174866	0.23888899385929108	-0.1113157719373703	-0.3619154393672943	0.4070667326450348	0.06856744736433029	0.03893284499645233	-0.40716686844825745	0.08988708257675171	0.08727232366800308	0.031134167686104774	-0.19624939560890198	0.32508498430252075	-0.14796265959739685	0.9631767272949219	0.4332972466945648	-0.1725044548511505	-0.040332600474357605	0.11486499756574631	0.18749462068080902	-0.39570391178131104	-0.275098979473114	-0.09301546961069107	0.11428570002317429	-0.08562827855348587	0.38818982243537903	0.152162566781044	-0.25947871804237366	0.08626730740070343	-0.5392193794250488	-0.4654041528701782	0.06102435290813446	-1.0088424682617188	0.1823025345802307	0.7254524827003479	-0.46108385920524597	0.8142043948173523	0.8032814264297485	0.10430119186639786	0.16844125092029572	0.20727893710136414	0.45054492354393005	0.2317400723695755	0.061114486306905746	0.07476390898227692	-0.20557041466236115	-0.37362444400787354	0.42364975810050964	0.06295125931501389	0.3689118027687073	0.8071742057800293	-0.5615394711494446	-0.03850731626152992	-0.015270560048520565	0.2194831371307373	0.009495346806943417	0.3293554186820984	0.25564420223236084	-0.015277769416570663	0.10126753151416779	0.006766580976545811	-0.6164519190788269	-0.2389366775751114	-0.6874110698699951	-0.6531368494033813	-0.6670909523963928	-0.24318014085292816	1.238527536392212	0.054432306438684464	-0.3697141110897064	-0.03492486849427223	0.20217135548591614	0.31371793150901794	-0.23088935017585754	0.2791745066642761	-0.009684904478490353	-0.810089111328125	-0.7310202121734619	0.31201857328414917	-0.3465646505355835	0.03870810568332672	-0.5990857481956482	-0.11220473796129227	-0.28177326917648315	0.34649762511253357	0.22109459340572357	0.13428716361522675	0.2066282331943512	0.5693410634994507	0.23161067068576813	-0.3147096335887909	-0.2924770712852478	-0.09286344796419144	0.43642836809158325	0.2728339433670044	0.24282895028591156	0.18258517980575562	0.3167555034160614	0.20392344892024994	0.18846575915813446	-0.005134825129061937	0.12837308645248413	-0.1631673127412796	0.4029216766357422	1.2775636911392212	-0.4208155572414398	0.18301934003829956	0.3972897529602051	-0.3125784397125244	0.5946494340896606	-0.39100903272628784	0.015270591713488102	0.28044500946998596	0.07133098691701889	-0.08497065305709839	0.44763875007629395	-0.019418790936470032	-0.051679886877536774	-0.5517904162406921	-0.13359969854354858	0.08969756960868835	0.00269301887601614	-0.707393229007721	-0.0021269668359309435	0.24000734090805054	0.4816809594631195	-0.2000550776720047	0.017657047137618065	-0.09469443559646606	0.35575976967811584	-0.15274646878242493	0.6056191921234131	0.11909933388233185	-0.34542524814605713	0.023886188864707947	0.539598822593689	0.48540613055229187	0.1521613895893097	-0.10175374150276184	0.3038187325000763	-0.46534013748168945	-0.34952932596206665	-0.1042344942688942	-0.3933422267436981	0.23146669566631317	0.24250270426273346	-0.3769366145133972	-0.02555474080145359	-0.7779724597930908	-0.2997511327266693	-0.12554578483104706	-0.5827736258506775	-0.11811694502830505	-0.22960297763347626	-0.2981172204017639	0.38286101818084717	0.06677263230085373	-0.688438355922699	0.216830775141716	0.0013166916323825717	-0.6565448641777039	0.003942196257412434	-0.012390554882586002	-0.6310679316520691	-0.75632244348526	0.6321159601211548	-0.47638529539108276	-0.5771603584289551	-0.42347168922424316	-0.5509750247001648	-0.07830625027418137	-0.16058503091335297	-0.23364470899105072	1.1689411401748657	0.4378780126571655	0.230341374874115	0.031131340190768242	-0.16404128074645996	0.3997746706008911	-0.2343311458826065	0.44857436418533325	0.1720602959394455	0.06628557294607162	-0.657667875289917	0.09560488909482956	-0.0018823156133294106	0.039905745536088943	0.19875213503837585	0.1469907909631729	-0.18829336762428284	0.2899678647518158	-0.4684810936450958	0.6834122538566589	-0.1024683490395546	-0.07725495845079422	0.3511674106121063	-0.09017757326364517	0.09289517998695374	0.9976401925086975	0.535446047782898	0.1303473711013794	0.13693879544734955	-0.06020309031009674	0.5317723751068115	0.03625692054629326	-0.046342987567186356	0.03594657778739929	-0.7990204691886902	0.08072266727685928	-0.1770450919866562	0.3392047584056854	0.8122039437294006	-0.43402695655822754	-0.1284109205007553	-0.2468629777431488	-0.06897828727960587	0.3495246469974518	0.5777902603149414	0.46259182691574097	-0.07948540151119232	0.022357754409313202	-0.6487594842910767	-0.029272301122546196	0.14300180971622467	0.4607160687446594	-0.2556871473789215	0.4668996036052704
PMC7156119	0.19833534955978394	0.3428797721862793	-0.4910851716995239	-0.2765617370605469	-0.24534086883068085	-0.2644076645374298	0.005561838857829571	0.4454765319824219	0.22655370831489563	-0.49998611211776733	-0.5391924381256104	-0.8168569207191467	-0.009426102042198181	-0.11079338937997818	-0.2588513493537903	0.06967056542634964	0.041904009878635406	0.07377903908491135	-0.5975514054298401	-0.16513583064079285	-0.032274723052978516	0.0661081075668335	0.1419937014579773	0.2279287427663803	0.5714673399925232	-0.19801029562950134	-0.6109923124313354	-0.053559012711048126	-0.9689931869506836	0.13098078966140747	0.24699926376342773	-0.07831298559904099	-0.418916255235672	0.1517886370420456	0.08250699192285538	0.17413094639778137	-0.5708651542663574	0.4078299403190613	0.8275530338287354	-0.03732982650399208	0.2765355706214905	0.5528880953788757	0.05621890351176262	0.01438151765614748	0.25554704666137695	0.03476548194885254	-0.2742023766040802	-0.4179571270942688	0.5404431223869324	0.6094548106193542	0.5312949419021606	-0.07315397262573242	0.18322336673736572	-0.5267099738121033	-0.1793503761291504	0.5344937443733215	-0.025203129276633263	-0.4043104946613312	0.8884027600288391	0.3645108938217163	-0.0035215280950069427	-0.522953987121582	0.13001367449760437	-0.5127963423728943	-0.527751088142395	-0.6426600813865662	-0.1019330695271492	0.32265758514404297	-0.15185745060443878	0.0635639876127243	-0.7184774875640869	0.39950358867645264	-0.40866848826408386	-0.7129003405570984	0.13218995928764343	-0.09654057025909424	-0.5260804295539856	0.36979788541793823	0.49704721570014954	-0.10758888721466064	-0.6419740319252014	-0.0002908049791585654	0.03690723329782486	-0.1501697450876236	-0.047398682683706284	0.4026130139827728	0.1390005648136139	0.778023898601532	0.476075142621994	-0.08407315611839294	-0.0025097213219851255	0.18771377205848694	0.5197108387947083	-0.3150339126586914	-0.006435974966734648	-0.13903486728668213	0.15854120254516602	-0.13207481801509857	0.5829310417175293	0.205444797873497	-0.5250491499900818	0.26395416259765625	-0.2920806407928467	-0.550472617149353	0.02988710254430771	-1.0785820484161377	0.2248261421918869	0.612373948097229	-0.22904065251350403	0.6251869201660156	1.0013772249221802	0.33542606234550476	0.040761787444353104	0.33897584676742554	0.5731428265571594	-0.15642865002155304	-0.19348642230033875	-0.2773599624633789	0.01313253864645958	-0.43459540605545044	0.23423127830028534	-0.21583764255046844	-0.1093018501996994	1.0801769495010376	-0.3806784451007843	-0.3639766573905945	-0.09634310752153397	0.5171619653701782	0.21650072932243347	0.2570137083530426	0.18785615265369415	0.011506319046020508	0.03261897340416908	0.12637102603912354	-0.5995129346847534	-0.19553744792938232	-0.29181239008903503	-0.5147213935852051	-0.7091441750526428	-0.47382423281669617	1.6695581674575806	0.0487363301217556	-0.6743406653404236	-0.01832730695605278	-0.0128865335136652	0.4522036015987396	-0.46394360065460205	0.5794355869293213	0.06100235879421234	-0.8903056383132935	-0.9542927742004395	0.2628839313983917	-0.3035053610801697	0.28077566623687744	-0.6474245190620422	-0.561629056930542	-0.48317864537239075	0.6210067868232727	-0.06227535754442215	0.6621946096420288	0.1721065193414688	0.5433509945869446	0.21545618772506714	-0.2998824417591095	-0.20584459602832794	-0.10988566279411316	0.3489493727684021	0.20626726746559143	0.1772812157869339	0.3576521575450897	0.22095070779323578	0.06648969650268555	0.13666974008083344	0.12765483558177948	0.061100754886865616	-0.2709254324436188	0.16947230696678162	1.19772469997406	-0.06518416106700897	0.1481325477361679	0.6188574433326721	-0.18246397376060486	0.5513105988502502	-0.18146654963493347	0.15280769765377045	0.43334001302719116	0.17604859173297882	0.03335832059383392	0.5601463317871094	0.051784805953502655	-0.1945737898349762	-0.38700437545776367	-0.027693146839737892	0.06175057217478752	-0.040290046483278275	-0.48703181743621826	0.08956470340490341	0.41517114639282227	0.8992984294891357	-0.1891375035047531	0.003915873821824789	0.1592903882265091	0.34731006622314453	-0.09609846770763397	0.7173522114753723	0.022853538393974304	-0.594677746295929	0.1083848625421524	0.6132722496986389	0.4126272201538086	0.4548918902873993	0.22850197553634644	0.4651225507259369	-0.353647917509079	-0.38869932293891907	-0.13110050559043884	-0.7114704847335815	0.1371879130601883	0.052953384816646576	-0.20138148963451385	0.2617689371109009	-0.7380914688110352	-0.32609421014785767	-0.41634997725486755	-0.8617955446243286	-0.1734951287508011	-0.2194138765335083	0.06919296830892563	0.2013552337884903	0.16858576238155365	-0.8543415069580078	0.019233545288443565	-0.015884580090641975	-0.7558505535125732	0.13063056766986847	-0.024097498506307602	-1.2030143737792969	-0.6850894689559937	0.6209216117858887	-0.2803167998790741	-0.6958054900169373	-0.2768494784832001	-0.6028320789337158	-0.29391786456108093	-0.03157859295606613	-0.5373224020004272	1.2584877014160156	0.6759319305419922	0.13837216794490814	0.4677005708217621	-0.08279594779014587	0.21869319677352905	-0.24342432618141174	0.41928398609161377	0.29780635237693787	0.28022754192352295	-0.37675777077674866	0.27157649397850037	0.03869077190756798	-0.03264389932155609	0.05257127061486244	0.053207725286483765	-0.29127609729766846	0.3178658187389374	-0.48049914836883545	1.0143221616744995	-0.20739023387432098	0.004361442755907774	0.3569968044757843	0.03743303194642067	0.28593671321868896	1.144892692565918	0.6714757680892944	0.5730085968971252	0.20492218434810638	0.0793834775686264	0.2616446018218994	0.005651736166328192	0.07799019664525986	-0.2977917194366455	-0.8098041415214539	0.27375391125679016	-0.16763216257095337	0.2642696797847748	0.7526175379753113	-0.4918745458126068	-0.2891595959663391	-0.13539518415927887	-0.3154565989971161	0.2884165644645691	0.506852388381958	0.743350088596344	-0.14994914829730988	0.14194302260875702	-0.7837944030761719	0.029758939519524574	0.4923500716686249	0.37318387627601624	-0.309049129486084	0.43449530005455017
PMC7138313	0.15664762258529663	-0.0391702838242054	-0.31226301193237305	0.5103983879089355	-0.20698034763336182	-0.4038991928100586	-0.15465301275253296	-0.10024528205394745	0.45419225096702576	0.28641435503959656	-0.5909863114356995	-0.3373851776123047	0.16814644634723663	-0.5700549483299255	-0.34691330790519714	0.1029149517416954	-0.04484321177005768	-0.17128926515579224	-0.5155231356620789	-0.19130714237689972	-0.36433228850364685	-0.40680038928985596	0.2913384437561035	0.6641544103622437	0.88275146484375	-0.05667787417769432	-0.9827414155006409	-0.13594050705432892	-0.4361504316329956	-0.270442932844162	0.09330712258815765	0.44144925475120544	-0.189344123005867	0.42192578315734863	0.06527409702539444	-0.3907221555709839	-0.4743618965148926	-0.12284360080957413	0.7380936145782471	-0.024634746834635735	0.2986108958721161	0.4645192325115204	-0.13089050352573395	0.10933258384466171	-0.21565592288970947	0.2469266653060913	-0.2022436112165451	-0.1669459342956543	0.13181452453136444	0.4071824848651886	-0.07402291893959045	-0.31958624720573425	-0.6264509558677673	-0.4567769467830658	0.05613930895924568	0.523758590221405	-0.06034018099308014	-0.04403771087527275	0.6590195298194885	0.008421295322477818	-0.25833719968795776	-0.020022619515657425	-0.1626768410205841	-0.7006872296333313	-0.5458029508590698	-0.47292599081993103	0.3141408860683441	0.5517348647117615	0.2226741462945938	0.5549615621566772	0.07691778987646103	0.025129422545433044	-0.2828313708305359	-0.4402066767215729	-0.115982785820961	-0.2298228144645691	0.13773465156555176	0.49767032265663147	0.05355340614914894	-0.37764209508895874	0.05379306524991989	0.3263733983039856	0.33475181460380554	-0.753795862197876	-0.7595610022544861	0.28674575686454773	-0.45499780774116516	1.026503324508667	-0.020863352343440056	-0.3703222870826721	-0.18082213401794434	-0.5655884742736816	-0.020441031083464622	0.0901234820485115	-0.14664414525032043	-0.3176863193511963	-0.30957287549972534	-0.06267929822206497	0.3517153263092041	-0.33448952436447144	-0.2859610915184021	0.18399964272975922	0.07593868672847748	-0.18451440334320068	0.09119313210248947	-1.1420701742172241	0.04795461520552635	0.7837437391281128	-0.3632931709289551	0.9000715017318726	1.1641333103179932	0.00017256694263778627	0.584794819355011	-0.21587003767490387	0.055412329733371735	0.10223251581192017	0.326872855424881	-0.31981030106544495	0.282418817281723	-0.09864111244678497	0.7173789143562317	0.07256504148244858	-0.029779741540551186	0.4272884726524353	-0.3509890139102936	0.11417430639266968	0.44956156611442566	-0.13672496378421783	-0.31227171421051025	0.11078924685716629	0.18650861084461212	-0.06531503051519394	-0.14027999341487885	0.5694151520729065	-0.868645966053009	0.050339944660663605	-0.1015343889594078	-0.56521075963974	-0.5785945057868958	-0.26418939232826233	1.05111563205719	-0.542967677116394	-0.49617332220077515	0.3300226032733917	0.2426304817199707	-0.4797169864177704	-0.35633042454719543	-0.00988821405917406	-0.6047665476799011	-0.420163631439209	-0.46180251240730286	0.43375805020332336	-0.1701265275478363	0.5645487308502197	-0.44673413038253784	-0.11717911809682846	-0.3767155110836029	-0.02963688038289547	-0.15417450666427612	0.4340028762817383	0.06910958141088486	0.34873244166374207	0.0453408844769001	-0.9332069754600525	-0.4434790313243866	-0.021835889667272568	-0.299547016620636	0.6592506766319275	-0.23719589412212372	0.010013333521783352	0.3318069279193878	-0.23769861459732056	-0.26477542519569397	-0.1348010152578354	0.2717841565608978	0.31420204043388367	-0.4661288261413574	0.6543517708778381	-0.5250013470649719	-0.003959134686738253	-0.1703227162361145	-0.19367988407611847	0.9026191830635071	-0.3837301731109619	0.15064258873462677	0.7246937155723572	0.24491699039936066	0.0024506961926817894	0.1397731602191925	-0.19514986872673035	0.7454494833946228	-0.29398003220558167	-0.05367149040102959	0.5015710592269897	0.04840661212801933	-0.5590307116508484	0.13537375628948212	-0.0643625259399414	0.5251427292823792	-0.16178905963897705	0.27029111981391907	0.13184049725532532	0.04460418224334717	0.012795666232705116	0.619579017162323	-0.6497756838798523	-0.2737772464752197	-0.11381915211677551	0.993441641330719	0.600226104259491	0.48902520537376404	-0.4101385474205017	0.7070277333259583	-1.0127575397491455	-0.002210342325270176	-0.20354801416397095	-0.17975647747516632	0.07655380666255951	-0.3991841971874237	-0.05636260658502579	0.11914658546447754	-0.784450888633728	-0.12636396288871765	-0.31829196214675903	-0.378275603055954	-0.2734774947166443	-0.3833688199520111	-0.2205447554588318	0.04091465473175049	0.7503389716148376	-0.8990379571914673	0.6343449354171753	-0.3025640547275543	-0.6959754824638367	0.42304733395576477	-0.028144272044301033	-0.42717888951301575	-0.30262476205825806	0.8715765476226807	0.21672086417675018	-0.5275899767875671	-0.23159775137901306	-0.15972769260406494	-0.4290773868560791	0.3998204171657562	0.25434479117393494	0.4785374402999878	0.3557076156139374	-0.027608217671513557	0.23346996307373047	-0.17301702499389648	0.2973257303237915	0.17291730642318726	0.9749298691749573	0.18276162445545197	0.5569707751274109	-0.18333829939365387	-0.14338086545467377	-0.3724353611469269	0.3523664176464081	-0.5694664716720581	0.05000660568475723	-0.4042786955833435	0.07916521281003952	-0.03079257719218731	-0.0553864911198616	-0.6424798369407654	0.058679498732089996	0.7515077590942383	-0.24097035825252533	0.06235257163643837	0.9468421936035156	0.08350726962089539	0.8101898431777954	-0.07411779463291168	-0.16223938763141632	0.11725512892007828	-0.24137820303440094	-0.23402194678783417	-0.2166283279657364	-0.20536871254444122	0.265401691198349	0.023324942216277122	0.49188321828842163	0.9383262395858765	-0.050253137946128845	-0.30431434512138367	-0.19187501072883606	-0.031579822301864624	0.3926972448825836	-0.024834170937538147	-0.11246810853481293	0.32368025183677673	-0.6382173299789429	-0.49454426765441895	-0.31289392709732056	0.4280206859111786	0.5099941492080688	-0.9512099623680115	-0.1119934618473053
PMC7161957	0.15850001573562622	0.427690714597702	-0.38938775658607483	-0.15976577997207642	-0.1444339007139206	-0.19152095913887024	0.017068911343812943	0.45473015308380127	0.5761694312095642	-0.34465548396110535	-0.6316395998001099	-0.9843484163284302	0.04175508767366409	-0.3039025366306305	-0.225358784198761	0.008909434080123901	0.21463645994663239	0.18727558851242065	-0.49784350395202637	-0.0038515881169587374	-0.09896843880414963	-0.01319353748112917	0.19401516020298004	0.1935824453830719	0.5772071480751038	-0.19760765135288239	-0.44538596272468567	-0.051963262259960175	-1.1617330312728882	0.4389827847480774	0.22543753683567047	-0.22961802780628204	-0.38337141275405884	0.0901835635304451	-0.17859290540218353	-0.06000717356801033	-0.4957388639450073	0.39089295268058777	0.9886577129364014	-0.18734394013881683	0.35248932242393494	0.11071932315826416	0.1452624350786209	-0.10721518099308014	0.22806315124034882	-0.1661984771490097	-0.3056480586528778	-0.21108271181583405	0.6623814702033997	0.6873083710670471	0.22500485181808472	-0.006867643445730209	0.08244678378105164	-0.5219612121582031	-0.41125595569610596	0.6215560436248779	-0.1516226977109909	-0.33916327357292175	0.6905748844146729	0.5735601186752319	0.20593449473381042	-0.24298323690891266	0.052956584841012955	-0.5440104007720947	-0.16079291701316833	-0.9508706331253052	0.012097594328224659	0.03670501708984375	-0.0988122746348381	0.2507680058479309	-0.5255849361419678	0.2954654097557068	-0.5120304822921753	-0.45626288652420044	0.07852668315172195	-0.04271714761853218	-0.30422070622444153	0.5577661395072937	0.5237569212913513	0.028088144958019257	-0.499322772026062	-0.16033977270126343	0.12276572734117508	-0.16589821875095367	-0.14815810322761536	0.29722413420677185	0.32167306542396545	0.5269684791564941	0.15418116748332977	-0.269429475069046	-0.0863577201962471	0.23590534925460815	0.36223533749580383	-0.30149081349372864	0.09653257578611374	0.10372129827737808	0.07246309518814087	-0.21499912440776825	0.8135273456573486	0.32126274704933167	-0.4386362135410309	-0.04526258260011673	-0.11617689579725266	-0.3576880395412445	0.06046261638402939	-1.06717848777771	0.23657341301441193	0.2665654718875885	-0.22186091542243958	0.947239339351654	0.9915849566459656	0.157819464802742	0.013886856846511364	0.16598191857337952	0.317030668258667	-0.24124489724636078	-0.19276884198188782	-0.364643394947052	0.16370448470115662	-0.58412104845047	0.19446943700313568	-0.3479643166065216	-0.12855088710784912	0.9603726863861084	-0.1260925531387329	-0.24922849237918854	-0.16472403705120087	0.6778953075408936	0.2085445076227188	0.23751908540725708	0.24010753631591797	-0.0647088885307312	-0.0662030503153801	0.29269111156463623	-0.6405441761016846	-0.24292820692062378	-0.5579621195793152	-0.6151611804962158	-0.5539771914482117	-0.4063442051410675	1.6725512742996216	0.01721428707242012	-0.5869320034980774	-0.01896466314792633	-0.4474872648715973	0.4344483017921448	-0.34906402230262756	0.33906033635139465	-0.1241685301065445	-0.7920258045196533	-0.8607951402664185	0.21849888563156128	-0.3197396695613861	0.2963460385799408	-0.5498564839363098	-0.5486605763435364	-0.590300977230072	0.5858151316642761	-0.1913098245859146	0.9787956476211548	-0.12438329309225082	0.5318272709846497	0.3840041160583496	-0.27323636412620544	-0.3019649088382721	-0.0753733217716217	0.20111356675624847	0.1506006270647049	0.16717270016670227	0.2878182828426361	0.3693088889122009	0.197322815656662	0.25760918855667114	-0.002724612830206752	0.13464628159999847	-0.24161271750926971	0.23559224605560303	1.2643533945083618	-0.04620255529880524	0.2584550082683563	0.31461548805236816	-0.2131883054971695	0.07403100281953812	-0.34078532457351685	0.26253390312194824	0.5037615299224854	0.14067943394184113	-0.14671176671981812	0.4607691466808319	0.09473541378974915	-0.04602992534637451	-0.44620731472969055	0.14844535291194916	-0.02601269632577896	0.10505307465791702	-0.26488786935806274	0.07885140180587769	0.22772811353206635	1.0836238861083984	-0.05155683308839798	0.025558695197105408	0.270732581615448	0.4166747033596039	-0.32717448472976685	0.5450043678283691	0.058887455612421036	-0.4122144281864166	0.10692837834358215	0.7487373352050781	0.4239463210105896	0.35755130648612976	0.20836925506591797	0.5055145025253296	-0.45550769567489624	-0.37616345286369324	-0.34758517146110535	-0.7538552284240723	-0.17664621770381927	-0.25050997734069824	-0.18156404793262482	0.005925757344812155	-0.46549922227859497	-0.2648007869720459	-0.32984229922294617	-0.8755379319190979	-0.0018641193164512515	-0.22312314808368683	0.09933062642812729	0.41361376643180847	-0.22210462391376495	-0.8942195773124695	0.49170663952827454	-0.12633006274700165	-0.7946863174438477	0.060447268187999725	-0.0860380306839943	-0.8105973601341248	-0.412392258644104	0.6445801258087158	-0.29802966117858887	-0.7260873317718506	-0.1319076269865036	-0.3827630579471588	-0.2745278477668762	-0.1775684952735901	-0.17272524535655975	1.2153749465942383	0.4751553237438202	0.1937595009803772	0.037445493042469025	-0.23182182013988495	0.1690351814031601	-0.3503724932670593	0.5125004053115845	0.8361576795578003	0.205611452460289	-0.3318650424480438	0.22527310252189636	-0.012508956715464592	0.057887155562639236	-0.06175423786044121	-0.07150740176439285	-0.5443901419639587	0.5141618251800537	-0.2191172093153	0.8604257106781006	-0.2756339907646179	-0.09446407109498978	0.4965713620185852	0.28254812955856323	0.08412063121795654	1.0439499616622925	0.6978441476821899	0.5550850033760071	0.40198177099227905	0.2624581754207611	0.08689417690038681	0.017938919365406036	-0.12647488713264465	-0.327933669090271	-0.6672181487083435	0.36943623423576355	-0.014115842059254646	0.40779736638069153	0.6157565712928772	-0.5310640335083008	-0.4404744505882263	-0.11436218023300171	-0.3439379036426544	0.23135092854499817	0.31052589416503906	0.4271462559700012	-0.29885515570640564	0.1304389089345932	-1.0507394075393677	0.20443058013916016	0.5282323956489563	0.27997279167175293	-0.29224586486816406	0.23467381298542023
PMC7055868	-0.1733717918395996	-0.04123244807124138	-0.12841983139514923	0.35763224959373474	-0.16524744033813477	-0.6166044473648071	-0.13163363933563232	0.019123762845993042	0.3801784813404083	0.030820047482848167	-0.6150709390640259	-0.7718542814254761	0.21534954011440277	-0.4725518524646759	-0.47917118668556213	-0.05991446599364281	0.15459665656089783	-0.2262248545885086	-0.3893600404262543	0.25976496934890747	-0.43628567457199097	-0.26174116134643555	0.3705400228500366	0.5953075289726257	0.6598010659217834	-0.14983999729156494	-0.3808647096157074	-0.17951273918151855	-0.2894405424594879	-0.27801910042762756	0.3955041170120239	0.28523844480514526	-0.28549081087112427	0.3580130934715271	-0.19146521389484406	-0.23945768177509308	-0.3640112280845642	0.10695075243711472	1.0905636548995972	-0.5457967519760132	0.14911171793937683	0.48385605216026306	0.05729310214519501	-0.2024720311164856	-0.010334733873605728	0.294948011636734	-0.2759527862071991	-0.3157440721988678	0.4067796766757965	0.2483869194984436	0.15189722180366516	-0.5819559693336487	-0.07867614924907684	-0.5174345374107361	-0.08774155378341675	0.9171698689460754	0.06382784247398376	-0.2583552300930023	0.6921372413635254	-0.11245608329772949	-0.2134891152381897	-0.18927237391471863	0.1397540122270584	-0.4339081645011902	-0.5381945371627808	-0.4780629873275757	0.444298654794693	0.2759007215499878	-0.0009586118976585567	0.5016964673995972	-0.2853007912635803	0.2498103678226471	-0.5520011782646179	-0.35942262411117554	-0.024460284039378166	-0.21448959410190582	0.3116999566555023	0.6106095314025879	0.10737159848213196	-0.2176465541124344	-0.041392114013433456	-0.22778576612472534	0.09859953820705414	-0.6394103765487671	-0.14306853711605072	0.3081320524215698	-0.33249080181121826	0.8130571842193604	0.3110615313053131	-0.2700023949146271	-0.21258483827114105	-0.23555169999599457	0.04228304326534271	-0.20727351307868958	-0.4431741535663605	-0.09734883159399033	-0.10192222893238068	-0.004707896616309881	0.33696457743644714	-0.24421817064285278	-0.03977356106042862	0.2948504090309143	-0.020448556169867516	-0.23070727288722992	0.03134661912918091	-0.7398526072502136	0.4369824528694153	0.3334367573261261	-0.2100912183523178	0.7511059641838074	1.1417269706726074	-0.10825572162866592	0.6120039224624634	0.32845595479011536	0.07359806448221207	0.13124753534793854	-0.3097221255302429	0.07307557761669159	0.0006316294893622398	0.01226843148469925	0.6528855562210083	0.060920197516679764	-0.05277346447110176	0.3770255148410797	-0.3216339945793152	0.10117695480585098	0.08976579457521439	0.1602136790752411	0.10387548059225082	-0.04143301025032997	0.009738784283399582	-0.05514970421791077	-0.06513553857803345	0.6125583648681641	-0.801977276802063	-0.2280489057302475	-0.18316324055194855	-0.3562655746936798	-0.5622691512107849	-0.007931647822260857	1.3201063871383667	-0.4343947768211365	-0.12870465219020844	0.41285356879234314	0.024867121130228043	-0.6565712094306946	-0.39766159653663635	0.0987439900636673	-0.38923367857933044	-0.6531225442886353	-0.3549378216266632	0.582913875579834	-0.0215938538312912	0.46230411529541016	-0.17355677485466003	-0.11649581044912338	-0.5051233768463135	0.2556084990501404	-0.40156903862953186	0.7117091417312622	0.2796783447265625	0.16523978114128113	0.23759202659130096	-0.7440921068191528	-0.45246943831443787	-0.2012656182050705	-0.10892986506223679	0.5237520933151245	0.09727473556995392	-0.08506011962890625	0.14310111105442047	-0.4268140196800232	0.0014634034596383572	-0.29939374327659607	0.047295596450567245	0.29018718004226685	0.0856829583644867	0.27734556794166565	-0.43839696049690247	0.06133463978767395	0.11631643027067184	-0.3230629861354828	0.6137499809265137	-0.5725216269493103	0.27744266390800476	0.6295103430747986	0.05638178810477257	-0.4757688343524933	-0.04319199547171593	-0.253224641084671	0.38171228766441345	-0.43263575434684753	0.046833619475364685	0.36491042375564575	-0.07016072422266006	-0.25518953800201416	0.4081004858016968	0.022380435839295387	0.5192075371742249	-0.21784260869026184	0.12301423400640488	0.3050609230995178	0.09752138704061508	-0.1381697654724121	0.8931506872177124	-0.3139161467552185	-0.13937793672084808	-0.06794994324445724	0.5644829869270325	0.7127885818481445	-0.1574145406484604	-0.29192185401916504	0.6665380001068115	-0.7502111196517944	0.4507584571838379	0.10713203251361847	-0.1517973095178604	-0.237065389752388	0.020106330513954163	0.05320988595485687	0.06189095228910446	-0.9130565524101257	0.055040810257196426	-0.3902602791786194	-0.5164200663566589	-0.37881508469581604	-0.5797625780105591	-0.2628309428691864	0.2631019949913025	0.6312362551689148	-0.6244798302650452	0.2858113646507263	0.09753432869911194	-0.0732765644788742	0.20827801525592804	-0.39923030138015747	-0.4547434449195862	-0.3526195287704468	0.5601319670677185	-0.1817178577184677	-0.804408073425293	-0.7644781470298767	-0.09821826964616776	-0.13444741070270538	0.021997900679707527	0.3643752336502075	0.6467320919036865	0.17778605222702026	-0.05707010626792908	0.11886663734912872	0.2332768589258194	0.21674823760986328	0.02832707390189171	1.415169358253479	-0.084224171936512	0.245210662484169	-0.01139107532799244	-0.05461876094341278	-0.20342124998569489	0.20280353724956512	-0.3998384475708008	0.16799820959568024	-0.23388011753559113	0.4190920293331146	0.00706468103453517	-0.13916245102882385	-0.27618780732154846	0.08276079595088959	0.5884016752243042	0.09082954376935959	0.008359764702618122	1.204840064048767	-0.018786445260047913	0.4199516773223877	0.15510006248950958	-0.04243271425366402	0.1887042075395584	-0.10151783376932144	-0.4819307029247284	-0.3245355784893036	-0.4427882432937622	0.19485902786254883	-0.05766553059220314	0.029950197786092758	0.7085274457931519	-0.017662758007645607	-0.24770629405975342	0.1469031274318695	-0.07487446814775467	0.29678747057914734	-0.10660472512245178	-0.13983118534088135	0.20688581466674805	-0.20227833092212677	-0.684360146522522	-0.38326936960220337	0.13801591098308563	0.8056294918060303	-0.5114730000495911	-0.08077127486467361
PMC7081990	0.26188579201698303	0.18318404257297516	-0.4786374866962433	0.10749968141317368	-0.2076776623725891	-0.31871655583381653	0.09241040796041489	0.287030965089798	0.5624604821205139	-0.3653763234615326	-0.7090974450111389	-0.4327890872955322	-0.12502077221870422	-0.06610406190156937	0.015851229429244995	0.24844573438167572	-0.5222651362419128	-0.05329741910099983	-0.26148784160614014	-0.5077224373817444	-0.17253416776657104	-0.027052341029047966	0.27871546149253845	0.008059930056333542	0.48651620745658875	0.016043050214648247	-0.7835518717765808	-0.2702462673187256	-0.6383480429649353	0.12835116684436798	-0.03148278966546059	0.35033348202705383	-0.07029064744710922	0.22498637437820435	0.18586504459381104	0.10220349580049515	-0.40651822090148926	0.3436533808708191	0.7515456080436707	0.2896048128604889	0.1457742303609848	0.4058547019958496	0.07795164734125137	0.08140265941619873	-0.22026269137859344	-0.3096252977848053	-0.23719680309295654	-0.40910181403160095	0.13282056152820587	0.5641619563102722	0.14855095744132996	-0.14883215725421906	-0.026159614324569702	-0.4520358741283417	0.057364147156476974	0.41637641191482544	0.008012511767446995	-0.2893328368663788	0.4811182916164398	0.19539235532283783	-0.039434924721717834	-0.236233189702034	-0.12796153128147125	-0.6127005815505981	-0.5552313327789307	-0.22707192599773407	0.06737923622131348	0.38637757301330566	-0.15505844354629517	0.10863227397203445	-0.48834481835365295	0.06297021359205246	-0.23455609381198883	-0.8979156613349915	-0.17924298346042633	-0.15623484551906586	-0.07708844542503357	0.16955718398094177	0.5604117512702942	-0.12063015252351761	-0.4417431354522705	0.2505802512168884	0.39174532890319824	-0.5628684163093567	-0.38937047123908997	0.4668363034725189	0.024718396365642548	0.7041730880737305	-0.003176875878125429	-0.005720951594412327	-0.12513473629951477	-0.24563069641590118	0.004080397542566061	-0.324040949344635	0.08709006756544113	-0.0561758428812027	0.14255689084529877	0.04645930603146553	0.44669482111930847	-0.021626006811857224	-0.48725101351737976	0.4920066297054291	-0.11132046580314636	-0.30283841490745544	0.14101631939411163	-0.806200385093689	0.023952731862664223	0.3915819823741913	-0.5715776085853577	0.7753028273582458	0.9284846186637878	0.10593856871128082	0.40534162521362305	-0.006871612276881933	0.10919534415006638	-0.11303743720054626	0.05522095039486885	-0.40727344155311584	0.07843735069036484	0.10015782713890076	0.05984583869576454	-0.5871478319168091	-0.126768097281456	0.45693445205688477	-0.19017653167247772	-0.4787825047969818	0.034241799265146255	0.33910369873046875	-0.02592553198337555	0.39255261421203613	0.14437542855739594	-0.2347494661808014	-0.34225764870643616	0.12503962218761444	-0.5327646732330322	-0.28321918845176697	0.05641341581940651	-0.8932270407676697	-0.3750307857990265	-0.4892822504043579	1.195824384689331	-0.6822921633720398	-0.6687711477279663	0.05305857211351395	0.24171163141727448	0.2299208790063858	-0.48145702481269836	0.4094073474407196	-0.29798707365989685	-0.5923237800598145	-0.6239104866981506	0.2700439393520355	-0.2584567368030548	0.5255546569824219	-0.3147730529308319	-0.5450699329376221	-0.780043363571167	0.13017338514328003	0.12127649039030075	0.3473288118839264	0.12145999819040298	0.47682690620422363	0.08509139716625214	-0.46219322085380554	-0.3529414236545563	0.06055906042456627	-0.021844934672117233	0.12244555354118347	-0.018396951258182526	0.3924693465232849	-0.10717420279979706	0.11718427389860153	-0.19640883803367615	0.22859343886375427	0.0631500631570816	-0.08150050789117813	-0.47846513986587524	0.943189263343811	-0.3098823130130768	-0.14449268579483032	0.1962146908044815	-0.01622125133872032	0.60491544008255	-0.434786319732666	0.23314140737056732	0.4594958424568176	0.2529905140399933	0.15487387776374817	0.3793848752975464	-0.06743587553501129	0.5103661417961121	-0.35995158553123474	-0.08110249787569046	0.24081529676914215	0.030257806181907654	-0.12669165432453156	0.19568981230258942	-0.06248345598578453	0.489391952753067	-0.1785232424736023	0.019618544727563858	0.27739307284355164	-0.06319824606180191	-0.17502053081989288	0.4833759069442749	-0.11078263819217682	-0.46446719765663147	0.023160960525274277	0.8345125317573547	0.4050443768501282	0.14273497462272644	-0.12540169060230255	0.5126342177391052	-0.5099976658821106	-0.167318195104599	-0.4645725190639496	-0.6613678932189941	-0.1173468753695488	0.022524351254105568	-0.15707215666770935	0.23564009368419647	-0.5376898646354675	0.029972685500979424	-0.23275227844715118	-0.3786300718784332	0.03589140996336937	-0.4886583089828491	-0.15455280244350433	-0.08499699085950851	0.1789095252752304	-0.7880329489707947	0.42223337292671204	-0.3112407326698303	-0.7444320321083069	0.32183390855789185	0.19675491750240326	-0.5370913147926331	-0.5604751706123352	0.3997862935066223	-0.06922172755002975	-0.8136598467826843	0.11291685700416565	-0.33093297481536865	-0.13130426406860352	0.15729717910289764	-0.39816606044769287	0.8131539821624756	0.5773507356643677	-0.10074839740991592	-0.028260786086320877	-0.1590389758348465	0.4423976540565491	0.3502556085586548	0.6565771698951721	0.09450092911720276	0.3752518594264984	-0.41681358218193054	0.14195799827575684	-0.388424277305603	0.24885155260562897	-0.42466744780540466	-0.1794305294752121	-0.40604373812675476	0.14651602506637573	-0.41961538791656494	0.5724399089813232	-0.37174347043037415	-0.21312172710895538	0.381012499332428	-0.6709401607513428	-0.019668331369757652	1.0243409872055054	0.3729082942008972	0.6266161203384399	0.4361642599105835	0.33657747507095337	-0.010472210124135017	0.27219706773757935	0.04054964706301689	-0.40206781029701233	-0.48587483167648315	0.22001399099826813	0.0044503407552838326	0.46987488865852356	0.6031439900398254	-0.16464366018772125	-0.6793015003204346	0.11119654029607773	-0.32962724566459656	0.29859888553619385	0.2562198042869568	0.43669167160987854	0.13531342148780823	-0.3541235029697418	-0.6565707921981812	0.030255736783146858	0.17003105580806732	0.020953258499503136	-0.46301835775375366	0.4524458646774292
PMC7141627	-0.04050314798951149	0.21291854977607727	-0.30620625615119934	-0.051604777574539185	-0.3311477303504944	-0.27824121713638306	-0.049871284514665604	0.2955425977706909	0.3817756772041321	-0.49545636773109436	-0.5978707075119019	-0.8346920013427734	0.11514600366353989	-0.42325958609580994	-0.21940436959266663	-0.10996691137552261	0.39954298734664917	-0.26086658239364624	-0.0713372752070427	0.03638775274157524	-0.0450848750770092	-0.05744337663054466	0.2744597792625427	0.4457116425037384	0.5255863666534424	-0.1878424882888794	-0.3764847218990326	-0.21435320377349854	-0.7380930185317993	-0.2470010668039322	0.07337222993373871	-0.24992437660694122	-0.30890944600105286	0.17195148766040802	-0.1342364251613617	0.16258466243743896	-0.5131803750991821	0.17718163132667542	1.025210976600647	-0.1743393838405609	0.225106343626976	0.3387295603752136	0.04253203794360161	-0.18464601039886475	0.06025715172290802	0.10000777244567871	-0.025629529729485512	-0.0592740960419178	0.4776711165904999	0.5336199998855591	0.32400739192962646	-0.2478146255016327	-0.04581344872713089	-0.539614200592041	-0.10925094038248062	0.4916165769100189	-0.21995779871940613	-0.17218297719955444	0.7214612364768982	0.12241917848587036	-0.02688300423324108	-0.37346670031547546	0.13975904881954193	-0.3473832309246063	-0.6800287365913391	-0.6229203343391418	0.1139606311917305	0.3544294536113739	0.11421450227499008	0.3117991089820862	-0.32121527194976807	0.26291245222091675	-0.4958363473415375	-0.5284955501556396	-0.004793472122400999	-0.09076228737831116	-0.2053220421075821	0.6091853976249695	0.016302859410643578	-0.05483436957001686	-0.2051873505115509	-0.13969095051288605	-0.01078431773930788	-0.4276754558086395	-0.24598704278469086	0.42828649282455444	-0.07529368251562119	0.9894839525222778	0.41217541694641113	-0.45294132828712463	-0.015046406537294388	-0.019001686945557594	0.33423909544944763	-0.3869768977165222	-0.1340414434671402	-0.13317789137363434	0.15083128213882446	-0.04170355200767517	0.3085135817527771	0.05263010039925575	-0.40801408886909485	0.10285358130931854	-0.5572534799575806	-0.5293378233909607	0.03323708102107048	-0.8825849890708923	0.20720399916172028	0.634475588798523	-0.2611182630062103	1.007989525794983	1.0117919445037842	-0.17731760442256927	0.4275664687156677	0.10375761240720749	0.43113940954208374	0.33072444796562195	-0.10655982792377472	-0.04858811944723129	-0.142243430018425	-0.42264071106910706	0.5396032333374023	0.006359441205859184	0.35984480381011963	0.6875231266021729	-0.5379906296730042	0.14372098445892334	-0.04343369975686073	0.17835767567157745	0.2725566327571869	0.31111031770706177	0.18124660849571228	0.08950037509202957	0.006658610422164202	0.16130132973194122	-0.747913658618927	-0.0908144935965538	-0.7171928286552429	-0.37519997358322144	-0.542489230632782	0.03967997804284096	1.310957431793213	-0.18489092588424683	-0.4175211191177368	0.1773742288351059	0.07141570001840591	-0.11830873787403107	-0.0547223724424839	0.20638296008110046	-0.09537056088447571	-0.7425780296325684	-0.6762018203735352	0.40022212266921997	-0.2812406122684479	-0.06889460980892181	-0.4307202398777008	0.0012658183695748448	0.003331793937832117	0.37131112813949585	-0.36158841848373413	0.5130820274353027	0.14817634224891663	0.597832977771759	0.12364654988050461	-0.6042097210884094	-0.42873772978782654	-0.23673705756664276	0.25269827246665955	0.5136747360229492	0.07638591527938843	0.42053717374801636	0.35770735144615173	-0.05407535284757614	0.010812674649059772	-0.303043395280838	0.15616875886917114	0.1030130386352539	0.4205932021141052	0.9932810664176941	-0.36662670969963074	0.1256566047668457	0.5501133799552917	-0.30738717317581177	0.8387483358383179	-0.28745073080062866	0.202994242310524	0.6054644584655762	0.1381075382232666	-0.15670688450336456	0.25433245301246643	0.0027678280603140593	0.14854738116264343	-0.5193383097648621	-0.06459234654903412	0.2949565351009369	0.17993874847888947	-0.8280496001243591	-0.049168284982442856	0.2420651763677597	0.49075961112976074	-0.148030087351799	0.11213292181491852	-0.09020822495222092	0.09503328055143356	-0.18235915899276733	0.7188416123390198	-0.1516483873128891	-0.24411869049072266	-0.16029885411262512	0.5185633301734924	0.6449158787727356	0.32103192806243896	0.03425423428416252	0.3309645354747772	-0.497348427772522	0.17656759917736053	-0.09395430982112885	-0.5565033555030823	0.2347651571035385	0.0960860550403595	-0.26937776803970337	0.04469161480665207	-0.7700400948524475	-0.08548799902200699	-0.2501160800457001	-0.48601964116096497	-0.10038542002439499	-0.3894058167934418	-0.16366054117679596	0.1375686526298523	-0.04774444177746773	-0.7867442965507507	0.06358353048563004	0.17619343101978302	-0.6130497455596924	0.20288249850273132	0.028739582747220993	-0.5865866541862488	-0.7146673202514648	0.7143141031265259	-0.3405567407608032	-0.762099027633667	-0.7063130736351013	-0.4466540813446045	-0.21015679836273193	-0.2551741898059845	-0.12360335141420364	0.8345864415168762	0.29528483748435974	0.17933841049671173	0.19166496396064758	-0.1338026523590088	0.3991977274417877	-0.13570068776607513	0.956505537033081	0.3162998557090759	0.37204596400260925	-0.3435412049293518	-0.11269273608922958	-0.0840848833322525	0.15998998284339905	-0.2370004504919052	-0.0517876110970974	-0.017037373036146164	0.39079558849334717	-0.3383440673351288	0.7177258729934692	-0.13749928772449493	-0.11204330623149872	0.600034236907959	-0.08979982882738113	0.011459111236035824	1.0145535469055176	0.33646008372306824	0.3025858700275421	-0.059161242097616196	-0.1539604514837265	0.24913161993026733	-0.022176019847393036	-0.1926654428243637	-0.1365043669939041	-0.6010289788246155	0.228854238986969	-0.0003314828791189939	0.3474319577217102	0.6984068751335144	-0.21125328540802002	-0.01708354242146015	0.004948060028254986	0.12676379084587097	0.5399359464645386	0.17268887162208557	0.055568628013134	-0.009751892648637295	-0.19988037645816803	-0.4579155147075653	-0.1930304914712906	0.20452632009983063	0.5622038841247559	-0.2533667981624603	0.3138606548309326
PMC7062901	-0.058486804366111755	0.1921757459640503	-0.6483114361763	0.1546720564365387	-0.01322939246892929	-0.18970777094364166	-0.05330589786171913	0.3280619978904724	0.31027036905288696	-0.4026249647140503	-0.756209135055542	-0.6995398998260498	0.1760989874601364	-0.5088203549385071	-0.17931562662124634	-0.06976071745157242	0.45857712626457214	0.01372950617223978	-0.29681187868118286	0.11611483991146088	-0.26289597153663635	-0.06229211017489433	0.4999942481517792	0.5136114954948425	0.7901836633682251	-0.40335357189178467	-0.5998244881629944	-0.061420269310474396	-0.6552500128746033	0.021268391981720924	0.02846384048461914	-0.19021214544773102	-0.6444178223609924	0.5824349522590637	-0.2916750907897949	-0.21482332050800323	-0.2042798548936844	0.23479849100112915	1.040161371231079	-0.21340475976467133	0.5016868114471436	0.37537750601768494	0.0798540860414505	-0.41119688749313354	-0.09460338950157166	-0.17232784628868103	-0.1115436851978302	-0.21568897366523743	0.27139970660209656	0.41660913825035095	0.15561780333518982	-0.4858214259147644	0.0804995521903038	-0.600506603717804	-0.11741425096988678	1.1065561771392822	0.06587114185094833	-0.2219778299331665	0.9473143219947815	0.16880086064338684	-0.03047936037182808	-0.5290218591690063	0.30376923084259033	-0.670543909072876	-0.7164533734321594	-0.5997940897941589	-0.011009998619556427	0.5775086283683777	0.17934846878051758	0.39487212896347046	-0.43575817346572876	0.37805429100990295	-0.3340529203414917	-0.35194411873817444	0.1386428326368332	0.0920240506529808	0.027613535523414612	0.5523884892463684	-0.2688945233821869	-0.31957340240478516	-0.16032163798809052	0.015210788697004318	-0.12775452435016632	-0.687971293926239	-0.027771687135100365	0.23309265077114105	0.005938216112554073	1.1306898593902588	0.25012895464897156	-0.42539170384407043	0.0836024209856987	0.28047555685043335	0.6326515078544617	-0.29906001687049866	-0.18451666831970215	-0.15900658071041107	-0.25785815715789795	0.2451680302619934	0.3017802834510803	-0.036509931087493896	-0.4899044334888458	-0.15083616971969604	0.03714197129011154	-0.5615362524986267	0.04533502832055092	-1.069371223449707	0.29455915093421936	0.5716586709022522	-0.27996382117271423	1.2616868019104004	0.697504460811615	-0.11604392528533936	0.38288941979408264	0.12403292208909988	0.5396727323532104	0.1623692661523819	-0.22688855230808258	-0.09181082993745804	0.1353089064359665	-0.2096688598394394	0.6128076314926147	-0.1015460267663002	-0.08109341561794281	1.0778366327285767	-0.2683282494544983	0.046684421598911285	0.12484995275735855	0.3988604247570038	0.034956298768520355	0.05178171768784523	-0.20997899770736694	-0.1012636348605156	-0.037051789462566376	0.5156512260437012	-0.7353782057762146	-0.2868623733520508	-0.35351139307022095	-0.41423138976097107	-0.8404781222343445	-0.1703043282032013	1.4675102233886719	-0.3455086350440979	-0.8235012292861938	0.13728107511997223	-0.02280249260365963	-0.2251226156949997	-0.05367182940244675	0.17036616802215576	-0.3656579852104187	-0.45772838592529297	-0.4561866223812103	0.7055460214614868	-0.08894617855548859	0.11222891509532928	-0.32853373885154724	-0.1238398626446724	-0.5400440096855164	0.5952714681625366	-0.33938997983932495	0.6940556764602661	0.44045284390449524	0.26665282249450684	0.28951364755630493	-0.8484411835670471	-0.7197508215904236	-0.416437029838562	0.09936382621526718	0.5009682774543762	0.18270757794380188	0.8882281184196472	0.30433499813079834	0.2980879545211792	-0.0428631417453289	-0.17636165022850037	0.18968705832958221	0.14854806661605835	0.3913505971431732	0.670719563961029	-0.21797074377536774	0.297517329454422	0.5092878937721252	0.003670095233246684	0.8372449278831482	-0.7422969341278076	0.4125133454799652	0.6918764710426331	0.2887488305568695	-0.43616679310798645	-0.034537483006715775	0.11563350260257721	0.16541528701782227	-0.514333188533783	0.026583343744277954	0.16530922055244446	0.2536331117153168	-0.41155359148979187	0.17780980467796326	0.20066799223423004	0.5425915122032166	-0.2313789427280426	-0.041683945804834366	0.1746460497379303	0.20550517737865448	-0.23743034899234772	0.7997444272041321	-0.08189716190099716	-0.2458246350288391	-0.042202796787023544	0.5446207523345947	0.6392732262611389	0.10209712386131287	-0.2665906846523285	0.2955862283706665	-0.6469748020172119	0.434741348028183	-0.11496789008378983	-0.18305474519729614	-0.09872651100158691	-0.11872565001249313	-0.05083421990275383	0.1237262710928917	-0.5255571603775024	-0.14633981883525848	-0.5849349498748779	-0.4534321427345276	-0.3559612035751343	-0.3174471855163574	-0.10164634138345718	0.42880719900131226	0.11876992136240005	-0.8532059192657471	-0.12801164388656616	0.0912158414721489	-0.13519109785556793	0.32023003697395325	-0.12206681072711945	-0.5677395462989807	-0.35807186365127563	0.5671176314353943	-0.3271735608577728	-0.603688657283783	-0.7620167136192322	-0.7044990658760071	-0.5309502482414246	-0.24790696799755096	-0.07500757277011871	0.9140143394470215	0.430766224861145	0.3523397147655487	0.33781805634498596	-0.09083205461502075	0.3010519742965698	-0.36286765336990356	0.8347874879837036	0.4271407425403595	0.18398047983646393	-0.3757001459598541	0.08190697431564331	-0.4627671241760254	0.3760378658771515	-0.318863183259964	0.16987138986587524	-0.3009609580039978	0.34065020084381104	-0.20988425612449646	0.5937573909759521	-0.4405648410320282	0.10834990441799164	0.6770681738853455	0.07830023765563965	-0.2122953236103058	1.4732962846755981	0.055423278361558914	0.22020725905895233	0.132308691740036	-0.4268992841243744	-0.05246512591838837	0.1411149650812149	-0.022151466459035873	-0.1714402586221695	-0.6575132608413696	0.15373443067073822	-0.15839719772338867	0.3812630772590637	0.7025607228279114	-0.15762388706207275	-0.2670343518257141	0.03755737468600273	-0.10897813737392426	0.39274904131889343	0.3497953712940216	0.19236642122268677	0.10526326298713684	-0.09138049185276031	-0.6807162761688232	-0.5035114288330078	-0.08976273983716965	0.570673406124115	-0.42597219347953796	0.25805726647377014
PMC6985126	0.23464451730251312	0.013821685686707497	-0.3423764705657959	-0.008203714154660702	-0.48918771743774414	-0.3796922266483307	0.02521318942308426	0.29141661524772644	0.5154062509536743	-0.3171024024486542	-0.452215313911438	-0.3886672854423523	0.156972736120224	-0.19472767412662506	-0.18026700615882874	0.03989999368786812	0.3814534842967987	-0.16210785508155823	0.08801580965518951	-0.057983752340078354	0.047849468886852264	-0.22717157006263733	0.3679054081439972	0.3959961533546448	0.5829134583473206	0.05900312215089798	-0.5155020356178284	-0.14833222329616547	-0.4287254810333252	-0.27319467067718506	-0.16911211609840393	-0.19441746175289154	-0.07191221415996552	0.08380413055419922	-0.0073456005193293095	-0.0749717503786087	-0.6381239891052246	0.2943956255912781	0.9772663116455078	-0.47037309408187866	0.19053000211715698	0.60800701379776	-0.05687044933438301	-0.06310507655143738	0.017823707312345505	0.10828404873609543	0.034973666071891785	-0.02987510710954666	0.3340313136577606	0.3083495497703552	0.19382180273532867	-0.16725006699562073	-0.14839988946914673	-0.5093603134155273	0.021155687049031258	0.6205609440803528	-0.24445679783821106	-0.13235698640346527	0.8392873406410217	0.079100601375103	-0.18335609138011932	-0.11713925749063492	0.0611850768327713	-0.4782850742340088	-0.5896441340446472	-0.30466461181640625	-0.06339104473590851	0.3536916673183441	0.09407294541597366	0.2949264347553253	-0.3935907185077667	0.334121435880661	-0.35972654819488525	-0.39293813705444336	0.06498803198337555	0.09411963075399399	-0.08632952719926834	0.37461769580841064	0.07055675983428955	-0.02405512146651745	0.03236529231071472	-0.07513061165809631	0.24643158912658691	-0.614167332649231	-0.2665681838989258	0.3663806915283203	-0.3739035725593567	0.9452621340751648	0.17693953216075897	-0.3584517240524292	-0.06431958079338074	-0.05332410708069801	0.1350947618484497	-0.21097269654273987	-0.019181840121746063	-0.26586994528770447	0.06996896117925644	-0.07213909178972244	-0.0023953691124916077	-0.1705101877450943	-0.27506667375564575	0.1695294976234436	-0.45730364322662354	-0.4346715211868286	0.20496833324432373	-1.0805866718292236	0.05612613260746002	0.6903814077377319	-0.051097847521305084	0.8576405644416809	0.8573045134544373	0.1199844479560852	0.3978903591632843	0.42229944467544556	0.5567067861557007	0.47087880969047546	0.2247675359249115	-0.05453500151634216	-0.04643576219677925	-0.30769580602645874	0.5252277851104736	0.07512687146663666	0.14880751073360443	0.5084508061408997	-0.2425011545419693	0.3333105146884918	0.07272418588399887	0.09682381898164749	0.12629187107086182	0.3213422894477844	0.05795177444815636	0.032864417880773544	-0.12183767557144165	0.026313509792089462	-0.6602818965911865	-0.17086225748062134	-0.5867576599121094	-0.6783052682876587	-0.7517753839492798	-0.05521516129374504	1.1512670516967773	-0.35245469212532043	-0.5432167053222656	0.22053773701190948	0.28012630343437195	-0.10335120558738708	-0.1593238115310669	0.2327495962381363	-0.008898361586034298	-0.9651184678077698	-0.5123113989830017	0.44414547085762024	-0.21265527606010437	0.05696924775838852	-0.42064377665519714	0.08282721787691116	-0.1288674920797348	0.5054399967193604	-0.2523094415664673	0.2544172406196594	0.08313488215208054	0.5656959414482117	0.261236310005188	-0.5988104343414307	-0.6426259279251099	-0.18757465481758118	0.04147873446345329	0.5165880918502808	-0.15904444456100464	0.6100738048553467	0.33931252360343933	0.011969838291406631	-0.1757303923368454	-0.09106210619211197	0.09311464428901672	0.3629598617553711	0.14208874106407166	1.0420589447021484	-0.2653844356536865	0.09727461636066437	0.4578547775745392	-0.33932337164878845	0.9251667261123657	-0.22659064829349518	0.06632846593856812	0.5015339255332947	0.14705324172973633	-0.09678647667169571	0.016072489321231842	-0.21015630662441254	0.4326726496219635	-0.40820416808128357	-0.21483488380908966	0.2950352430343628	0.07927869260311127	-0.6245824098587036	0.24181807041168213	0.40097159147262573	0.2548990547657013	-0.27813297510147095	0.06806594878435135	0.024443691596388817	0.14237603545188904	0.06500290334224701	0.7583977580070496	-0.00047244952293112874	-0.29531630873680115	-0.1286095678806305	0.4710467755794525	0.618829607963562	0.33636218309402466	-0.10617540031671524	0.29793375730514526	-0.4627290666103363	-0.09839384257793427	0.07057543098926544	-0.4777447283267975	0.2854413688182831	0.0025375145487487316	-0.3568754196166992	0.18919065594673157	-0.9540137648582458	-0.08785074949264526	-0.33535295724868774	-0.3794017434120178	-0.08102194964885712	-0.45183828473091125	-0.35950571298599243	-0.0015851077623665333	0.06284765154123306	-0.8798251152038574	0.24009497463703156	-0.09296713024377823	-0.6467629075050354	0.20267599821090698	-0.00397058529779315	-0.7303996682167053	-0.4462777376174927	0.5553289651870728	-0.053904514759778976	-0.7685784697532654	-0.6415438055992126	-0.473484605550766	-0.25681406259536743	-0.1365375816822052	-0.03786530718207359	0.862676739692688	0.13531775772571564	0.18464906513690948	0.2894837558269501	-0.161904975771904	0.13943886756896973	-0.054494425654411316	0.9212374687194824	0.3563968241214752	0.472981333732605	-0.3176446259021759	0.024736402556300163	-0.09412438422441483	0.5229867696762085	-0.45180001854896545	-0.06476033478975296	-0.11462370306253433	0.0560297966003418	-0.46396639943122864	0.44713491201400757	-0.3238329589366913	-0.09762462973594666	0.4508288502693176	-0.29089370369911194	-0.01728859357535839	1.1486276388168335	0.09952617436647415	0.4322081208229065	-0.127021923661232	-0.5879801511764526	0.23426896333694458	0.010130011476576328	-0.20107996463775635	-0.05246003344655037	-0.53183513879776	0.42131635546684265	-0.20424261689186096	0.47195467352867126	0.8031740188598633	-0.10899104177951813	-0.2724880874156952	0.10589861124753952	0.16216272115707397	0.5832148194313049	0.2879810035228729	-0.08005846291780472	0.17610715329647064	-0.3210360109806061	-0.3118794560432434	-0.18779505789279938	0.1982097029685974	0.2895471453666687	-0.5463013052940369	0.3996400237083435
PMC7104723	0.07173329591751099	0.0929548367857933	-0.702769935131073	-0.0986408144235611	-0.030686266720294952	-0.4401332139968872	-0.23535597324371338	0.17668968439102173	0.3962072432041168	-0.22833923995494843	-0.44489744305610657	-0.5207085013389587	0.14358876645565033	0.09532234817743301	-0.5248172283172607	0.2223365306854248	0.2934616506099701	0.09695016592741013	-0.39676806330680847	-0.29247790575027466	0.0534927137196064	-0.09331892430782318	0.18156027793884277	0.4287196397781372	0.7989336252212524	-0.05793825536966324	-0.4933687448501587	-0.22967609763145447	-0.6348064541816711	-0.12739454209804535	0.08376210182905197	-0.03745677322149277	0.028073858469724655	-0.029352113604545593	-0.02370518073439598	0.0363498330116272	-0.5020334720611572	0.1912078708410263	0.2386702597141266	-0.10219717025756836	0.08759058266878128	0.6620035767555237	0.13904163241386414	0.04480661079287529	-0.13956302404403687	0.017183972522616386	-0.33996957540512085	-0.4267800450325012	0.14009633660316467	0.29945480823516846	0.2100783735513687	-0.03619746118783951	0.03442928567528725	-0.3949190378189087	-0.11176237463951111	0.1852034032344818	-0.05292487144470215	-0.06277504563331604	0.4970305263996124	0.3739141821861267	0.11174861341714859	-0.3094724118709564	-0.05618073418736458	-0.442178875207901	-0.25569844245910645	-0.3171229660511017	-0.10974173992872238	0.140578031539917	0.1152413859963417	0.5084740519523621	-0.6375566720962524	0.3446899950504303	-0.4376826286315918	-0.5289056897163391	0.15869075059890747	-0.09251613169908524	-0.6029563546180725	0.25930118560791016	0.18060974776744843	-0.08351940661668777	-0.4946693480014801	-0.010731568560004234	0.2650403082370758	-0.5939013957977295	-0.09050443023443222	0.45012167096138	-0.020586233586072922	0.71180260181427	0.21625293791294098	-0.18470562994480133	-0.18384689092636108	0.0701638013124466	0.09610770642757416	-0.41844239830970764	-0.15630684792995453	0.01303332019597292	-0.05663065239787102	0.038168977946043015	0.3365060091018677	0.1531914323568344	-0.020152674987912178	0.12348785996437073	-0.4746476411819458	-0.17611579596996307	-0.03363952413201332	-0.6445944905281067	0.018711082637310028	0.46983805298805237	0.056817952543497086	0.47885623574256897	1.1298853158950806	-0.08194434642791748	0.11669512838125229	0.17460617423057556	0.346937894821167	0.1002957820892334	0.13179482519626617	0.06328307092189789	-0.1392585188150406	-0.3970860540866852	0.3587920665740967	-0.1719261258840561	-0.13622206449508667	0.6330373287200928	-0.256123423576355	0.07534246891736984	-0.17391884326934814	0.3253670036792755	-0.06336817890405655	-0.2567082941532135	0.07473520934581757	-0.1275063008069992	-0.11212677508592606	0.16305215656757355	-0.6255463361740112	-0.12603799998760223	-0.31450292468070984	-0.4407278001308441	-0.5043137669563293	-0.0801975429058075	1.19804048538208	-0.21523797512054443	-0.6013623476028442	-0.1072559505701065	0.11922204494476318	0.3404352068901062	-0.7190007567405701	0.25823333859443665	0.10365111380815506	-0.7337441444396973	-0.6076096892356873	0.006772286724299192	-0.4911561906337738	0.27150288224220276	-0.20887111127376556	-0.3373769521713257	-0.5314494967460632	0.34018561244010925	-0.19845972955226898	0.09338054805994034	0.07646438479423523	0.6207454204559326	0.42937684059143066	-0.556239128112793	-0.5179709792137146	-0.06543953716754913	0.18309980630874634	0.4639250338077545	-0.15664030611515045	0.09571366757154465	0.2218581885099411	-0.016303012147545815	0.44465330243110657	0.017807532101869583	0.07504846155643463	0.15197958052158356	-0.21222898364067078	0.8554300665855408	-0.30203932523727417	0.30389097332954407	0.44223886728286743	-0.09656030684709549	0.3061416447162628	-0.23730970919132233	-0.19549338519573212	0.4308910369873047	0.23514176905155182	-0.06767836213111877	0.21542847156524658	-0.25653210282325745	0.1176241859793663	-0.506881058216095	-0.2598505914211273	0.0637427419424057	0.25466641783714294	-0.43583303689956665	0.561719536781311	0.21218913793563843	0.4523914158344269	-0.3841622471809387	-0.263107031583786	-0.07207497954368591	0.10311003029346466	-0.05317050591111183	0.3213144540786743	0.15277503430843353	-0.46015068888664246	0.12619000673294067	0.6998060345649719	0.32015642523765564	0.3947802782058716	0.1057492271065712	0.17633816599845886	-0.3450779616832733	-0.2080797404050827	-0.33696743845939636	-0.221735417842865	0.353854238986969	-0.07161352038383484	-0.12509697675704956	0.09656565636396408	-0.7239735126495361	-0.12835803627967834	-0.17380264401435852	-0.345599889755249	0.010726178996264935	-0.4257006049156189	-0.3287678360939026	-0.14155001938343048	0.3438222408294678	-0.9967201352119446	0.27479538321495056	-0.0703565925359726	-0.4481115937232971	0.06672772020101547	-0.2921386659145355	-0.8315582275390625	-0.47055232524871826	0.748481810092926	-0.06550376862287521	-0.5693608522415161	-0.461137980222702	-0.33544114232063293	0.035004034638404846	-0.406104177236557	-0.3473430871963501	1.239763617515564	0.5214654803276062	-0.006317265331745148	0.5145494341850281	0.0019163921242579818	0.15878939628601074	0.06797094643115997	0.8418221473693848	0.27069413661956787	0.3887439966201782	-0.2223334163427353	0.09586682170629501	-0.5215686559677124	-0.08154654502868652	-0.30714020133018494	-0.01261892355978489	-0.284120112657547	0.40344735980033875	0.1859530210494995	0.5807175040245056	0.08938789367675781	-0.1678118109703064	0.09277579188346863	-0.2399379312992096	-0.05752064287662506	1.3118693828582764	0.49701201915740967	0.5927567481994629	0.15665379166603088	-0.2800920009613037	0.3087068200111389	-0.13126857578754425	-0.2531583905220032	-0.02609317936003208	-0.5008200407028198	0.19326576590538025	-0.007151459809392691	0.16073819994926453	0.524086594581604	-0.27246546745300293	-0.12236183881759644	0.07824686914682388	-0.20687712728977203	0.4133821427822113	0.33222442865371704	0.04931032657623291	0.11884473264217377	-0.08178338408470154	-0.6698647141456604	0.08331916481256485	0.3310500383377075	0.43046772480010986	-0.7051745057106018	0.6988574862480164
