document	feat_0	feat_1	feat_2	feat_3	feat_4	feat_5	feat_6	feat_7	feat_8	feat_9	feat_10	feat_11	feat_12	feat_13	feat_14	feat_15	feat_16	feat_17	feat_18	feat_19	feat_20	feat_21	feat_22	feat_23	feat_24	feat_25	feat_26	feat_27	feat_28	feat_29	feat_30	feat_31	feat_32	feat_33	feat_34	feat_35	feat_36	feat_37	feat_38	feat_39	feat_40	feat_41	feat_42	feat_43	feat_44	feat_45	feat_46	feat_47	feat_48	feat_49	feat_50	feat_51	feat_52	feat_53	feat_54	feat_55	feat_56	feat_57	feat_58	feat_59	feat_60	feat_61	feat_62	feat_63	feat_64	feat_65	feat_66	feat_67	feat_68	feat_69	feat_70	feat_71	feat_72	feat_73	feat_74	feat_75	feat_76	feat_77	feat_78	feat_79	feat_80	feat_81	feat_82	feat_83	feat_84	feat_85	feat_86	feat_87	feat_88	feat_89	feat_90	feat_91	feat_92	feat_93	feat_94	feat_95	feat_96	feat_97	feat_98	feat_99	feat_100	feat_101	feat_102	feat_103	feat_104	feat_105	feat_106	feat_107	feat_108	feat_109	feat_110	feat_111	feat_112	feat_113	feat_114	feat_115	feat_116	feat_117	feat_118	feat_119	feat_120	feat_121	feat_122	feat_123	feat_124	feat_125	feat_126	feat_127	feat_128	feat_129	feat_130	feat_131	feat_132	feat_133	feat_134	feat_135	feat_136	feat_137	feat_138	feat_139	feat_140	feat_141	feat_142	feat_143	feat_144	feat_145	feat_146	feat_147	feat_148	feat_149	feat_150	feat_151	feat_152	feat_153	feat_154	feat_155	feat_156	feat_157	feat_158	feat_159	feat_160	feat_161	feat_162	feat_163	feat_164	feat_165	feat_166	feat_167	feat_168	feat_169	feat_170	feat_171	feat_172	feat_173	feat_174	feat_175	feat_176	feat_177	feat_178	feat_179	feat_180	feat_181	feat_182	feat_183	feat_184	feat_185	feat_186	feat_187	feat_188	feat_189	feat_190	feat_191	feat_192	feat_193	feat_194	feat_195	feat_196	feat_197	feat_198	feat_199	feat_200	feat_201	feat_202	feat_203	feat_204	feat_205	feat_206	feat_207	feat_208	feat_209	feat_210	feat_211	feat_212	feat_213	feat_214	feat_215	feat_216	feat_217	feat_218	feat_219	feat_220	feat_221	feat_222	feat_223	feat_224	feat_225	feat_226	feat_227	feat_228	feat_229	feat_230	feat_231	feat_232	feat_233	feat_234	feat_235	feat_236	feat_237	feat_238	feat_239	feat_240	feat_241	feat_242	feat_243	feat_244	feat_245	feat_246	feat_247	feat_248	feat_249	feat_250	feat_251	feat_252	feat_253	feat_254	feat_255	feat_256	feat_257	feat_258	feat_259	feat_260	feat_261	feat_262	feat_263	feat_264	feat_265	feat_266	feat_267	feat_268	feat_269	feat_270	feat_271	feat_272	feat_273	feat_274	feat_275	feat_276	feat_277	feat_278	feat_279	feat_280	feat_281	feat_282	feat_283	feat_284	feat_285	feat_286	feat_287	feat_288	feat_289	feat_290	feat_291	feat_292	feat_293	feat_294	feat_295	feat_296	feat_297	feat_298	feat_299
PMC7095418	-0.19677726924419403	-0.09236911684274673	-0.3421672582626343	-0.1156265065073967	-0.30761590600013733	-0.17789532244205475	0.10336200147867203	0.42912372946739197	0.39307403564453125	-0.367384672164917	-0.2289254516363144	-0.6290910840034485	0.1954771876335144	-0.0373539924621582	-0.2014712393283844	0.18727675080299377	0.4775122106075287	0.05275518819689751	0.05598178133368492	0.09366142749786377	0.4442867636680603	-0.3057653605937958	0.09533151239156723	0.40166619420051575	0.3303126096725464	-0.008302525617182255	-0.21621178090572357	0.2544781267642975	-0.5087182521820068	-0.17261016368865967	0.30699053406715393	-0.5275808572769165	-0.24642889201641083	-0.056373026221990585	-0.14292964339256287	0.18283571302890778	-0.4361494183540344	0.16427777707576752	0.5663459897041321	-0.7337412238121033	0.28574338555336	-0.0006768893217667937	-0.08047010749578476	-0.26538121700286865	0.19687692821025848	-0.442827969789505	0.33193111419677734	-0.048009637743234634	0.11218882352113724	0.2042379081249237	0.4431714117527008	0.019181348383426666	0.1831645965576172	-0.0849481001496315	-0.28326910734176636	0.31276196241378784	-0.1242794468998909	-0.1480826586484909	0.3170238733291626	0.3183290660381317	-0.1900789588689804	0.1538582146167755	-0.4313200116157532	-0.4057771861553192	0.09279300272464752	-0.1939115822315216	-0.27216753363609314	0.018540149554610252	0.08261746913194656	0.4009702205657959	-0.47866567969322205	0.207260861992836	-0.0063944594003260136	-0.5739368200302124	0.008605959825217724	0.25098785758018494	-0.7001475691795349	0.19799388945102692	0.2157333940267563	0.20400235056877136	0.31909704208374023	-0.044208623468875885	-0.19147519767284393	-0.2135714739561081	0.3275660276412964	-0.07094112038612366	-0.021032700315117836	0.5071332454681396	-0.11064663529396057	-0.48051801323890686	-0.10162422806024551	0.05804971233010292	0.3626229166984558	-0.07061651349067688	0.25009042024612427	-0.16749224066734314	0.05235246568918228	-0.03716674819588661	0.2647480070590973	0.3067181706428528	-0.01537012867629528	-0.026278860867023468	-0.1639556884765625	-0.1495327204465866	0.10632745921611786	-0.28768500685691833	0.44144028425216675	-0.0010513676097616553	0.271891325712204	0.2843926250934601	0.415256142616272	-0.0418224111199379	0.07820235937833786	0.21732687950134277	0.16070258617401123	0.06915878504514694	-0.3310812711715698	-0.30316799879074097	0.26823100447654724	-0.8052636981010437	0.03138447552919388	-0.4399288594722748	-0.10819194465875626	0.43089720606803894	0.17967794835567474	0.21745669841766357	-0.3418671190738678	0.5575627684593201	0.0735483393073082	0.30864810943603516	0.07165178656578064	0.07821343839168549	-0.15056490898132324	-0.2253124862909317	-0.2684911787509918	-0.07003334164619446	-0.25763851404190063	-0.36187297105789185	-0.6963112950325012	0.17930108308792114	0.949005126953125	0.002534558530896902	-0.109805628657341	0.18984545767307281	-0.07684396207332611	-0.08991752564907074	-0.12490770220756531	0.09287545830011368	0.01128622516989708	-0.9676882028579712	-0.3880065381526947	0.2741709053516388	-0.09710612893104553	-0.09158497303724289	-0.07076196372509003	0.07069224119186401	-0.0479336716234684	0.5603411197662354	-0.7778854966163635	0.4365732669830322	-0.35416722297668457	0.3513779044151306	0.37770041823387146	-0.2960895895957947	-0.21504616737365723	0.04395594075322151	-0.06293109804391861	0.4259158670902252	-0.10895511507987976	0.7098988890647888	0.30369147658348083	0.20304307341575623	-0.04587262123823166	-0.09390797466039658	-0.21068063378334045	0.10164626687765121	0.21540990471839905	0.39890164136886597	-0.016185298562049866	0.2693822979927063	0.6417354345321655	0.12609444558620453	0.6810429692268372	-0.23573358356952667	-0.05617835000157356	0.23278731107711792	-0.06335942447185516	-0.20295289158821106	0.20372650027275085	0.011156785301864147	-0.12087146937847137	-0.19285015761852264	0.03192814812064171	-0.15930616855621338	0.3942468762397766	-0.0005008364678360522	0.31292951107025146	0.34290534257888794	0.043905146420001984	-0.1544787734746933	-0.45441803336143494	-0.06424496322870255	-0.1632956862449646	-0.13293102383613586	0.5318810939788818	-0.16459859907627106	-0.4940270781517029	-0.012427869252860546	0.1741631180047989	-0.22497965395450592	0.3669908344745636	0.23248779773712158	0.02585088275372982	-0.12143635004758835	-0.33611157536506653	0.22060710191726685	-0.5255136489868164	-0.04254140332341194	-0.07000710070133209	-0.002460949122905731	0.41361966729164124	-0.5453638434410095	0.10726910084486008	-0.27876991033554077	-0.3728133738040924	0.062193259596824646	-0.1547042727470398	0.1283951848745346	0.012935387901961803	-0.272858589887619	-0.5403416752815247	0.28167015314102173	-0.03670084848999977	-0.3491688668727875	-0.17014580965042114	0.08588939905166626	-0.45635783672332764	-0.2634877860546112	0.550649881362915	0.008861077018082142	-0.08571328222751617	-0.41624879837036133	-0.3608931303024292	0.16817691922187805	-0.24661706387996674	0.0575498603284359	0.7915626168251038	0.05915074795484543	0.623683750629425	0.03887111321091652	-0.3588881492614746	-0.05552468076348305	-0.25898846983909607	0.534375011920929	0.8085483312606812	0.2789456248283386	-0.030267786234617233	0.011038816533982754	-0.04887114837765694	0.3395616114139557	-0.1947382241487503	-0.3584476411342621	-0.17522762715816498	0.3556465208530426	-0.12415321171283722	0.44278764724731445	-0.11097298562526703	-0.02455935813486576	0.24527324736118317	-0.046782877296209335	0.28985998034477234	0.8840516209602356	-0.4068080186843872	0.32714858651161194	0.14520908892154694	-0.5862783193588257	-0.13156764209270477	0.13871416449546814	-0.4719924330711365	0.34563738107681274	-0.4737257659435272	0.31763532757759094	-0.0793018639087677	0.3609010875225067	0.15200954675674438	-0.26620665192604065	-0.5644127130508423	0.38380682468414307	0.10645541548728943	0.45218604803085327	0.10573025047779083	0.133122056722641	-0.21104684472084045	-0.19174757599830627	-0.6651433110237122	-0.16609477996826172	0.3686380982398987	0.20329399406909943	-0.42562854290008545	0.5403399467468262
PMC7054013	-0.24295780062675476	0.1769346445798874	-0.37953150272369385	-0.18755291402339935	0.09270872175693512	-0.1257762759923935	0.08189462870359421	0.10536465793848038	-0.08518591523170471	-0.88577800989151	-0.2737463712692261	-0.9095510840415955	0.26336556673049927	-0.7734607458114624	-0.35833343863487244	-0.001965336035937071	0.08003728091716766	0.12845681607723236	-0.14889873564243317	0.05359188839793205	-0.2829726040363312	0.17581039667129517	0.22301480174064636	0.37576866149902344	0.5919219255447388	-0.5435925722122192	-0.05298051983118057	-0.317978173494339	-0.8050202131271362	0.23763100802898407	0.12661908566951752	-0.4950229525566101	-0.14960069954395294	-0.3380145728588104	0.07937771081924438	0.2018928825855255	0.05039852485060692	0.427803635597229	0.6187509894371033	-0.26732784509658813	0.16074414551258087	0.01417525578290224	0.6191753149032593	-0.422637403011322	0.3132883608341217	0.06615737080574036	0.20887857675552368	0.5007238388061523	0.12357089668512344	0.302492618560791	0.1468852013349533	-0.014613116160035133	-0.0513874813914299	-0.29433581233024597	-0.40107792615890503	-0.09849141538143158	0.5687457323074341	-0.02701958641409874	0.2862248718738556	0.4114605188369751	0.4510098993778229	-0.4664016664028168	-0.028145253658294678	-0.22287997603416443	-0.22179730236530304	-0.4692003130912781	-0.447701096534729	-0.1387290507555008	0.1550089716911316	0.39752471446990967	-0.12966425716876984	0.14519564807415009	-0.20133885741233826	-0.7498899102210999	0.1557769477367401	-0.12460467964410782	-0.5546818375587463	0.27452531456947327	0.15899589657783508	0.04753311350941658	-0.8348948359489441	0.20328499376773834	-0.23753342032432556	0.39589381217956543	0.288539856672287	0.03747756779193878	0.4221334755420685	0.03577915206551552	0.11221639811992645	-0.022678278386592865	0.15479716658592224	-0.17940285801887512	-0.07160107791423798	-0.2854686379432678	-0.0009846740867942572	0.31873801350593567	0.18914036452770233	0.3714849352836609	0.36471137404441833	0.19332726299762726	-0.17187412083148956	0.22168420255184174	-0.3851932883262634	0.24392779171466827	0.24018609523773193	-0.7281159162521362	0.06174036115407944	0.15966317057609558	-0.26003411412239075	0.6696242094039917	0.3158857226371765	-0.17192292213439941	-0.21011453866958618	0.08235740661621094	0.11734437942504883	0.09619573503732681	-0.39475974440574646	-0.16544823348522186	0.06388824433088303	-0.4923405945301056	0.1743166148662567	-0.42259177565574646	-0.13053354620933533	0.3783726394176483	-0.4302009046077728	-0.039072997868061066	-0.4016091525554657	0.37910234928131104	0.41028735041618347	0.14794012904167175	0.22889670729637146	-0.30523058772087097	-0.2666636109352112	0.5391989946365356	-0.01614931970834732	-0.1730068027973175	-0.4740464687347412	-0.4465353190898895	-0.12595590949058533	0.2680155634880066	0.9372475743293762	-0.1975206583738327	-0.34257104992866516	-0.3565240204334259	0.16074687242507935	0.16472205519676208	-0.46643683314323425	0.2479775846004486	-0.5415352582931519	-0.4628828167915344	-0.7339330315589905	-0.15786051750183105	-0.24771228432655334	0.2027139514684677	-0.19865773618221283	-0.1664290577173233	-0.10760083049535751	0.26826784014701843	0.21587464213371277	0.2654075622558594	-0.013008767738938332	0.304945707321167	-0.22108402848243713	-0.20409153401851654	-0.3209831416606903	-0.5120850801467896	0.3756507933139801	0.43524861335754395	0.3643266260623932	-0.28507786989212036	0.30653300881385803	0.15214397013187408	0.6377723217010498	-0.16353215277194977	0.20323123037815094	-0.14630387723445892	0.514361560344696	0.5544849634170532	-0.6912854313850403	0.379130482673645	0.41110238432884216	0.13310614228248596	0.07582443207502365	-0.4689028859138489	0.0366450659930706	-0.08949055522680283	0.17487339675426483	-0.4070204496383667	0.17847803235054016	0.284712553024292	-0.24174849689006805	-0.5298271775245667	0.2234671413898468	-0.2360110878944397	-0.06252199411392212	-0.13531917333602905	0.43790122866630554	-0.12053108960390091	0.4629004895687103	0.31012776494026184	-0.5168585777282715	0.09229888767004013	0.29155099391937256	-0.31847575306892395	0.4366942048072815	0.13518717885017395	0.1447228044271469	-0.2574130594730377	0.11617463082075119	0.14133766293525696	0.04917437210679054	0.23458987474441528	0.04637858644127846	-0.26430994272232056	0.028400423005223274	-0.3588225841522217	0.22969946265220642	-0.01384325884282589	0.09725506603717804	0.006536645349115133	-0.36261335015296936	-0.5374122262001038	0.21639598906040192	-0.03182784095406532	-0.38581913709640503	-0.25852084159851074	-0.2919846773147583	0.06378263980150223	0.04063434526324272	-0.5421198606491089	-0.3530704081058502	0.5286108255386353	0.0878722071647644	-0.1877819448709488	-0.0625760480761528	0.1874067634344101	-0.1712743043899536	-0.2903766930103302	0.6482675075531006	-0.39063403010368347	-0.05688735470175743	-0.376179963350296	-0.4459010064601898	-0.13112130761146545	-0.3841947913169861	-0.047185275703668594	0.7785888314247131	-0.05773848295211792	-0.2469337284564972	-0.0016895419685170054	0.30227887630462646	0.5148412585258484	-0.48699110746383667	0.3217322826385498	0.10782421380281448	-0.4641670286655426	-0.1631774753332138	-0.04622777923941612	-0.1259452998638153	-0.42990100383758545	0.22221307456493378	0.08133840560913086	-0.01787506230175495	0.5457369685173035	0.2084244042634964	0.5849891901016235	0.44530346989631653	-0.08801387995481491	0.361314982175827	-0.21563249826431274	-0.14872141182422638	0.8960333466529846	0.5060812830924988	0.09502974897623062	0.5097517371177673	-0.30297085642814636	-0.11569292098283768	-0.05567602440714836	-0.44356071949005127	0.06897091120481491	-0.085626021027565	-0.2527916133403778	-0.4210963249206543	-0.24627982079982758	-0.23405759036540985	-0.383981317281723	0.24101464450359344	0.247100368142128	0.02637351304292679	0.5348162055015564	0.5119631886482239	0.34371593594551086	0.2105938047170639	-0.09425400197505951	-0.4002380669116974	-0.10318700224161148	0.5517327189445496	0.4783026874065399	0.04820007085800171	0.10499688982963562
PMC7182430	-0.42051461338996887	-0.2966744601726532	-0.5266469120979309	0.0424937903881073	0.33649396896362305	-0.12694717943668365	-0.28924760222435	0.15797758102416992	0.48982274532318115	-0.3503103256225586	0.032942745834589005	-0.36964285373687744	0.2872384786605835	-0.25617146492004395	-0.03520239144563675	-0.07997218519449234	0.5376070141792297	0.20978261530399323	0.2297818958759308	-0.13711611926555634	0.13172964751720428	0.023613685742020607	0.339704692363739	0.2701054811477661	0.5316163301467896	-0.04588642716407776	-0.2949158847332001	-0.003701991867274046	-0.06704597175121307	-0.033205337822437286	0.11461293697357178	-0.004905384499579668	0.22649140655994415	-0.3272860646247864	-0.18266689777374268	0.47224006056785583	-0.03418827801942825	0.49217429757118225	0.264274924993515	-0.16409240663051605	0.24894952774047852	0.29686084389686584	0.2544938921928406	-0.23141752183437347	0.18371260166168213	0.14230407774448395	0.3923434317111969	0.33526861667633057	0.06979788839817047	0.048178475350141525	0.35087305307388306	0.05134629085659981	0.311607301235199	-0.6063462495803833	-0.21223889291286469	0.3854284882545471	0.27818021178245544	-0.15269505977630615	0.6818943023681641	0.09358751773834229	0.09861322492361069	0.16297657787799835	0.06322114169597626	-0.4195807874202728	0.09499501436948776	-0.37249642610549927	-0.3354286253452301	0.030987612903118134	0.0965580940246582	0.3646084666252136	-0.4117312431335449	0.33735689520835876	-0.2602149546146393	-0.6531516909599304	0.28113141655921936	-0.08321089297533035	-0.6510187387466431	0.0989108756184578	0.3890293836593628	0.3610757291316986	-0.4865778684616089	-0.14552322030067444	-0.1286037266254425	-0.221744105219841	0.1199721172451973	0.05170547962188721	0.13155552744865417	0.18977293372154236	-0.21535824239253998	-0.0262435395270586	0.20506489276885986	0.015256185084581375	-0.07752490043640137	-0.030945323407649994	0.018189260736107826	-0.21648505330085754	-0.22059501707553864	-0.09065687656402588	-0.14597608149051666	-0.17519472539424896	0.16913355886936188	0.3444051146507263	0.043163400143384933	0.1826924830675125	0.28986653685569763	-0.7873193621635437	0.02288985811173916	0.2995802164077759	-0.0268919225782156	0.2899174690246582	0.5489691495895386	0.4431735873222351	-0.11553527414798737	0.23420722782611847	0.5470430850982666	0.4280819296836853	-0.2426408976316452	-0.03741160407662392	0.40172386169433594	-0.44100460410118103	0.2021639049053192	-0.07525857537984848	-0.2731820046901703	0.32937878370285034	-0.12127580493688583	0.06895015388727188	-0.4775606393814087	0.3688117563724518	0.4853554964065552	-0.15262261033058167	0.024262992665171623	-0.18104834854602814	-0.21595337986946106	0.1534629762172699	-0.3254569470882416	-0.2572135925292969	-0.4152818024158478	-0.4525463581085205	-0.45565328001976013	0.013003830797970295	0.7601552605628967	-0.1592559814453125	-0.06891555339097977	0.2727798819541931	0.5165121555328369	0.14079323410987854	-0.7425956130027771	0.14719776809215546	-0.1484300047159195	-0.8784641027450562	-0.29946133494377136	-0.04568939283490181	0.2688073515892029	0.017901666462421417	-0.20371408760547638	-0.11950428783893585	-0.42508360743522644	0.07549632340669632	-0.25342848896980286	0.06810237467288971	0.05535781383514404	0.2724623680114746	0.17579561471939087	-0.21185633540153503	-0.24218323826789856	-0.12326797097921371	-0.331278920173645	0.390659362077713	0.01162157766520977	0.23973241448402405	0.371183842420578	-0.07993578165769577	0.14417453110218048	0.23999245464801788	0.13538776338100433	0.016599291935563087	0.09217594563961029	0.6588695049285889	-0.3955121636390686	0.21894897520542145	0.3595324158668518	-0.1363758146762848	0.33479028940200806	-0.23786596953868866	0.12540192902088165	0.11731604486703873	0.1754687875509262	-0.3928029239177704	0.17496046423912048	-0.22389307618141174	0.257124125957489	-0.7442592978477478	0.25493595004081726	-0.44172611832618713	0.04123695194721222	-0.3133063018321991	0.3688827455043793	0.46932676434516907	0.4144618511199951	-0.31004399061203003	-0.4956492483615875	0.1745455116033554	0.7196664810180664	-0.04757176339626312	0.6263598799705505	0.1741478443145752	-0.14233620464801788	-0.2985299527645111	-0.032084621489048004	0.029780415818095207	-0.21005964279174805	0.15358902513980865	0.10426484793424606	-0.16049526631832123	-0.29391568899154663	-0.0016479706391692162	0.004994790535420179	-0.2047310173511505	-0.016739269718527794	-0.007689967285841703	0.40826287865638733	-0.91860431432724	-0.052854642271995544	-0.11611509323120117	0.0735025629401207	-0.3242180347442627	-0.4201497733592987	0.14522609114646912	0.18427138030529022	-0.030397845432162285	-0.13595840334892273	0.4672680199146271	-0.20588025450706482	-0.27823030948638916	-0.052195727825164795	-0.03186086565256119	-0.29275748133659363	-0.2691541612148285	0.5277206897735596	-0.33226290345191956	-0.2989117503166199	-0.4511725604534149	-0.3301008343696594	0.15776275098323822	-0.10265650600194931	-0.22837446630001068	0.6390175819396973	0.2795577347278595	-0.27420541644096375	0.257689505815506	0.10119104385375977	-0.0009011188521981239	-0.08472567796707153	0.7247900366783142	-0.06380098313093185	0.15702085196971893	-0.052281104028224945	-0.1353619545698166	0.1254638433456421	0.016716334968805313	-0.32484981417655945	0.04816153645515442	-0.15829792618751526	0.47334128618240356	-0.1693158745765686	0.20187892019748688	0.2000664919614792	-0.08129669725894928	0.09454980492591858	0.10092874616384506	0.31720170378685	0.9407683610916138	0.19576169550418854	0.2490818053483963	0.09192352741956711	-0.6279799938201904	0.217450812458992	-0.05286834388971329	-0.4813956618309021	0.09818362444639206	-0.04487261921167374	0.0800858587026596	-0.22689685225486755	0.04930976778268814	0.09955188632011414	-0.5212327837944031	0.05707503855228424	0.33936867117881775	0.12069746106863022	0.7870619893074036	0.26713061332702637	0.061371926218271255	0.3330046534538269	-0.0237123966217041	-0.35501357913017273	-0.24308225512504578	0.6035972237586975	0.4536145329475403	-0.3082900941371918	0.10299815237522125
PMC7176908	-0.17955468595027924	-0.055011454969644547	-0.24082176387310028	0.3202858567237854	0.008490752428770065	-0.131328746676445	0.1522139459848404	0.21892067790031433	0.17917487025260925	-0.7736358642578125	-0.46907350420951843	-0.565693199634552	0.11600743234157562	-0.35517141222953796	-0.015226609073579311	0.10868006199598312	0.04035989195108414	-0.20883029699325562	-0.07811551541090012	0.2596634328365326	0.19437679648399353	0.04804885387420654	0.10287843644618988	0.5933582782745361	0.038472119718790054	-0.1516040712594986	0.012187532149255276	0.11578365415334702	-0.43816736340522766	0.06377629190683365	0.42855510115623474	-0.1777065098285675	-0.43922513723373413	-0.0830325335264206	-0.00270094838924706	0.01724628545343876	-0.08211024850606918	0.4137042760848999	0.7021397352218628	-0.7082383632659912	0.010073388926684856	-0.17332611978054047	0.5400338172912598	-0.363170325756073	0.3180779218673706	-0.381091445684433	0.08619983494281769	0.26980850100517273	0.12436274439096451	0.0698382556438446	0.19800418615341187	-0.17635345458984375	0.4085487127304077	-0.6616457104682922	-0.42755091190338135	0.12383241951465607	0.4095519483089447	-0.2135484218597412	0.5935373902320862	0.16245557367801666	-0.05681121349334717	-0.18002448976039886	-0.026866724714636803	-0.2666289210319519	-0.2682357430458069	-0.41177576780319214	-0.08990684896707535	0.1739606410264969	0.4387441873550415	0.5618239641189575	0.0008714772411622107	0.17033661901950836	-0.06037163361907005	-0.16320830583572388	-0.05617611110210419	0.3422771692276001	-0.6124123930931091	0.35772666335105896	0.398640900850296	0.24155722558498383	-0.19693204760551453	0.34586891531944275	-0.2318020910024643	-0.020949680358171463	0.2513667345046997	-0.19193726778030396	0.06116807088255882	0.27730777859687805	-0.2358161360025406	-0.5240465402603149	-0.09863649308681488	-0.35087481141090393	0.07499665021896362	0.024076897650957108	-0.029791509732604027	-0.17937920987606049	0.17006328701972961	0.3396947383880615	0.3609378933906555	0.10212813317775726	-0.4253273904323578	-0.1706075370311737	-0.07043251395225525	0.0025402000173926353	0.2744499444961548	-0.5107865929603577	-0.05660928040742874	0.3267401158809662	-0.1590808629989624	0.4879053235054016	0.41790348291397095	-0.100648432970047	0.14620400965213776	-0.21671760082244873	0.277667373418808	-0.09773162752389908	-0.4743553698062897	-0.305419385433197	0.353089839220047	-0.2030675709247589	0.1758437156677246	-0.684683620929718	0.14967219531536102	0.10371456295251846	-0.36462703347206116	0.2220437079668045	-0.030656367540359497	0.2975890338420868	0.2951069176197052	0.22109732031822205	0.1272197663784027	0.13081732392311096	-0.11046401411294937	0.013891944661736488	-0.6055794954299927	-0.40623849630355835	-0.34403562545776367	-0.3912379741668701	-0.32217147946357727	0.15692609548568726	0.5132169127464294	-0.30333492159843445	-0.24638955295085907	0.6037992238998413	0.10871319472789764	-0.06408916413784027	-0.20426782965660095	0.13440728187561035	-0.009366943500936031	-0.4270179271697998	-0.2837361693382263	-0.06243404000997543	0.03146810829639435	-0.04482731968164444	-0.09841258078813553	0.29832395911216736	0.13154564797878265	0.5671405792236328	-0.5406888127326965	0.40179872512817383	0.014510798268020153	0.29870840907096863	0.22792629897594452	-0.3696307837963104	-0.1603846698999405	-0.5084758996963501	0.029221801087260246	0.48289358615875244	0.17224769294261932	0.08691119402647018	0.33071064949035645	0.1670699566602707	0.32943615317344666	0.1144319474697113	0.31354546546936035	0.2655293941497803	0.49567070603370667	0.39193448424339294	-0.42769694328308105	0.16662003099918365	0.32856103777885437	0.005681827664375305	0.5789574980735779	-0.23795866966247559	-0.06713646650314331	0.043532323092222214	0.06349939107894897	-0.017514437437057495	0.2214708924293518	-0.09217977523803711	-0.27898481488227844	-0.3224295675754547	0.28314316272735596	-0.15143916010856628	0.4667908847332001	-0.39817187190055847	0.3048519194126129	0.034738119691610336	0.23693124949932098	-0.170236736536026	-0.7054388523101807	0.18901100754737854	0.2938207983970642	-0.3487977981567383	0.4515872597694397	-0.14403752982616425	0.058745600283145905	-0.013728365302085876	-0.011940190568566322	-0.028027642518281937	-0.024100162088871002	-0.42285168170928955	0.30361586809158325	-0.2137463390827179	-0.12160608172416687	-0.12227382510900497	-0.2086322009563446	-0.07839047908782959	0.10816873610019684	0.1562565565109253	-0.1851653903722763	-0.4041272699832916	0.1470520943403244	-0.39823848009109497	-0.660419762134552	-0.3350098431110382	-0.2647230327129364	-0.037650104612112045	0.11052480340003967	-0.4180711507797241	-0.6796213984489441	0.3326682150363922	-0.02367938496172428	-0.3038829267024994	-0.30601298809051514	0.06984112411737442	-0.2522476613521576	-0.11473076790571213	0.6416908502578735	-0.22912578284740448	0.05930595099925995	-0.46260201930999756	-0.060269325971603394	0.080422542989254	-0.23043479025363922	0.38167375326156616	0.4120018482208252	0.28256627917289734	0.4170350134372711	0.0807117447257042	-0.15082800388336182	0.1306498497724533	-0.021683799102902412	0.5721976161003113	0.3903084099292755	-0.36584070324897766	-0.1936582773923874	-0.1301482766866684	-0.1903657168149948	0.030136581510305405	0.0739988461136818	-0.10648123174905777	0.218171164393425	0.09800437092781067	0.07048103958368301	0.764890193939209	-0.2212425321340561	0.12157680839300156	0.32623085379600525	0.3797075152397156	-0.14339035749435425	0.890251874923706	-0.13439147174358368	0.053520169109106064	0.005476152058690786	-0.7647315859794617	-0.08748600631952286	0.1710033118724823	-0.015383041463792324	0.03608764335513115	-0.48242905735969543	-0.02876899018883705	-0.3681105375289917	0.06877593696117401	0.12564794719219208	-0.36133936047554016	0.057397499680519104	0.3053648769855499	-0.053294096142053604	0.5027430653572083	0.5594082474708557	0.08421541005373001	-0.11022590845823288	0.09212183207273483	-0.5708802938461304	-0.4868786633014679	-0.06505309790372849	0.5389043092727661	0.19157180190086365	0.29904666543006897
PMC6907167	-0.08986451476812363	0.055203139781951904	-0.5151874423027039	0.6470698714256287	0.1104331985116005	0.3182096481323242	0.021560631692409515	0.02974855899810791	0.16914330422878265	-0.5900676250457764	-0.13601332902908325	-0.5929233431816101	-0.25831806659698486	-0.5367363095283508	0.11472754180431366	0.38386163115501404	-0.1283252090215683	0.16390548646450043	0.23074688017368317	-0.0496346652507782	0.001720583182759583	-0.05761369317770004	0.024193495512008667	0.03465764969587326	0.19959940016269684	-0.16506147384643555	-0.3548738956451416	0.05563279241323471	-0.793891191482544	0.5214437246322632	0.6683905720710754	-0.41440969705581665	-0.29694223403930664	-0.1899506002664566	0.15703485906124115	0.27048808336257935	-0.07401452213525772	0.7815931439399719	0.13573941588401794	-0.14654496312141418	0.11062449216842651	0.312997967004776	0.6749140620231628	-0.8821471333503723	0.06613808125257492	-0.21662329137325287	-0.3733327388763428	0.03578869253396988	0.7149572968482971	0.208390012383461	-0.09841572493314743	-0.21494172513484955	0.3206082284450531	-0.5765463709831238	-0.7567381858825684	0.2827703058719635	0.5686761736869812	-0.08230466395616531	0.27015221118927	0.7210564613342285	0.40261611342430115	-0.246073380112648	0.5741527676582336	-0.5247776508331299	-0.14716535806655884	-0.43786776065826416	-0.38670769333839417	0.016353117302060127	0.35546234250068665	0.0541980154812336	0.16333824396133423	0.0739031434059143	-0.38637515902519226	-0.25848522782325745	-0.24730834364891052	0.0009737162617966533	-0.4423061013221741	0.003312469692900777	-0.0015955326380208135	-0.3607938289642334	-0.7828927636146545	0.2699761688709259	-0.0040891580283641815	0.01213668379932642	0.18820706009864807	0.3516106903553009	0.5662112236022949	0.44751185178756714	0.04061642661690712	-0.1709858626127243	0.21192879974842072	-0.32861337065696716	0.38286805152893066	-0.16624517738819122	-0.4007605016231537	0.31133967638015747	0.07591889798641205	0.46021321415901184	0.6507377624511719	0.2699548304080963	-0.21074119210243225	0.04521514102816582	0.20359991490840912	-0.1649448275566101	0.19199185073375702	-0.7684513926506042	0.409355103969574	-0.06201609969139099	-0.33350318670272827	0.6903189420700073	0.5048127174377441	0.09001408517360687	-0.05020098015666008	-0.12875163555145264	0.32294559478759766	-0.5017500519752502	-0.42416688799858093	-0.5495516657829285	0.40630707144737244	-0.12479917705059052	0.2670295536518097	-0.8259382843971252	-0.2570495903491974	0.42941054701805115	-0.7030848264694214	-0.4127156138420105	0.12654946744441986	0.829704761505127	0.37434810400009155	-0.01127108559012413	0.10688001662492752	-0.04276416823267937	-0.34425345063209534	0.03970068693161011	-0.6252923607826233	-0.5810269117355347	-0.32337531447410583	0.0091825220733881	-0.2993219494819641	-0.08322614431381226	0.7534424662590027	-0.5714308619499207	-0.6324687004089355	-0.05053529888391495	-0.21450194716453552	0.10246079415082932	-0.16641895473003387	-0.03519970923662186	-0.11727054417133331	-0.671748161315918	-0.34634268283843994	0.055986806750297546	0.19095544517040253	0.7510919570922852	-0.7165815234184265	-0.1766873300075531	-0.7209706902503967	0.05483754724264145	0.033439751714468	0.8349666595458984	-0.1137625128030777	0.2292291224002838	-0.1452092081308365	-0.22868235409259796	-0.31927669048309326	-0.3742828965187073	-0.027027113363146782	0.13437701761722565	-0.10689806938171387	0.359567254781723	-0.012693410739302635	0.10426284372806549	-0.06828023493289948	0.15235725045204163	0.02684873528778553	-0.254321426153183	0.4829595983028412	0.07335901260375977	0.03425006568431854	0.07347797602415085	0.43664297461509705	0.07722821831703186	0.3016359806060791	-0.7224043011665344	0.29656699299812317	-0.013640563003718853	0.47098737955093384	0.07352419942617416	0.4530883729457855	0.25992071628570557	-0.4012855589389801	-0.5780723094940186	0.09451501071453094	-0.17396748065948486	0.25161468982696533	0.0024257712066173553	-0.04364616796374321	-0.11295671761035919	1.104962706565857	0.09947660565376282	-0.43943020701408386	0.20367880165576935	0.7325649857521057	-0.1193045899271965	0.4664657413959503	0.05504004657268524	-0.08256851881742477	-0.174844890832901	0.33881813287734985	0.07418619841337204	0.0035070390440523624	-0.16890792548656464	0.8732268810272217	-0.35324767231941223	-0.04183947667479515	-0.6355794072151184	0.28032416105270386	-0.8237719535827637	0.058323055505752563	0.24012580513954163	-0.10154082626104355	-0.22022491693496704	-0.46192747354507446	-0.1916111409664154	-0.030018789693713188	-0.44966715574264526	-0.6839697360992432	0.44578734040260315	0.7239528894424438	-0.3716149628162384	-0.21323256194591522	0.5457406640052795	0.018100261688232422	-0.43169617652893066	-0.09251605719327927	0.3997578024864197	-0.24525749683380127	-0.06144923344254494	0.19373738765716553	-0.5751151442527771	0.053609348833560944	-0.1016920879483223	-0.27947354316711426	0.02072848379611969	0.31833675503730774	-0.26437970995903015	0.38247454166412354	0.3518773317337036	-0.0476711206138134	-0.1729409098625183	0.019363367930054665	0.49805566668510437	-0.1603320688009262	0.015230054967105389	0.017325548455119133	0.06888966262340546	0.046388596296310425	0.1420951932668686	-0.13709402084350586	0.027618857100605965	-0.1360923945903778	0.21442778408527374	-0.5143991112709045	0.5430594086647034	-0.10733078420162201	0.46271345019340515	0.24581915140151978	0.047660309821367264	0.2603549063205719	0.3558409810066223	0.2395530343055725	0.7487736344337463	0.33152806758880615	0.13919135928153992	0.4529940187931061	-0.73188716173172	0.034856755286455154	0.5818132162094116	0.07101760804653168	-0.43433165550231934	-0.1819201558828354	-0.03382432088255882	-0.20363067090511322	0.12309115380048752	0.02491040527820587	-0.2548183798789978	-0.7165752649307251	-0.10078250616788864	-0.115666963160038	0.010621991939842701	0.3293166756629944	0.38662201166152954	0.37800881266593933	0.5749149322509766	-0.6982306241989136	0.1690765917301178	0.27739933133125305	0.12891830503940582	-0.07158469408750534	0.3532833456993103
PMC7095430	-0.18775667250156403	0.11762069165706635	-0.6873485445976257	-0.20335862040519714	0.09198883920907974	-0.31150633096694946	-0.26652219891548157	0.5078004598617554	0.2201789915561676	-0.4621153473854065	-0.053732093423604965	-0.5821879506111145	0.06737374514341354	-0.1356918066740036	-0.228426992893219	0.15960951149463654	0.2624734044075012	0.30864736437797546	-0.020724013447761536	-0.22364167869091034	0.01327681727707386	-0.1915784329175949	0.17344427108764648	0.6301122903823853	0.6185368299484253	-0.24224255979061127	-0.19792649149894714	0.060700755566358566	-0.5703737139701843	0.1881342977285385	0.370108038187027	-0.4270852506160736	-0.17738120257854462	-0.29577112197875977	-0.16810573637485504	0.13473369181156158	-0.05062371864914894	0.542691171169281	0.3516189754009247	-0.4438520073890686	0.3202441930770874	0.0364961139857769	0.32268011569976807	-0.5265663862228394	0.22056171298027039	-0.3373624086380005	0.2009909749031067	0.031612977385520935	-0.1070752665400505	0.055634308606386185	0.43413975834846497	0.0595061331987381	0.016391681507229805	-0.3218584358692169	-0.3369236886501312	0.022967539727687836	0.13926911354064941	-0.2455178052186966	0.792554497718811	0.5765825510025024	0.06760597974061966	-0.1695117950439453	-0.25587379932403564	-0.5020537972450256	0.31705769896507263	-0.3019268810749054	-0.41815105080604553	-0.10448996722698212	0.1312088668346405	0.5471636652946472	-0.48504507541656494	0.255485862493515	-0.009229179471731186	-0.8088563680648804	0.2689477205276489	0.05904423072934151	-0.9010512828826904	0.29824331402778625	0.0443839505314827	0.12190806865692139	-0.4794764518737793	0.23891636729240417	-0.19764235615730286	-0.15432129800319672	0.5040267705917358	0.09758630394935608	0.4172183871269226	0.5632836222648621	0.11379039287567139	-0.08819624036550522	-0.06754044443368912	0.2516765296459198	0.4113968014717102	-0.0423775352537632	-0.0374051071703434	-0.1008857786655426	-0.02156583033502102	-0.043242085725069046	0.3146521747112274	0.36905449628829956	0.015316791832447052	-0.15607008337974548	-0.20870758593082428	-0.01693989895284176	-0.07614848017692566	-0.4313434064388275	0.5006455183029175	0.2137356996536255	0.18118757009506226	0.2605069875717163	0.5521200895309448	-0.17187872529029846	0.0343579538166523	0.0015872059157118201	0.47308090329170227	-0.0012353442143648863	-0.3022221624851227	-0.4934278130531311	-0.043997980654239655	-0.7473865151405334	-0.07988135516643524	-0.2493453025817871	-0.006761192809790373	0.6446666717529297	-0.2932186722755432	-0.06742745637893677	-0.6542366147041321	0.6788654923439026	0.039594266563653946	-0.1487373560667038	0.020655740052461624	-0.06696822494268417	0.002261437475681305	-0.15686830878257751	-0.5728269219398499	-0.35936450958251953	-0.29770627617836	-0.45939651131629944	-0.7903956174850464	0.3523472845554352	1.1400794982910156	-0.03692673146724701	-0.2140272706747055	-0.07391061633825302	0.14178183674812317	0.19619569182395935	-0.651142418384552	-0.09106845408678055	0.07166754454374313	-0.5577152371406555	-0.6679902076721191	-0.03295661881566048	-0.1204751655459404	-0.0725657045841217	-0.21995395421981812	-0.26849257946014404	-0.18067003786563873	0.21660412847995758	-0.36133044958114624	0.3534221351146698	-0.04927932843565941	0.42085492610931396	0.4631468653678894	-0.25703805685043335	-0.4150380790233612	-0.22708193957805634	0.0670897588133812	0.2914079427719116	-0.0018226348329335451	0.1477862000465393	0.2899567782878876	0.25350573658943176	0.14712995290756226	-0.06537146121263504	-0.11410243064165115	-0.08375696837902069	0.10613617300987244	0.3983316123485565	-0.27449455857276917	0.44738030433654785	0.7500162720680237	-0.012061216868460178	0.4029584527015686	-0.527045488357544	-0.26298531889915466	0.24398474395275116	-0.010865316726267338	-0.2628129720687866	0.18115144968032837	0.20805108547210693	-0.13844265043735504	-0.7601629495620728	0.004238709807395935	-0.24827349185943604	0.5845775604248047	-0.21065756678581238	0.43259745836257935	-0.02107871323823929	0.27205172181129456	-0.4031529426574707	-0.5059940814971924	0.018461430445313454	0.06847671419382095	-0.05887461453676224	0.4308580458164215	0.07791489362716675	-0.41017305850982666	-0.08003594726324081	0.18146423995494843	-0.21464934945106506	0.3254993259906769	0.12452428042888641	0.16512443125247955	-0.1249484121799469	-0.2108229249715805	-0.29922419786453247	-0.000998029368929565	-0.14597998559474945	-0.19696103036403656	-0.009273984469473362	0.30027666687965393	-0.7005949020385742	0.15623854100704193	-0.03773704916238785	-0.3250878155231476	-0.011720089241862297	-0.21607837080955505	0.048015326261520386	0.06228528544306755	-0.3170028626918793	-0.6132706999778748	0.19614137709140778	-0.020241471007466316	-0.484712690114975	-0.36332273483276367	0.06083911657333374	-0.5584621429443359	-0.22030843794345856	0.6187439560890198	0.008275151252746582	-0.2536357641220093	-0.424777090549469	-0.5024693012237549	0.09096807986497879	-0.14670242369174957	-0.28140702843666077	1.1530163288116455	0.329103022813797	0.40098077058792114	0.49275505542755127	-0.20515590906143188	-0.19275900721549988	-0.33730512857437134	0.36083874106407166	0.701458215713501	0.058514147996902466	-0.2587229609489441	0.020046941936016083	-0.3896206021308899	0.008190827444195747	0.0455549955368042	-0.07151341438293457	-0.16951726377010345	0.8930123448371887	0.24828648567199707	0.8625376224517822	0.17411617934703827	-0.07755663245916367	-0.046732548624277115	0.056475792080163956	0.320406436920166	1.2694543600082397	-0.12123746424913406	0.49460262060165405	0.20582421123981476	-0.6349559426307678	-0.09820698946714401	0.029752129688858986	-0.1529207080602646	0.22492171823978424	-0.4576795995235443	0.05881371721625328	-0.18345215916633606	0.27590030431747437	0.09601164609193802	-0.6428833603858948	-0.23609575629234314	0.3330754339694977	-0.1769264042377472	0.4254436194896698	0.2411808967590332	0.3181758224964142	-0.0036595193669199944	-0.03071611188352108	-0.6200693845748901	0.12128574401140213	0.4489281177520752	0.11368222534656525	-0.31500235199928284	0.7144523859024048
PMC7139599	0.32013803720474243	0.4043194055557251	-0.7118604183197021	-0.3734202980995178	-0.15530753135681152	-0.13835234940052032	0.00576625345274806	0.049989186227321625	0.5000005960464478	-0.5763925909996033	-0.0927124172449112	-0.6685802340507507	0.26044762134552	-0.2642652988433838	-0.0792422965168953	-0.0930653065443039	0.5168520212173462	0.19902296364307404	-0.30863022804260254	0.12955066561698914	-0.046085525304079056	0.584189236164093	-0.12711024284362793	0.19706353545188904	0.4968150854110718	-0.12405858188867569	-0.20588402450084686	-0.16803455352783203	-0.6491271257400513	0.6746994256973267	0.38468772172927856	-0.6894696354866028	-0.17140896618366241	-0.2393196076154709	0.0061172302812337875	-0.04788747802376747	-0.039528895169496536	0.5148278474807739	0.8844189643859863	-0.5164992213249207	0.1057191789150238	-0.06275790184736252	0.45787397027015686	-0.21471112966537476	0.39932748675346375	0.09145219624042511	0.14378035068511963	0.3534124791622162	0.311650812625885	0.09305908530950546	0.15168450772762299	0.12765707075595856	0.25465038418769836	-0.45980268716812134	-0.5945404767990112	0.13880851864814758	0.08629660308361053	-0.3617343306541443	0.8486490845680237	0.6478889584541321	0.3949369788169861	-0.05396003648638725	-0.1745436042547226	-0.16445153951644897	-0.10736292600631714	-1.0451568365097046	-0.7142642140388489	-0.05296028032898903	0.051493678241968155	0.01718597300350666	-0.29134076833724976	0.11724431812763214	-0.2792001962661743	-0.3276352882385254	0.21982675790786743	0.027107395231723785	-0.6879556179046631	0.1985047161579132	0.17590999603271484	0.2196984738111496	-0.4817068576812744	0.027795979753136635	-0.0030468429904431105	0.533526599407196	0.04388563334941864	-0.13086828589439392	0.01625022478401661	0.574368953704834	-0.13228856027126312	-0.08436956256628036	-0.05844631791114807	0.14823636412620544	0.27413681149482727	-0.3491835594177246	-0.10917484015226364	-0.2097584307193756	0.14400345087051392	-0.16616864502429962	0.34906789660453796	0.40439891815185547	-0.13117681443691254	-0.0618361160159111	-0.33569449186325073	0.01643855683505535	0.1872025430202484	-0.9971238970756531	0.42435774207115173	0.4325163662433624	-0.3040655255317688	0.4874650537967682	0.14237885177135468	0.29911184310913086	-0.118326336145401	0.10825898498296738	0.2675216794013977	0.020076103508472443	-0.10087186843156815	-0.1585366278886795	-0.018798379227519035	-0.6577832102775574	0.11669280380010605	-0.070856474339962	0.5980556607246399	0.6922427415847778	-0.4936787486076355	0.06959711760282516	-0.3076232373714447	0.2121254950761795	0.06387872993946075	0.5462759137153625	0.2698659598827362	0.14253228902816772	0.23177796602249146	-0.32716166973114014	-0.24645158648490906	-0.33652326464653015	-0.853986918926239	-0.687091588973999	-0.7082986235618591	-0.011945391073822975	0.7939082384109497	0.15573853254318237	-0.03292515501379967	-0.05497990921139717	0.30027419328689575	0.5005127191543579	-0.08659468591213226	0.1545925885438919	-0.14544065296649933	-0.6996098160743713	-0.7378288507461548	0.04810028895735741	-0.10147053003311157	-0.1303628385066986	-0.5807644724845886	-0.008696531876921654	0.01602339558303356	0.23851418495178223	0.3271765410900116	0.16829170286655426	-0.04716731980443001	0.4701971411705017	0.08388972282409668	0.19101081788539886	-0.06609460711479187	-0.2577526569366455	0.5643863677978516	0.020000478252768517	0.2870088517665863	0.2595497965812683	0.28664344549179077	0.5507176518440247	0.20970550179481506	0.02449701353907585	-0.04096415266394615	-0.4208565652370453	0.7267121076583862	1.0973634719848633	-0.3694908916950226	0.4004976749420166	0.34960493445396423	-0.1514713019132614	0.3091575503349304	-0.3941943943500519	-0.06522463262081146	-0.25513967871665955	-0.09330662339925766	-0.22047574818134308	0.6104468107223511	0.17403414845466614	-0.3046630620956421	-0.5496931076049805	-0.020846594125032425	-0.27363350987434387	0.08349800854921341	-0.49789366126060486	-0.07853072136640549	0.2183026373386383	0.49625182151794434	-0.06982944160699844	-0.12987098097801208	-0.01849876530468464	0.5720741152763367	-0.11500129103660583	0.466086745262146	0.23170359432697296	-0.37428322434425354	0.026032159104943275	0.15724670886993408	0.021389754489064217	0.07443419843912125	-0.04631772264838219	0.3050973117351532	-0.1936539113521576	-0.5900091528892517	-0.0362892746925354	-0.2841372787952423	0.07533226907253265	0.3399064540863037	-0.36882132291793823	0.08028654754161835	-0.5995778441429138	-0.2643298804759979	0.033306676894426346	-0.45061731338500977	0.021073143929243088	0.025897052139043808	0.10798653215169907	0.48784977197647095	-0.4283602237701416	-0.3240988552570343	0.4432119131088257	-0.1267416626214981	-0.7545998096466064	-0.3918750584125519	0.28660744428634644	-0.20465287566184998	-0.600459098815918	0.4830094277858734	-0.5478496551513672	-0.23943600058555603	-0.17725549638271332	-0.6114563941955566	0.23432739078998566	-0.09281478822231293	-0.20265163481235504	0.9575660824775696	0.23950015008449554	0.3869490325450897	-0.31242671608924866	-0.3915877640247345	0.15754616260528564	-0.6218730211257935	-0.034853558987379074	0.1858130842447281	-0.2572876513004303	-0.7226249575614929	0.11583315581083298	0.2138960063457489	-0.057480208575725555	0.5112078785896301	0.061002373695373535	-0.1909111738204956	0.41225573420524597	-0.46282148361206055	0.6532565951347351	0.1582757532596588	-0.06759606301784515	0.4256238043308258	-0.01007806695997715	0.257804274559021	0.7024280428886414	0.4411409795284271	-0.007306423969566822	0.25558438897132874	-0.39928144216537476	0.43572625517845154	0.15637686848640442	-0.026318660005927086	0.2803179621696472	-0.6570472717285156	-0.06863225251436234	-0.3623257875442505	0.3099696636199951	0.39199578762054443	-0.6906720995903015	-0.22626648843288422	-0.22480610013008118	-0.18881355226039886	0.28118905425071716	0.7940047979354858	0.7816935181617737	-0.28553521633148193	0.19052885472774506	-0.7591218948364258	-0.034554146230220795	0.21221692860126495	0.202310711145401	0.13602498173713684	0.41353315114974976
PMC7156119	-0.05080239474773407	0.35599446296691895	-0.7056883573532104	-0.3305681645870209	-0.2444038838148117	0.08887871354818344	0.13064275681972504	0.26554974913597107	0.055311255156993866	-0.7191587090492249	-0.07335615158081055	-0.6647074222564697	-0.12056714296340942	-0.14526204764842987	-0.040039561688899994	0.0504758320748806	0.2411920577287674	0.2748742401599884	-0.6438359618186951	-0.10352301597595215	0.00634392723441124	0.021081799641251564	-0.04697781428694725	0.14358845353126526	0.4030573070049286	-0.2050780951976776	-0.24259532988071442	0.22498923540115356	-0.9078435897827148	0.7359428405761719	0.4516659080982208	-0.5081539154052734	-0.6162795424461365	-0.08337187767028809	-0.0012004402233287692	0.3037109971046448	-0.13909423351287842	0.5661382675170898	0.6821586489677429	-0.27624058723449707	0.43465617299079895	-0.068753182888031	0.2550943195819855	-0.2771621346473694	0.6461368203163147	-0.29797056317329407	0.15379945933818817	0.09865149110555649	0.32392480969429016	0.45667603611946106	0.39292705059051514	0.09260910749435425	0.2861780822277069	-0.3798389136791229	-0.4875814914703369	0.7025094628334045	0.2767956852912903	-0.4443581998348236	0.8861727118492126	0.42854440212249756	0.1777869015932083	-0.051422152668237686	0.040873851627111435	-0.5989823341369629	0.05770329013466835	-0.6550377011299133	-0.42436081171035767	-0.005659157410264015	-0.11117365211248398	0.05697682499885559	-0.4524199664592743	0.28471967577934265	-0.15832149982452393	-0.5906150937080383	0.145596444606781	-0.003886719234287739	-0.7056151032447815	0.17176833748817444	0.5257604718208313	0.0006753253983333707	-0.8160580992698669	-0.20865119993686676	-0.1185435950756073	0.35892918705940247	0.25327110290527344	0.019794302061200142	0.3242587447166443	0.3803178071975708	-0.029904667288064957	-0.006346522364765406	0.1156635582447052	0.19948631525039673	0.6609514355659485	-0.22926150262355804	0.13929760456085205	-0.22283972799777985	0.16138151288032532	-0.22653649747371674	0.5961912274360657	0.6769385933876038	-0.5670061707496643	0.07574160397052765	0.03620239347219467	-0.10378289222717285	0.12823688983917236	-0.9835545420646667	0.610252320766449	0.3389858901500702	-0.00567892100661993	0.3402942419052124	0.48323550820350647	0.5346626043319702	-0.3300815224647522	0.11623270809650421	0.461527943611145	-0.20601780712604523	-0.5796882510185242	-0.7405648827552795	0.20564435422420502	-0.879432201385498	-0.07283462584018707	-0.30676034092903137	0.04610787332057953	1.0656577348709106	-0.3439195156097412	-0.32792407274246216	-0.6201678514480591	0.767356276512146	0.40714791417121887	0.32819443941116333	0.20232509076595306	0.16594505310058594	0.1807078868150711	0.032322026789188385	-0.17621208727359772	-0.4264023005962372	-0.3034685552120209	-0.45872628688812256	-0.7089238166809082	-0.22576025128364563	1.3597400188446045	0.30954861640930176	-0.22158725559711456	0.14011803269386292	-0.10754499584436417	0.5316078066825867	-0.40672481060028076	0.40031009912490845	-0.049594540148973465	-0.8302487134933472	-0.8503742218017578	0.020764047279953957	0.0028643161058425903	0.1922646164894104	-0.6014516353607178	-0.6822429895401001	-0.3619546592235565	0.5693991780281067	-0.12414783984422684	0.8760707974433899	-0.21103160083293915	0.4010162055492401	-0.07910662889480591	0.14311425387859344	0.06975088268518448	-0.4233107566833496	0.2951872646808624	-0.08535037934780121	0.05075961723923683	0.430546373128891	0.06623374670743942	0.4224381446838379	6.482291792053729e-05	0.20970816910266876	-0.18699610233306885	-0.5038744807243347	0.4300236403942108	0.7620236873626709	-0.16754497587680817	0.37626874446868896	0.48189786076545715	0.06283364444971085	0.17759189009666443	-0.20738504827022552	0.08233766257762909	-0.057477325201034546	0.019068488851189613	-0.29368123412132263	0.5621505975723267	0.2870948016643524	-0.32969027757644653	-0.5416098833084106	0.17717552185058594	-0.3592176139354706	0.12992236018180847	-0.15276682376861572	0.09173136204481125	0.41926145553588867	1.1368441581726074	0.06080936640501022	-0.21271950006484985	0.2701970338821411	0.6962792277336121	-0.20933856070041656	0.7974827289581299	0.14570854604244232	-0.6832091212272644	0.04818587377667427	0.31256842613220215	-0.08589919656515121	0.12953267991542816	0.36191871762275696	0.46864306926727295	-0.18832072615623474	-0.4533786475658417	0.13071995973587036	-0.4624927341938019	-0.21374289691448212	-0.1209748238325119	-0.12080813944339752	0.45261460542678833	-0.4808264374732971	-0.21922633051872253	-0.30518463253974915	-0.6251040697097778	0.006240393966436386	-0.010339020751416683	0.6399776935577393	0.2963903546333313	-0.42997288703918457	-0.5121948719024658	0.23408621549606323	-0.11869855970144272	-0.7881101369857788	-0.2257363647222519	0.1866411715745926	-0.7971377968788147	-0.5181718468666077	0.37516987323760986	-0.1981939971446991	-0.4131484925746918	-0.01980186067521572	-0.517238438129425	-0.026026494801044464	0.07666432857513428	-0.4704343378543854	0.9442329406738281	0.49860474467277527	0.37764978408813477	0.15535327792167664	-0.3465953469276428	0.007893206551671028	-0.6803956031799316	0.08721740543842316	0.4257246255874634	-0.11661382764577866	-0.25297001004219055	0.14119668304920197	0.08853467553853989	-0.06470418721437454	0.30648717284202576	-0.10554687678813934	-0.45009487867355347	0.5722915530204773	-0.4917714595794678	1.0103362798690796	0.19593992829322815	0.006914486177265644	0.4606797993183136	0.0667286068201065	0.38130617141723633	1.196689486503601	0.6070471405982971	0.4813290536403656	0.3518068492412567	-0.2476227879524231	0.10562797635793686	0.12125604599714279	0.3276601731777191	-0.07089248299598694	-0.5932186841964722	0.20746783912181854	-0.25580573081970215	0.26817581057548523	0.3389640152454376	-0.895634651184082	-0.43907108902931213	-0.025317763909697533	-0.4217189848423004	0.1507289558649063	0.6470066905021667	0.9843941330909729	-0.3568306565284729	0.3956655263900757	-0.9107527732849121	0.1289910227060318	0.6778716444969177	0.040613606572151184	0.03081454150378704	0.38425683975219727
PMC7138313	-0.012626373209059238	-0.151353120803833	-0.25684070587158203	0.6572070121765137	0.04188135638833046	-0.26824021339416504	-0.19421862065792084	-0.1616399884223938	0.45592695474624634	0.3969900906085968	-0.34136348962783813	-0.07712958008050919	0.23266087472438812	-0.7274454832077026	-0.05810195952653885	0.032373372465372086	-0.08525701612234116	0.01137658953666687	-0.45924752950668335	-0.09108497947454453	-0.34424281120300293	-0.4550646245479584	0.08226188272237778	0.6730853319168091	0.7670984864234924	-0.015251919627189636	-0.9069624543190002	-0.03465394675731659	-0.27780598402023315	0.07697854191064835	0.32348692417144775	0.3650476634502411	-0.18719635903835297	0.33403822779655457	0.029841916635632515	-0.4451870918273926	-0.16794823110103607	-0.09283145517110825	0.5289025902748108	-0.2018149197101593	0.5298503041267395	-0.00465802988037467	-0.14221173524856567	0.03425433114171028	-0.08421213179826736	0.15010195970535278	-0.011896234937012196	0.2749447524547577	-0.08147885650396347	0.3120217025279999	-0.2184872180223465	-0.2600187659263611	-0.7361348867416382	-0.2523038983345032	-0.03068694844841957	0.5171509385108948	0.06848228722810745	0.02183997631072998	0.6340553760528564	0.0012919219443574548	-0.19468684494495392	0.3780733048915863	-0.4668845236301422	-0.7843750715255737	-0.2799622118473053	-0.5329774022102356	0.04403780773282051	0.4898868203163147	0.3018588721752167	0.6479299068450928	0.3020949363708496	-0.1350323110818863	-0.14169196784496307	-0.3388848304748535	-0.16929642856121063	-0.21709777414798737	0.11582702398300171	0.3185791075229645	0.12297205626964569	-0.367014080286026	0.22308188676834106	0.32782238721847534	0.195828378200531	-0.5517146587371826	-0.7515526413917542	-0.05853477865457535	-0.4256958067417145	0.7956691384315491	-0.6161611676216125	-0.3445999324321747	-0.21109618246555328	-0.7346242666244507	-0.09896577149629593	0.1550719439983368	0.01181591022759676	-0.41571536660194397	-0.4312061369419098	-0.07336186617612839	0.2935166358947754	-0.2322702556848526	-0.26202520728111267	0.15774698555469513	0.4914270043373108	0.22467368841171265	0.31724515557289124	-1.1275440454483032	0.22685658931732178	0.5294942259788513	-0.28692057728767395	0.7058220505714417	0.725753128528595	0.017962710931897163	0.4587705135345459	-0.42791062593460083	-0.17310358583927155	-0.014735598117113113	0.22553516924381256	-0.5771875977516174	0.6232869625091553	-0.32058611512184143	0.5273019075393677	-0.02011685073375702	0.02554894983768463	0.3358151614665985	-0.23105569183826447	0.21501876413822174	0.29420438408851624	-0.2851209342479706	-0.37042444944381714	0.1965329945087433	0.13507497310638428	0.05384879931807518	-0.10057438164949417	0.5025156736373901	-0.6743692755699158	0.09329942613840103	-0.14230434596538544	-0.5165550112724304	-0.5881404876708984	-0.02934979647397995	0.6474660038948059	-0.5678611993789673	-0.30336499214172363	0.4628165066242218	0.2758577764034271	-0.5104445219039917	-0.2555181384086609	-0.20897671580314636	-0.9329784512519836	-0.21211419999599457	-0.3894696831703186	0.29878950119018555	0.17199140787124634	0.5303094983100891	-0.3673383593559265	-0.04176172614097595	-0.1594681441783905	-0.21015532314777374	-0.12812590599060059	0.5865588784217834	-0.2586449384689331	0.14379429817199707	-0.13523170351982117	-0.6569122672080994	-0.34243303537368774	-0.08389310538768768	-0.3928951621055603	0.5912793874740601	-0.2814796566963196	0.03937510773539543	0.38050001859664917	-0.0950140655040741	-0.4086580276489258	-0.15854552388191223	0.19513936340808868	0.21050162613391876	-0.4008721709251404	0.2456868439912796	-0.3129977881908417	0.0944465920329094	-0.4326639771461487	-0.10270176082849503	0.7556102871894836	-0.4509786367416382	0.10406985878944397	0.5183844566345215	0.12370910495519638	-0.07010838389396667	0.1985175460577011	-0.10339754819869995	0.7614718675613403	-0.2348530888557434	0.09800363332033157	0.298772931098938	0.1202385276556015	-0.23068289458751678	0.05344808101654053	-0.08625337481498718	0.5933176875114441	-0.04849568009376526	0.25592169165611267	0.2150922566652298	0.04844946414232254	0.029631860554218292	0.5517820119857788	-0.8141602277755737	-0.23268236219882965	-0.16420528292655945	0.8033930659294128	0.2901003658771515	0.4670730531215668	-0.5122930407524109	0.8423347473144531	-1.009156584739685	-0.024588847532868385	-0.10590167343616486	0.08639871329069138	-0.2086573839187622	-0.5065913796424866	-0.01824665069580078	0.20133590698242188	-0.5502536296844482	-0.04072941467165947	-0.29141294956207275	-0.2267581671476364	-0.23803825676441193	-0.23474225401878357	0.18800216913223267	0.015307987108826637	0.5296409130096436	-0.6529012322425842	0.9198874831199646	-0.5410946011543274	-0.7362852692604065	0.31511715054512024	0.20120912790298462	-0.05004182457923889	-0.0733194500207901	0.7905406951904297	0.33429285883903503	-0.27347856760025024	0.156217560172081	0.043315086513757706	-0.25029218196868896	0.5671671032905579	0.4587048292160034	0.1911804974079132	0.1434289664030075	-0.022534310817718506	-0.034854188561439514	-0.34879034757614136	0.019532442092895508	0.014887899160385132	0.7353339195251465	0.15571248531341553	0.35947248339653015	-0.08428651839494705	-0.14656180143356323	-0.32021257281303406	0.27422845363616943	-0.518446683883667	-0.016758978366851807	-0.490901917219162	0.12562033534049988	0.1473088413476944	-0.2793271541595459	-0.6304588913917542	0.15153653919696808	0.8598507046699524	-0.18185046315193176	0.12677688896656036	0.6315473318099976	-0.14150114357471466	0.8112585544586182	-0.0996425524353981	-0.3403865098953247	-0.07966768741607666	-0.20737311244010925	-0.30946382880210876	-0.07305127382278442	0.08332043141126633	0.22876222431659698	-0.1444614827632904	0.583709180355072	0.7001540660858154	-0.2051869034767151	-0.5004721283912659	-0.09977973252534866	-0.1283397078514099	0.30826637148857117	-0.1423165649175644	-0.02084728330373764	0.19836969673633575	-0.6001827716827393	-0.5013040900230408	-0.35327044129371643	0.5820138454437256	0.40413928031921387	-0.8283373713493347	-0.3356580138206482
PMC7161957	-0.06553564220666885	0.3520820736885071	-0.5398240685462952	-0.09751364588737488	-0.025539929047226906	-0.04621624946594238	0.06865379214286804	0.47945716977119446	0.4310303330421448	-0.42776206135749817	-0.2755662500858307	-0.8072191476821899	-0.05011793598532677	-0.4182485044002533	0.027215879410505295	0.013152197003364563	0.24639840424060822	0.29931551218032837	-0.32990825176239014	0.05892108380794525	-0.07992653548717499	0.08818905800580978	0.13913077116012573	0.0366373285651207	0.3484025001525879	-0.31862491369247437	-0.25968942046165466	0.16791905462741852	-1.0915182828903198	0.6499597430229187	0.3995731472969055	-0.44681602716445923	-0.4823242127895355	0.052876781672239304	-0.12965665757656097	0.04617883265018463	-0.16615478694438934	0.3669102191925049	0.9247162938117981	-0.357519268989563	0.5413024425506592	-0.32509246468544006	0.2366458922624588	-0.41248005628585815	0.5216322541236877	-0.48264411091804504	-0.11590907722711563	0.24881581962108612	0.5238758325576782	0.5479177832603455	0.07647712528705597	0.049586400389671326	0.1647706925868988	-0.30662670731544495	-0.5452417135238647	0.6280502080917358	0.06400084495544434	-0.3570818603038788	0.5749446153640747	0.740109920501709	0.26371729373931885	0.00954547431319952	-0.06809985637664795	-0.5307917594909668	0.21415740251541138	-1.0718787908554077	-0.27971479296684265	-0.13755293190479279	-0.06378363072872162	0.07296980917453766	-0.29788169264793396	0.19184106588363647	-0.38293176889419556	-0.36218997836112976	0.16115905344486237	-0.049530278891325	-0.37170371413230896	0.36719563603401184	0.498376727104187	0.18627284467220306	-0.40228912234306335	-0.19781135022640228	-0.19959163665771484	0.1570470780134201	-0.057458821684122086	0.04608646407723427	0.46531158685684204	0.33892586827278137	-0.17546691000461578	-0.25276270508766174	0.14336252212524414	0.13185136020183563	0.40814146399497986	-0.310007244348526	0.13071110844612122	0.053951989859342575	0.06519980728626251	-0.4726022779941559	0.8289957046508789	0.5750622153282166	-0.4950193464756012	-0.05378733575344086	0.18999309837818146	-0.14282754063606262	0.12252753227949142	-0.941161572933197	0.3805724084377289	0.020912809297442436	-0.14465300738811493	0.6948599219322205	0.43204644322395325	0.2676703929901123	-0.14238956570625305	-0.07732485979795456	0.34997716546058655	-0.26638737320899963	-0.5232328772544861	-0.610906720161438	0.4531298577785492	-0.8287637233734131	-0.022993799299001694	-0.37777382135391235	-0.03904690593481064	0.7754111886024475	-0.015519673936069012	-0.2862294018268585	-0.3852413296699524	0.6722587943077087	0.25630882382392883	0.3524554669857025	0.32039758563041687	-0.058330293744802475	0.15350216627120972	0.18249748647212982	-0.37064698338508606	-0.29402512311935425	-0.4109410345554352	-0.5364471077919006	-0.5334715843200684	-0.13949085772037506	1.2986103296279907	0.1029558852314949	-0.20265470445156097	0.303446501493454	-0.37552061676979065	0.3616732954978943	-0.220911905169487	0.14449918270111084	-0.21047267317771912	-0.6138654351234436	-0.6468424201011658	0.10589131712913513	-0.09836102277040482	0.08632928133010864	-0.49457693099975586	-0.5243082046508789	-0.3555215001106262	0.3882635235786438	-0.26354292035102844	1.086564302444458	-0.5100846290588379	0.30759480595588684	0.222090944647789	0.0669504776597023	-0.0502702072262764	-0.10569964349269867	0.1711893230676651	-0.11474112421274185	0.13985925912857056	0.4057327210903168	0.3276482820510864	0.41851410269737244	0.11772872507572174	-0.02488846331834793	-0.005261369980871677	-0.4653840661048889	0.27040913701057434	0.8080805540084839	0.07959932088851929	0.20524153113365173	0.0963161289691925	-0.16718025505542755	0.0031842300668358803	-0.40375998616218567	0.2672576606273651	0.29954349994659424	0.04453430324792862	-0.2186785340309143	0.5110814571380615	0.21810230612754822	-0.21369114518165588	-0.42511793971061707	0.35365378856658936	-0.42032578587532043	0.1211186945438385	0.02754577249288559	-0.15332818031311035	0.26899847388267517	1.1636300086975098	0.1438811719417572	0.014019368216395378	0.3910256028175354	0.6605811715126038	-0.38614556193351746	0.6806353330612183	0.022829879075288773	-0.38318106532096863	0.024533763527870178	0.45323026180267334	0.09796397387981415	0.1315430998802185	0.2654021084308624	0.4716394543647766	-0.3941749930381775	-0.4323729872703552	-0.13280454277992249	-0.7523533701896667	-0.5078614354133606	-0.32480013370513916	-0.01077555026859045	0.16691040992736816	-0.24601906538009644	-0.21075129508972168	-0.19407953321933746	-0.7628770470619202	0.05520547181367874	0.024294953793287277	0.6224116683006287	0.5479399561882019	-0.6408266425132751	-0.3340281546115875	0.5818971991539001	-0.19981497526168823	-0.6385940909385681	-0.15180203318595886	0.12397115677595139	-0.38511744141578674	-0.2756275534629822	0.4604067802429199	-0.33702394366264343	-0.37676361203193665	0.12827178835868835	-0.3916565477848053	-0.1018480509519577	0.02437770739197731	-0.24744239449501038	0.9437432885169983	0.3232257068157196	0.37227025628089905	-0.2638477683067322	-0.41873133182525635	-0.04867392033338547	-0.6193338632583618	0.22333355247974396	0.8248565793037415	-0.04019801318645477	-0.1599799394607544	0.1079028844833374	0.1211690828204155	0.03856397047638893	0.1512671858072281	-0.18159641325473785	-0.5905345678329468	0.6036469340324402	-0.1853674054145813	0.8189285397529602	-0.006355895195156336	-0.1262732595205307	0.5604602098464966	0.3440975546836853	0.2405742108821869	0.9513372182846069	0.6736157536506653	0.40254226326942444	0.5320044159889221	0.13871248066425323	0.005015140864998102	0.08903071284294128	-0.13216757774353027	-0.21923227608203888	-0.5035979151725769	0.35639846324920654	-0.09830128401517868	0.4273757338523865	0.2856418490409851	-0.8364683389663696	-0.6385677456855774	-0.07271764427423477	-0.3371451795101166	0.10470299422740936	0.2804754674434662	0.6830536127090454	-0.34051957726478577	0.28676798939704895	-1.0783950090408325	0.16654430329799652	0.6384792327880859	0.13119103014469147	0.044605355709791183	0.06996016204357147
PMC7055868	-0.5429621338844299	-0.16998058557510376	-0.13548265397548676	0.4077308475971222	0.20039470493793488	-0.4146314561367035	-0.198127880692482	0.009186928160488605	0.33804750442504883	-0.0016439848113805056	-0.31658440828323364	-0.5868107080459595	0.28106847405433655	-0.6525623202323914	-0.3024561405181885	-0.16119138896465302	0.2697066366672516	0.07953263819217682	-0.2075306624174118	0.42118123173713684	-0.4362426698207855	-0.2390819787979126	0.21623630821704865	0.59372878074646	0.5253906846046448	-0.23963315784931183	-0.12707264721393585	-0.03998931497335434	-0.14229793846607208	-0.007816867902874947	0.6813099384307861	0.1570936143398285	-0.3844989240169525	0.19447511434555054	-0.34143903851509094	-0.14457784593105316	0.03819025307893753	0.26777589321136475	0.8935723900794983	-0.8761453628540039	0.33253777027130127	0.06579607725143433	0.18034766614437103	-0.48921555280685425	0.23691749572753906	0.018282495439052582	0.029166921973228455	0.21616335213184357	0.3272193372249603	0.031178539618849754	0.025799494236707687	-0.5120983123779297	-0.0019589602015912533	-0.25370386242866516	-0.23643529415130615	0.9678404927253723	0.30077993869781494	-0.21966421604156494	0.6932965517044067	-0.019420873373746872	-0.15086238086223602	0.25865018367767334	-0.07741720974445343	-0.38013556599617004	-0.15721364319324493	-0.5989882946014404	0.15849365293979645	0.0975382849574089	0.08492511510848999	0.5335053205490112	-0.030919039621949196	0.1360844075679779	-0.3422410786151886	-0.2266257405281067	-0.08982308954000473	-0.19123025238513947	0.22802941501140594	0.5362840890884399	0.06189224123954773	-0.06493069976568222	0.11209768056869507	-0.34395739436149597	-0.19875377416610718	-0.28269529342651367	0.06968466937541962	0.00638040853664279	-0.14989793300628662	0.4970937967300415	-0.20657649636268616	-0.2949219346046448	-0.09555155038833618	-0.22536876797676086	0.08807108551263809	-0.1788078099489212	-0.4205295145511627	-0.22505302727222443	-0.18554016947746277	-0.11071592569351196	0.2618594169616699	-0.10390835255384445	0.021516969427466393	0.30387651920318604	0.3617752492427826	0.25298646092414856	0.2234748750925064	-0.6373156309127808	0.7605502009391785	-0.06932304054498672	-0.07888192683458328	0.4453858435153961	0.5421846508979797	-0.18335066735744476	0.43019306659698486	0.1944281905889511	-0.03291403874754906	0.04588709771633148	-0.6140191555023193	-0.12463633716106415	0.28143811225891113	-0.2536865770816803	0.43817806243896484	-0.0633329227566719	-0.027585936710238457	0.34938734769821167	-0.18985843658447266	0.12949562072753906	-0.16334885358810425	0.13684174418449402	0.20964306592941284	0.015186631120741367	-0.10663984715938568	0.08507180958986282	-0.004991733003407717	0.5467996001243591	-0.4470682442188263	-0.1872337907552719	-0.13067835569381714	-0.11835251748561859	-0.5640067458152771	0.36356082558631897	0.8729720115661621	-0.38593316078186035	0.2351592630147934	0.5748046636581421	0.001977035077288747	-0.7460399866104126	-0.2616853415966034	-0.1659461110830307	-0.6070494651794434	-0.5064905285835266	-0.1378422975540161	0.4301125705242157	0.41758477687835693	0.30333569645881653	-0.08206681162118912	-0.10921905189752579	-0.20345798134803772	0.09501795470714569	-0.3951835334300995	0.8774986863136292	0.006182532757520676	-0.10391160845756531	0.10784760117530823	-0.32555440068244934	-0.31321433186531067	-0.39362508058547974	-0.22406981885433197	0.3365306854248047	0.14830386638641357	-0.08833731710910797	0.14297492802143097	-0.29254186153411865	-0.10104763507843018	-0.3419162333011627	-0.05409536510705948	0.12016834318637848	0.2736281156539917	-0.2914382517337799	-0.2512873113155365	0.16320541501045227	-0.04323465749621391	-0.21590811014175415	0.35848915576934814	-0.6807491779327393	0.3336173892021179	0.3547365665435791	-0.21121887862682343	-0.8026614189147949	-0.11763203144073486	-0.09886793047189713	0.2353620082139969	-0.3609562814235687	0.2393411248922348	0.09850014746189117	0.05576321855187416	-0.018952704966068268	0.33156058192253113	-0.020530642941594124	0.5516666769981384	-0.032134126871824265	0.025290444493293762	0.46454909443855286	0.290960431098938	-0.24044516682624817	0.9114214777946472	-0.3465411961078644	-0.09687905013561249	-0.12334175407886505	0.188692107796669	0.23986952006816864	-0.45487701892852783	-0.2707601487636566	0.76385897397995	-0.6852230429649353	0.36389651894569397	0.3114258050918579	0.16383697092533112	-0.6607084274291992	0.007989116944372654	0.2633523643016815	0.14868751168251038	-0.7358067631721497	0.2732214033603668	-0.5166544914245605	-0.4362305700778961	-0.33146944642066956	-0.4265134334564209	0.14915455877780914	0.3828745484352112	0.2838743329048157	-0.20388180017471313	0.5076535940170288	-0.06804891675710678	0.07907174527645111	-0.08999649435281754	-0.22739844024181366	0.018535997718572617	-0.10019572824239731	0.3386140763759613	-0.23784086108207703	-0.5705329179763794	-0.578227698802948	0.010775928385555744	0.05217986926436424	0.13969998061656952	0.4615721106529236	0.3871738910675049	-0.14112088084220886	-0.04193340986967087	-0.18847031891345978	0.21580870449543	-0.12489233165979385	-0.22541852295398712	1.2606103420257568	-0.14529594779014587	-0.009864442050457	0.23971089720726013	0.046628616750240326	-0.1470797210931778	0.09963148832321167	-0.3070133328437805	0.0076145450584590435	-0.3198843002319336	0.6286522746086121	0.11425893008708954	-0.38677728176116943	-0.16987115144729614	0.14757336676120758	0.5527999997138977	0.2935093939304352	0.11576216667890549	0.9777315855026245	-0.3023624122142792	0.2826980650424957	0.24984177947044373	-0.24431779980659485	0.12759289145469666	0.014884117990732193	-0.6015706658363342	-0.212494894862175	-0.13895078003406525	0.11457651108503342	-0.18925990164279938	-0.008883804082870483	0.38609734177589417	-0.2841164171695709	-0.4551421105861664	0.268631249666214	-0.1821414679288864	0.17890505492687225	-0.0869717076420784	0.06476059556007385	0.1654789000749588	-0.02418501488864422	-0.7714634537696838	-0.4073229432106018	0.28243961930274963	0.8093786239624023	-0.1925988346338272	-0.3585963249206543
PMC7081990	0.12909799814224243	0.16057127714157104	-0.4870882034301758	0.1898323893547058	-0.03045813739299774	-0.13362650573253632	0.1750601828098297	0.3068966567516327	0.47856900095939636	-0.3457798659801483	-0.4015599191188812	-0.21979394555091858	-0.15780071914196014	-0.13980668783187866	0.17596811056137085	0.16436678171157837	-0.5213690400123596	0.15846869349479675	-0.23437932133674622	-0.4392886757850647	-0.13159500062465668	0.022807065397500992	0.19748455286026	-0.07572154700756073	0.2882724404335022	-0.028768349438905716	-0.6340405344963074	-0.16685153543949127	-0.49927690625190735	0.547573447227478	0.11695418506860733	0.2483929544687271	-0.09858151525259018	0.10777073353528976	0.1775580197572708	0.24218866229057312	-0.05135779455304146	0.36490336060523987	0.5959741473197937	0.13149532675743103	0.34050458669662476	-0.0371338427066803	0.1347985565662384	-0.1655675172805786	-0.01976255513727665	-0.5283697843551636	-0.03460494428873062	0.027651509270071983	-0.11950362473726273	0.4116781949996948	0.03586484491825104	-0.06545796990394592	0.1398656815290451	-0.28733280301094055	-0.12460115551948547	0.4099428355693817	0.18729932606220245	-0.30577442049980164	0.3424304723739624	0.34600090980529785	0.09489503502845764	0.06825262308120728	-0.3285824954509735	-0.6824600100517273	-0.12800602614879608	-0.22064153850078583	-0.16573761403560638	0.2561735510826111	-0.03571505472064018	0.0539306104183197	-0.4311372637748718	-0.1061546802520752	-0.07270264625549316	-0.9161221385002136	-0.23437336087226868	-0.04688074439764023	-0.17396287620067596	-0.03139315918087959	0.6580479741096497	0.015326450578868389	-0.463559091091156	0.26316705346107483	0.20064635574817657	-0.24034260213375092	-0.2322136014699936	0.17668968439102173	0.2015271782875061	0.2967752516269684	-0.4232145845890045	0.10307645052671432	-0.035938628017902374	-0.3926430940628052	-0.030073348432779312	-0.2673904299736023	0.23665326833724976	-0.07272502779960632	0.12825821340084076	0.02208513207733631	0.4116657078266144	0.17777647078037262	-0.5072303414344788	0.36384010314941406	0.2061861753463745	0.08369482308626175	0.18564726412296295	-0.651142954826355	0.217837393283844	0.04113354533910751	-0.5376728773117065	0.5582168102264404	0.4362204670906067	0.2613360285758972	0.22437012195587158	-0.19883309304714203	-0.057172782719135284	-0.2536340057849884	-0.18117783963680267	-0.6343087553977966	0.3585057854652405	-0.032739222049713135	-0.2624955475330353	-0.8062720894813538	-0.1616903841495514	0.28768980503082275	0.02038659155368805	-0.4561804234981537	-0.20817512273788452	0.443845272064209	0.035859011113643646	0.4934469759464264	0.11117671430110931	-0.09859748929738998	-0.3319706618785858	-0.038344744592905045	-0.1477464884519577	-0.3549743890762329	0.13966718316078186	-0.8254507780075073	-0.32427194714546204	-0.2993025481700897	0.871639609336853	-0.7190579175949097	-0.44382333755493164	0.10205172747373581	0.26422181725502014	0.3599570095539093	-0.4398968815803528	0.2620127499103546	-0.52913498878479	-0.4645818769931793	-0.5323629975318909	0.07314936816692352	0.10911455005407333	0.5159425735473633	-0.20453979074954987	-0.49031829833984375	-0.6787114143371582	0.06499164551496506	0.262771874666214	0.3897292912006378	-0.1004844605922699	0.2601791024208069	-0.02700207568705082	-0.13442492485046387	-0.19885826110839844	-0.10423093289136887	-0.05860515311360359	-0.008014565333724022	-0.06361737102270126	0.49524685740470886	-0.1671086698770523	0.30244290828704834	-0.17087422311306	0.1366838961839676	-0.05052249878644943	-0.250171035528183	-0.4110430181026459	0.5760830044746399	-0.20371998846530914	-0.025083916261792183	0.07243465632200241	0.1464136391878128	0.38205480575561523	-0.49365130066871643	0.19178426265716553	0.15107817947864532	0.19020342826843262	0.08471043407917023	0.3626413345336914	0.08112752437591553	0.33557525277137756	-0.2964007258415222	0.06588996946811676	-0.07329035550355911	0.13119171559810638	0.11198029667139053	0.23091772198677063	-0.07764910161495209	0.42451053857803345	-0.13092610239982605	-0.11237095296382904	0.4211592674255371	0.10393532365560532	-0.15804269909858704	0.36509451270103455	-0.08375570923089981	-0.3464709520339966	-0.02025485597550869	0.5046675801277161	0.08144363760948181	-0.07017835229635239	-0.06974698603153229	0.5229130983352661	-0.4209122359752655	-0.15215064585208893	-0.3694610297679901	-0.5272203087806702	-0.34782907366752625	-0.044280294328927994	-0.07100395858287811	0.3357248902320862	-0.31698986887931824	0.10426316410303116	-0.1284458190202713	-0.20128408074378967	0.07459186017513275	-0.3180369436740875	0.25880858302116394	-0.02689039334654808	-0.26171785593032837	-0.39488908648490906	0.5852945446968079	-0.4571312367916107	-0.6680877804756165	0.12966769933700562	0.2784108817577362	-0.1678759604692459	-0.33254125714302063	0.23068220913410187	-0.054962407797575	-0.47849467396736145	0.3647288680076599	-0.31807518005371094	0.10150090605020523	0.23967385292053223	-0.36032697558403015	0.5531522631645203	0.33831146359443665	-0.06356705725193024	-0.2774639427661896	-0.33478447794914246	0.2965640127658844	0.13197360932826996	0.24910947680473328	0.06436356902122498	0.18291543424129486	-0.3189963698387146	0.16928622126579285	-0.35411718487739563	0.14222654700279236	-0.2645818889141083	-0.27421119809150696	-0.4218639135360718	0.20427946746349335	-0.2754030227661133	0.5521255135536194	-0.14003309607505798	-0.14766232669353485	0.3646450936794281	-0.548166036605835	0.06946831196546555	0.8017090559005737	0.21481038630008698	0.5491254925727844	0.5933991074562073	0.12939652800559998	-0.1463485062122345	0.2978116273880005	-0.0023463843390345573	-0.23064933717250824	-0.2741332948207855	0.20485615730285645	-0.10196682065725327	0.4797482192516327	0.1509956568479538	-0.4185738265514374	-0.7897006273269653	0.23104649782180786	-0.4029768705368042	0.27564844489097595	0.26029661297798157	0.6034409403800964	0.06834365427494049	-0.24571840465068817	-0.6617107391357422	0.12271606177091599	0.24244283139705658	-0.13303658366203308	-0.2693209946155548	0.33749017119407654
PMC7141627	-0.26593217253685	0.2121787816286087	-0.30150991678237915	-0.030800363048911095	-0.12203370034694672	-0.061411961913108826	-0.041494496166706085	0.314997136592865	0.3200327754020691	-0.6149777173995972	-0.311781644821167	-0.6968948841094971	0.14366739988327026	-0.5094882845878601	0.04413981735706329	-0.23141127824783325	0.6399462819099426	0.047048136591911316	0.07064958661794662	0.20278900861740112	0.05577566474676132	0.07445336878299713	0.07291864603757858	0.3311913311481476	0.419318288564682	-0.1804458051919937	-0.10339279472827911	-0.12607666850090027	-0.6902291178703308	0.07994267344474792	0.26798373460769653	-0.5113853812217712	-0.39774635434150696	0.01775245927274227	-0.1905464380979538	0.264657586812973	-0.13668344914913177	0.3815276324748993	0.90627121925354	-0.44776779413223267	0.39008304476737976	-0.11721625179052353	0.08111037313938141	-0.36977100372314453	0.3398371636867523	-0.07954459637403488	0.2972014248371124	0.486459881067276	0.3518517315387726	0.3677157461643219	0.2719973623752594	-0.08908365666866302	0.05361337587237358	-0.27876904606819153	-0.326993465423584	0.4445272982120514	-0.0749107375741005	-0.15237505733966827	0.7570258975028992	0.2071094959974289	0.08481902629137039	0.010895275510847569	-0.08086434006690979	-0.291867733001709	-0.32449015974998474	-0.779092013835907	-0.2728617489337921	0.1770378202199936	0.1696356236934662	0.29166483879089355	-0.13638274371623993	0.1387302279472351	-0.30452480912208557	-0.4035021662712097	-0.05866241455078125	0.06091434508562088	-0.40261149406433105	0.5006492137908936	0.06306682527065277	0.08460471779108047	-0.20018452405929565	-0.31355634331703186	-0.2307519018650055	-0.028466148301959038	-0.05095731467008591	0.10594842582941055	0.16221244633197784	0.6095665097236633	-0.12216993421316147	-0.4486244320869446	0.08438976854085922	-0.04784764349460602	0.3823238015174866	-0.3922995626926422	0.056930407881736755	-0.25112658739089966	0.1366279125213623	-0.08991225808858871	0.24614667892456055	0.21733489632606506	-0.3919568657875061	0.07187879830598831	-0.3502912223339081	-0.02645510621368885	0.19183458387851715	-0.7916256785392761	0.5473628640174866	0.26705655455589294	-0.06401268392801285	0.8692775964736938	0.5413248538970947	-0.14175929129123688	0.07777763158082962	-0.04504579305648804	0.2383372187614441	0.2224443256855011	-0.35067886114120483	-0.24085550010204315	0.01605161838233471	-0.7575597763061523	0.2386694997549057	-0.1616109311580658	0.45447492599487305	0.6383566856384277	-0.38814595341682434	0.29613158106803894	-0.3009617328643799	0.13566571474075317	0.40376153588294983	0.42801761627197266	0.1778201013803482	0.2809584438800812	0.033043187111616135	-0.06752842664718628	-0.4352046847343445	-0.10037321597337723	-0.8956633806228638	-0.15799033641815186	-0.4777876138687134	0.3917531371116638	0.9291086196899414	-0.15397357940673828	-0.17040088772773743	0.3044124245643616	0.008130003698170185	-0.031709641218185425	0.06828884780406952	0.04914071038365364	-0.28714078664779663	-0.6124814748764038	-0.6247234344482422	0.22134187817573547	0.009565535932779312	-0.27559423446655273	-0.3351881504058838	0.09893336147069931	0.3451204299926758	0.3176954388618469	-0.3053518533706665	0.5711333751678467	-0.11691272258758545	0.4596644937992096	-0.027359798550605774	-0.16000978648662567	-0.2798705995082855	-0.4563137888908386	0.27133744955062866	0.3761396110057831	0.11583314836025238	0.5365354418754578	0.4428459405899048	0.19301798939704895	0.0267728753387928	-0.45039603114128113	-0.00993885938078165	-0.13977862894535065	0.7365838885307312	0.6901715993881226	-0.2690369188785553	0.27564117312431335	0.5628546476364136	-0.0918382927775383	0.568818986415863	-0.3044435679912567	0.15238870680332184	0.21071460843086243	-0.07262813299894333	-0.33972758054733276	0.2897278964519501	0.23142564296722412	-0.11200455576181412	-0.4921942353248596	-0.03221915289759636	-0.061611492186784744	0.29993537068367004	-0.7051309943199158	-0.12642373144626617	0.22250552475452423	0.4818692207336426	0.04528110474348068	-0.02033236436545849	0.06652116030454636	0.3150161802768707	-0.2820986807346344	0.6274935007095337	-0.10392392426729202	-0.2009802907705307	-0.1829528957605362	0.12828607857227325	0.1822805106639862	0.15348899364471436	0.13746267557144165	0.3366793394088745	-0.33462876081466675	0.06407694518566132	-0.021556949242949486	-0.3518211543560028	-0.021748919039964676	0.12618887424468994	-0.15772147476673126	0.13918645679950714	-0.5750401020050049	0.005573431495577097	-0.26524636149406433	-0.34129032492637634	0.05232131853699684	-0.20652566850185394	0.18387597799301147	0.19594408571720123	-0.5531813502311707	-0.4282362461090088	0.2843708395957947	0.050929903984069824	-0.5650794506072998	-0.021853163838386536	0.2816575765609741	-0.18903332948684692	-0.5730573534965515	0.5706036686897278	-0.3674907982349396	-0.48378103971481323	-0.5619168877601624	-0.49761322140693665	-0.02751913294196129	-0.3098210096359253	-0.032358501106500626	0.6240901947021484	0.01883670501410961	0.27592137455940247	-0.10207349061965942	-0.34076640009880066	0.1821344643831253	-0.4753037989139557	0.6542759537696838	0.3209571838378906	0.12404114753007889	-0.2217668890953064	-0.029998138546943665	-0.015652723610401154	0.09823240339756012	-0.01696593128144741	-0.14618520438671112	-0.021325018256902695	0.5415356159210205	-0.34114548563957214	0.7071338295936584	0.024831274524331093	-0.13828076422214508	0.6443606615066528	0.04348350316286087	0.1019044741988182	0.7348342537879944	0.14505420625209808	0.2322203814983368	0.030202658846974373	-0.38798198103904724	0.16020400822162628	0.12906865775585175	-0.21174900233745575	0.062441855669021606	-0.3872433602809906	0.14210444688796997	-0.15634076297283173	0.3294050991535187	0.3009735941886902	-0.47011974453926086	-0.12122220546007156	0.14701791107654572	0.08690360933542252	0.6220473051071167	0.21099218726158142	0.30015459656715393	-0.15029549598693848	-0.053439028561115265	-0.5185221433639526	-0.09194909781217575	0.3928922414779663	0.43456390500068665	0.07689086347818375	0.16354545950889587
PMC7062901	-0.47271811962127686	0.10641065239906311	-0.9079961180686951	0.16885221004486084	0.25914084911346436	0.1971297264099121	0.04034428671002388	0.1762760579586029	0.233347550034523	-0.5415274500846863	-0.412259578704834	-0.41172245144844055	0.14365719258785248	-0.596669614315033	0.20623679459095	-0.16634951531887054	0.5198872685432434	0.2912006080150604	-0.2641301155090332	0.2062431424856186	-0.18208205699920654	0.03163139894604683	0.1986342966556549	0.46198856830596924	0.5879197120666504	-0.39719247817993164	-0.5375120043754578	0.19029274582862854	-0.4390873610973358	0.40059372782707214	0.21997451782226562	-0.3591150641441345	-0.7129205465316772	0.4090431034564972	-0.43631628155708313	-0.10689948499202728	0.1445578634738922	0.44900766015052795	0.7440300583839417	-0.4545077383518219	0.6302561163902283	-0.11797767132520676	0.019435783848166466	-0.5261853933334351	0.09951961785554886	-0.5257846713066101	0.2791096270084381	0.4173939526081085	0.2110012322664261	0.1558116227388382	-0.028666440397500992	-0.4352124333381653	0.20339596271514893	-0.23256933689117432	-0.3553449809551239	1.166634202003479	0.29571467638015747	-0.20553754270076752	1.003132939338684	0.33997365832328796	0.0004660710983444005	-0.17617042362689972	0.04877740889787674	-0.796168327331543	-0.2714698910713196	-0.469983845949173	-0.2467924952507019	0.35343435406684875	0.2959531545639038	0.3259056508541107	-0.19280436635017395	0.3295588195323944	-0.0993247926235199	-0.2529350221157074	0.08332491666078568	0.2154061496257782	-0.0896553248167038	0.3542962074279785	-0.3488606810569763	-0.23543311655521393	-0.051763467490673065	-0.028421126306056976	-0.3661743402481079	-0.21856717765331268	0.1785011738538742	-0.26154258847236633	0.2737308442592621	0.7016650438308716	-0.3141205608844757	-0.39643600583076477	0.16647784411907196	0.16041438281536102	0.7675405740737915	-0.2710762619972229	-0.1094350591301918	-0.10016913712024689	-0.22154021263122559	0.1896345466375351	0.30701568722724915	0.22264941036701202	-0.5321938991546631	-0.31015273928642273	0.38360491394996643	-0.11616991460323334	0.18844638764858246	-0.8715990781784058	0.7090378403663635	0.18643823266029358	-0.1615944504737854	1.1251730918884277	-0.13960787653923035	-0.09313283115625381	0.03827715665102005	-0.014567039906978607	0.435258150100708	-0.02316034398972988	-0.5750958919525146	-0.3882928788661957	0.47497498989105225	-0.5425528287887573	0.408232718706131	-0.28392261266708374	-0.13070032000541687	0.864398717880249	-0.19938382506370544	0.06699716299772263	-0.22980709373950958	0.422238290309906	-0.02561151795089245	0.24213792383670807	-0.33147090673446655	0.1752474159002304	0.03343737870454788	0.48181289434432983	-0.3143969178199768	-0.22289301455020905	-0.3251405656337738	-0.17563143372535706	-0.8106343746185303	0.10786627233028412	0.8360344767570496	-0.19913899898529053	-0.6061998605728149	0.25084707140922546	0.05383971333503723	-0.18909376859664917	0.1082674041390419	-0.10507507622241974	-0.42949336767196655	-0.3519846498966217	-0.23301349580287933	0.5166215896606445	0.2579014003276825	-0.0891275405883789	-0.2015201598405838	-0.10901319235563278	-0.2601451575756073	0.5317140221595764	-0.4082068204879761	0.872744083404541	0.1284506618976593	0.06604140996932983	0.121010422706604	-0.4713730216026306	-0.621609628200531	-0.6963079571723938	-0.07493241131305695	0.24641406536102295	0.20307596027851105	1.1459351778030396	0.25668737292289734	0.6557995080947876	-0.30104440450668335	-0.1583888977766037	-0.07384458929300308	0.01737974025309086	0.5587061047554016	0.203032448887825	0.06108873710036278	0.3635670840740204	0.3688264489173889	0.14107969403266907	0.7449089884757996	-0.6903945207595825	0.33366695046424866	0.4616791009902954	0.2610912024974823	-0.6424146294593811	0.011823768727481365	0.27944815158843994	0.022080592811107635	-0.45131510496139526	0.14379453659057617	-0.21500734984874725	0.31565043330192566	-0.04277419671416283	0.1008390411734581	0.1926988661289215	0.5987252593040466	-0.02144014649093151	-0.09010504186153412	0.2655915915966034	0.4829303026199341	-0.3029646575450897	0.8948597311973572	-0.17414027452468872	-0.10789389163255692	-0.15424805879592896	0.08954168856143951	0.20906148850917816	-0.001057918881997466	-0.18548358976840973	0.37463605403900146	-0.5040995478630066	0.33053097128868103	0.08127589523792267	0.0520525760948658	-0.4278342127799988	-0.14397269487380981	0.17520473897457123	0.22604168951511383	-0.30502042174339294	-0.08728553354740143	-0.5219190716743469	-0.3965386152267456	-0.37185055017471313	-0.14414648711681366	0.3098554313182831	0.553801953792572	-0.36341044306755066	-0.5053211450576782	-0.03903517127037048	-0.13343119621276855	-0.008247245103120804	-0.03342273086309433	0.20499642193317413	-0.18356738984584808	-0.08932900428771973	0.3028360903263092	-0.36323344707489014	-0.33013856410980225	-0.6512477397918701	-0.6760725975036621	-0.23675312101840973	-0.2216215431690216	-0.14551974833011627	0.5756974816322327	0.25428780913352966	0.4005553126335144	0.08228032290935516	-0.28185710310935974	-0.015338697470724583	-0.6404045224189758	0.3537019193172455	0.3902013301849365	0.019840531051158905	-0.2888928949832916	0.052027519792318344	-0.4243730306625366	0.30722591280937195	-0.17604100704193115	0.08822982758283615	-0.3493526577949524	0.37611454725265503	-0.23782016336917877	0.5772587060928345	-0.23317544162273407	0.06502725929021835	0.6137828230857849	0.23454509675502777	-0.20733343064785004	1.284185528755188	-0.14021997153759003	0.04716072604060173	0.12872810661792755	-0.714199960231781	-0.30740082263946533	0.30325257778167725	0.07751904428005219	-0.0456065759062767	-0.30611637234687805	0.0813983827829361	-0.3219012916088104	0.33803054690361023	0.2795870006084442	-0.3908253610134125	-0.5864118337631226	0.17062687873840332	-0.13063651323318481	0.1849728524684906	0.47290176153182983	0.3737606108188629	0.016898443922400475	0.05293295904994011	-0.7527162432670593	-0.5587875247001648	0.01256919652223587	0.3891417384147644	-0.02554018795490265	0.09980840235948563
PMC6985126	0.035318709909915924	0.00919625349342823	-0.41612735390663147	-0.01564147137105465	-0.28431370854377747	-0.20212240517139435	0.07952603697776794	0.41870230436325073	0.5096566081047058	-0.39997437596321106	-0.18513597548007965	-0.1802392601966858	0.1627991944551468	-0.26073411107063293	0.11810772866010666	0.025547459721565247	0.5143309235572815	-0.03222408890724182	0.4086557626724243	0.12446866929531097	0.19591985642910004	-0.09204578399658203	0.2683429718017578	0.2823053002357483	0.28869062662124634	0.07603154331445694	-0.29311713576316833	0.08052395284175873	-0.3753344416618347	0.0285124983638525	0.06972980499267578	-0.5425835251808167	-0.14897648990154266	-0.12567885220050812	-0.12254524230957031	0.11965811997652054	-0.30502355098724365	0.40292778611183167	0.9138193726539612	-0.8365409970283508	0.36403828859329224	0.06397319585084915	-0.05016612261533737	-0.13241785764694214	0.3621709942817688	-0.13878501951694489	0.4201927185058594	0.5606945753097534	0.2507038116455078	0.12285822629928589	0.1555934101343155	-0.06515044718980789	0.06691604852676392	-0.18525826930999756	-0.1956333965063095	0.5808823108673096	-0.1070374920964241	-0.20325490832328796	0.9483668208122253	0.24094106256961823	-0.1976323127746582	0.24518562853336334	-0.1605030745267868	-0.411543071269989	-0.2465721219778061	-0.3020899295806885	-0.3973618149757385	0.1079210489988327	0.18146905303001404	0.18210314214229584	-0.21641314029693604	0.24410438537597656	-0.14018888771533966	-0.39256909489631653	0.0964173749089241	0.23700669407844543	-0.29554274678230286	0.24429656565189362	0.044147733598947525	0.16263791918754578	0.21474125981330872	-0.19395233690738678	-0.0908479392528534	-0.22704307734966278	-0.030229441821575165	-0.032602451741695404	-0.1709049791097641	0.5319114923477173	-0.29636719822883606	-0.3544428050518036	0.06400399655103683	-0.08542289584875107	0.1219402626156807	-0.1993626356124878	0.09211840480566025	-0.32259881496429443	0.05115237087011337	-0.21827024221420288	-0.09119205921888351	0.0477801077067852	-0.17979583144187927	0.1720949113368988	-0.31039759516716003	-0.1028711348772049	0.4081727862358093	-0.9443723559379578	0.26003605127334595	0.3233179450035095	0.19271180033683777	0.7375534176826477	0.16946560144424438	0.16763579845428467	0.002238629851490259	0.3884819746017456	0.517892062664032	0.4987800121307373	-0.09546943753957748	-0.21817095577716827	0.24772779643535614	-0.6829025745391846	0.31550663709640503	-0.07034820318222046	0.15141171216964722	0.36026260256767273	-0.025552671402692795	0.3925657272338867	-0.3187938630580902	0.10042639821767807	0.24866656959056854	0.46399739384651184	0.04846426472067833	0.16501368582248688	-0.01836283877491951	-0.22993461787700653	-0.3139898478984833	-0.09416170418262482	-0.610014796257019	-0.5137516260147095	-0.8001026511192322	0.2797744870185852	0.7103129625320435	-0.2320581078529358	-0.17670877277851105	0.42971980571746826	0.29212096333503723	-0.10915857553482056	0.0340890996158123	0.12530134618282318	-0.04486782103776932	-0.960334300994873	-0.46663907170295715	0.33626577258110046	0.07563541829586029	-0.24095119535923004	-0.32747161388397217	0.24713991582393646	0.2152876853942871	0.5172330141067505	-0.2941245436668396	0.33402180671691895	-0.29554176330566406	0.3814026713371277	0.07728414982557297	-0.1915140599012375	-0.5043262243270874	-0.326484739780426	0.0016724355518817902	0.21993009746074677	-0.17394216358661652	0.751759946346283	0.37027058005332947	0.26091697812080383	-0.3132549822330475	-0.15394678711891174	-0.13653028011322021	0.17080941796302795	0.45701465010643005	0.7481570243835449	-0.032157108187675476	0.103106789290905	0.4143240451812744	-0.2421792894601822	0.8085099458694458	-0.22626718878746033	0.08383563160896301	0.1775026023387909	0.03423555940389633	-0.2964763343334198	0.08892113715410233	-0.10921689122915268	0.14478717744350433	-0.4144895672798157	-0.018253346905112267	-0.10211856663227081	0.10761521756649017	-0.4415503740310669	0.026358598843216896	0.5593966245651245	0.22090749442577362	-0.10026659816503525	-0.026120511814951897	0.08162309974431992	0.3092557489871979	-0.030645960941910744	0.8319793343544006	-0.03786015138030052	-0.24021248519420624	-0.20066435635089874	-0.02420344389975071	0.2226535826921463	0.18932805955410004	0.10114630311727524	0.2727070748806	-0.38544735312461853	-0.24418053030967712	0.33118706941604614	-0.39478087425231934	0.04966474696993828	0.1026037186384201	-0.22451567649841309	0.3910776376724243	-0.8292544484138489	-0.07166211307048798	-0.239047572016716	-0.30951976776123047	-0.06326454132795334	-0.1902673989534378	0.10982248187065125	0.06780663132667542	-0.45494499802589417	-0.4677831828594208	0.3677285313606262	-0.20845869183540344	-0.5052202939987183	-0.015759512782096863	0.18189199268817902	-0.29771289229393005	-0.33318474888801575	0.31136554479599	-0.09160857647657394	-0.43266358971595764	-0.4412107467651367	-0.5277958512306213	-0.042554132640361786	-0.03272632136940956	-0.09872366487979889	0.678871214389801	-0.07500636577606201	0.29877546429634094	0.0018587707309052348	-0.29486924409866333	-0.11961391568183899	-0.3681439161300659	0.5517104268074036	0.3875085711479187	0.2730976939201355	-0.28821033239364624	0.04235823079943657	0.18261690437793732	0.548461377620697	-0.21267621219158173	-0.1863795816898346	-0.09930065274238586	0.12475340068340302	-0.5882197618484497	0.44498544931411743	-0.1369001865386963	-0.15319466590881348	0.492369145154953	-0.10048800706863403	0.14183032512664795	0.8782148361206055	-0.1398942917585373	0.25945916771888733	-0.01835332252085209	-0.7812010049819946	0.17274123430252075	0.18389195203781128	-0.2708883285522461	0.19474424421787262	-0.36570996046066284	0.4198956787586212	-0.3953857123851776	0.5139430165290833	0.39748913049697876	-0.3901055157184601	-0.4506163001060486	0.1703493595123291	0.2128799557685852	0.5588765740394592	0.3119714558124542	0.12145034223794937	0.02566719613969326	-0.14428067207336426	-0.3959689438343048	-0.16287486255168915	0.4767400920391083	0.1702604442834854	-0.1871330887079239	0.16784285008907318
PMC7104723	-0.2691810727119446	-0.12749388813972473	-0.8516973853111267	-0.1883154660463333	0.16921760141849518	-0.30771952867507935	-0.27806270122528076	0.2728525698184967	0.41305625438690186	-0.38519564270973206	-0.034357234835624695	-0.3589407503604889	0.09211911261081696	-0.16305384039878845	-0.3323782980442047	0.21486668288707733	0.31154072284698486	0.14834627509117126	-0.0763648971915245	-0.23008055984973907	-0.0072252824902534485	0.06703014671802521	0.20572161674499512	0.31145980954170227	0.6782840490341187	-0.33002179861068726	-0.2421160191297531	0.14924755692481995	-0.6450687050819397	0.3569381535053253	0.25574666261672974	-0.3258422911167145	-0.15567952394485474	-0.22101442515850067	-0.1739860475063324	0.31292635202407837	-0.05180585756897926	0.24839074909687042	0.06938038766384125	-0.29875287413597107	0.3702146112918854	0.0408049002289772	0.15983028709888458	-0.14993417263031006	0.23641613125801086	-0.34724196791648865	0.027648691087961197	0.06966139376163483	-0.26724037528038025	0.10537294298410416	0.02100297249853611	-0.016814831644296646	0.27801018953323364	-0.2035844326019287	-0.2805129289627075	0.007994407787919044	0.22093231976032257	-0.12793488800525665	0.3787229359149933	0.8317710161209106	0.2292490452528	0.011362459510564804	-0.3434002697467804	-0.29036304354667664	0.1641007959842682	-0.4396829307079315	-0.5475251078605652	0.026251917704939842	0.18603841960430145	0.5031650066375732	-0.48065948486328125	0.24739304184913635	-0.26719173789024353	-0.6653909683227539	0.23507440090179443	-0.2019207924604416	-0.7590866088867188	-0.06535258144140244	0.07779543846845627	0.26824524998664856	-0.51129549741745	0.10725121945142746	-0.1696169376373291	-0.23906207084655762	0.17723362147808075	0.21447019279003143	0.40106838941574097	0.34489884972572327	-0.2146579474210739	-0.06472709029912949	0.0039657289162278175	0.17629116773605347	0.00945008173584938	-0.3931770324707031	-0.1591566503047943	0.11264021694660187	-0.09583354741334915	-0.2589010000228882	0.3756503164768219	0.5176650285720825	0.019616805016994476	-0.010998785495758057	-0.23048780858516693	0.20685496926307678	0.08423511683940887	-0.5300833582878113	0.2287731021642685	0.13890698552131653	0.15434040129184723	0.20248426496982574	0.4398185908794403	-0.05541530251502991	-0.188514843583107	0.0016518685733899474	0.31606945395469666	0.12694407999515533	-0.33398789167404175	-0.20371998846530914	0.23111788928508759	-0.6613454818725586	0.1398361623287201	-0.21786192059516907	-0.16503405570983887	0.48957180976867676	-0.1371525675058365	-0.11309515684843063	-0.6844196915626526	0.4657302498817444	0.2516956329345703	-0.22482600808143616	0.07680297642946243	-0.11658593267202377	0.17118355631828308	-0.008007369004189968	-0.1838204264640808	-0.10272010415792465	-0.1814066469669342	-0.32205629348754883	-0.4187454879283905	0.2964169383049011	0.8663724660873413	-0.1426021158695221	-0.07805822789669037	-0.025339381769299507	0.22768856585025787	0.4146997034549713	-0.7807570099830627	0.1146819218993187	0.02039606124162674	-0.6347980499267578	-0.5657593607902527	-0.31691527366638184	-0.16861532628536224	-0.026252301409840584	-0.2710411548614502	-0.34575679898262024	-0.22397436201572418	0.1343833953142166	-0.1188654974102974	0.14973221719264984	-0.3395981788635254	0.4433397650718689	0.27360597252845764	-0.14529216289520264	-0.27234748005867004	-0.12022653222084045	0.028915047645568848	0.1540747731924057	-0.2556309401988983	0.08882420510053635	0.24307402968406677	0.23907986283302307	0.4405337870121002	-0.10135826468467712	-0.0754830464720726	-0.05056289583444595	-0.1732504516839981	0.29749390482902527	-0.1313765048980713	0.3402095139026642	0.42403313517570496	0.04575654864311218	0.2273467779159546	-0.4890369772911072	-0.17882777750492096	0.18478642404079437	0.1897164136171341	-0.2755744457244873	0.34088659286499023	-0.07900988310575485	-0.17899318039417267	-0.564220666885376	0.10741762071847916	-0.4692186117172241	0.42374080419540405	-0.13097809255123138	0.47713103890419006	0.37360477447509766	0.35602834820747375	-0.3295944333076477	-0.37010595202445984	-0.13209964334964752	0.4829687476158142	-0.24525080621242523	0.29690155386924744	0.17520417273044586	-0.3166905641555786	0.004349701106548309	0.22132474184036255	-0.20251676440238953	-0.04400379955768585	0.1437615305185318	0.11080066114664078	-0.26993459463119507	-0.2865709662437439	-0.09324409067630768	0.02118091471493244	0.01959020085632801	-0.142940953373909	-0.020516933873295784	0.34726059436798096	-0.5722830891609192	-0.0301277507096529	0.1099354475736618	-0.1614944338798523	0.015534293837845325	-0.135275200009346	0.2537204623222351	0.04747932776808739	-0.11800124496221542	-0.38842108845710754	0.41978204250335693	-0.2462199628353119	-0.3701874911785126	-0.23086270689964294	-0.12021766602993011	-0.28068462014198303	-0.35800182819366455	0.5183933973312378	-0.20330029726028442	-0.11249033361673355	-0.07584989815950394	-0.4083983302116394	0.2935199737548828	-0.1392604112625122	-0.48857179284095764	1.1255228519439697	0.43651068210601807	0.06543347984552383	0.22627228498458862	-0.1487847864627838	-0.04847611486911774	-0.21842145919799805	0.4647263288497925	0.2317519187927246	0.21638323366641998	-0.043010421097278595	0.08855076134204865	-0.3568659722805023	-0.13627320528030396	0.008108960464596748	-0.13584206998348236	-0.19126607477664948	0.7261566519737244	0.2895227074623108	0.5488147139549255	0.5003409385681152	-0.2982134521007538	0.06665536016225815	0.04387209936976433	0.16788089275360107	1.380140781402588	0.30654165148735046	0.3358857035636902	0.355869859457016	-0.45849353075027466	0.33366653323173523	-0.00885391142219305	-0.22156912088394165	0.17628729343414307	-0.3177334666252136	0.1818748563528061	-0.09895503520965576	0.3320215344429016	0.025918256491422653	-0.6023085117340088	-0.28131556510925293	0.2126682847738266	-0.14203451573848724	0.3799446225166321	0.4320301115512848	0.3404260575771332	0.12533354759216309	-0.03595057502388954	-0.7207424640655518	-0.061783745884895325	0.4697352647781372	0.40445131063461304	-0.3784439265727997	0.5787354111671448
