document	feat_0	feat_1	feat_2	feat_3	feat_4	feat_5	feat_6	feat_7	feat_8	feat_9	feat_10	feat_11	feat_12	feat_13	feat_14	feat_15	feat_16	feat_17	feat_18	feat_19	feat_20	feat_21	feat_22	feat_23	feat_24	feat_25	feat_26	feat_27	feat_28	feat_29	feat_30	feat_31	feat_32	feat_33	feat_34	feat_35	feat_36	feat_37	feat_38	feat_39	feat_40	feat_41	feat_42	feat_43	feat_44	feat_45	feat_46	feat_47	feat_48	feat_49	feat_50	feat_51	feat_52	feat_53	feat_54	feat_55	feat_56	feat_57	feat_58	feat_59	feat_60	feat_61	feat_62	feat_63	feat_64	feat_65	feat_66	feat_67	feat_68	feat_69	feat_70	feat_71	feat_72	feat_73	feat_74	feat_75	feat_76	feat_77	feat_78	feat_79	feat_80	feat_81	feat_82	feat_83	feat_84	feat_85	feat_86	feat_87	feat_88	feat_89	feat_90	feat_91	feat_92	feat_93	feat_94	feat_95	feat_96	feat_97	feat_98	feat_99	feat_100	feat_101	feat_102	feat_103	feat_104	feat_105	feat_106	feat_107	feat_108	feat_109	feat_110	feat_111	feat_112	feat_113	feat_114	feat_115	feat_116	feat_117	feat_118	feat_119	feat_120	feat_121	feat_122	feat_123	feat_124	feat_125	feat_126	feat_127	feat_128	feat_129	feat_130	feat_131	feat_132	feat_133	feat_134	feat_135	feat_136	feat_137	feat_138	feat_139	feat_140	feat_141	feat_142	feat_143	feat_144	feat_145	feat_146	feat_147	feat_148	feat_149	feat_150	feat_151	feat_152	feat_153	feat_154	feat_155	feat_156	feat_157	feat_158	feat_159	feat_160	feat_161	feat_162	feat_163	feat_164	feat_165	feat_166	feat_167	feat_168	feat_169	feat_170	feat_171	feat_172	feat_173	feat_174	feat_175	feat_176	feat_177	feat_178	feat_179	feat_180	feat_181	feat_182	feat_183	feat_184	feat_185	feat_186	feat_187	feat_188	feat_189	feat_190	feat_191	feat_192	feat_193	feat_194	feat_195	feat_196	feat_197	feat_198	feat_199	feat_200	feat_201	feat_202	feat_203	feat_204	feat_205	feat_206	feat_207	feat_208	feat_209	feat_210	feat_211	feat_212	feat_213	feat_214	feat_215	feat_216	feat_217	feat_218	feat_219	feat_220	feat_221	feat_222	feat_223	feat_224	feat_225	feat_226	feat_227	feat_228	feat_229	feat_230	feat_231	feat_232	feat_233	feat_234	feat_235	feat_236	feat_237	feat_238	feat_239	feat_240	feat_241	feat_242	feat_243	feat_244	feat_245	feat_246	feat_247	feat_248	feat_249	feat_250	feat_251	feat_252	feat_253	feat_254	feat_255	feat_256	feat_257	feat_258	feat_259	feat_260	feat_261	feat_262	feat_263	feat_264	feat_265	feat_266	feat_267	feat_268	feat_269	feat_270	feat_271	feat_272	feat_273	feat_274	feat_275	feat_276	feat_277	feat_278	feat_279	feat_280	feat_281	feat_282	feat_283	feat_284	feat_285	feat_286	feat_287	feat_288	feat_289	feat_290	feat_291	feat_292	feat_293	feat_294	feat_295	feat_296	feat_297	feat_298	feat_299
838870_v1.xml	-0.48025575280189514	-0.17160044610500336	-0.038857899606227875	-0.02104923129081726	-0.12394652515649796	0.0005349303246475756	0.09343846887350082	0.047984350472688675	0.14509889483451843	-0.4107796847820282	-0.36997807025909424	-0.6623626351356506	0.19320239126682281	-0.2614467740058899	-0.2584065794944763	-0.28652146458625793	0.7625281810760498	-0.4871186316013336	-0.003926352597773075	0.22747600078582764	0.197980597615242	-0.3244248330593109	0.22966374456882477	0.6130408048629761	0.48410168290138245	-0.1945917010307312	-0.3257792890071869	0.13593463599681854	-0.09377527236938477	-0.23376798629760742	0.341820627450943	-0.16128389537334442	-0.28525665402412415	-0.015841685235500336	-0.3747871220111847	-0.13078196346759796	-0.07457517832517624	0.3788294494152069	0.7672846913337708	-0.8807681798934937	0.029825106263160706	-0.17212539911270142	-0.17636147141456604	-0.5613421201705933	0.18923553824424744	-0.3879937529563904	0.5607419610023499	0.1055544912815094	0.2612954378128052	0.29283732175827026	0.4529142677783966	-0.4737924039363861	0.10360441356897354	-0.43282952904701233	-0.45222988724708557	0.7392292022705078	-0.011703821830451488	-0.07928008586168289	1.0516901016235352	-0.19668173789978027	-0.09924043715000153	0.09199365228414536	-0.0821857675909996	-0.22697772085666656	-0.5414438843727112	-0.39090731739997864	0.056302510201931	0.4646678864955902	0.4219323992729187	0.9622191786766052	0.028205517679452896	-0.03529553487896919	-0.17743000388145447	-0.35579124093055725	-0.27348122000694275	0.39173656702041626	-0.3925304412841797	0.32004889845848083	0.14288140833377838	0.1683502346277237	0.3014329671859741	-0.4075695276260376	-0.3591495454311371	-0.3940466642379761	0.27978673577308655	-0.3522177040576935	-0.17553603649139404	0.514057457447052	-0.3883128762245178	-0.25437280535697937	-0.23224236071109772	-0.147565096616745	0.5049583911895752	-0.07603371888399124	-0.08317527174949646	-0.33092811703681946	0.030039342120289803	0.4562561511993408	0.28680410981178284	0.13226790726184845	-0.376878559589386	-0.1932338923215866	-0.03561537340283394	0.11131063103675842	0.19736944139003754	-0.5507491827011108	0.32758021354675293	-0.04442891106009483	0.005009096581488848	0.8868743181228638	0.5764200687408447	-0.4721636474132538	0.33685171604156494	0.45866096019744873	-0.05981018766760826	-0.01867341622710228	-0.503077507019043	-0.04791463539004326	0.22563841938972473	-0.6569535136222839	0.3479134142398834	-0.5017321109771729	-0.03638768941164017	0.41886284947395325	-0.23942968249320984	0.5912238359451294	-0.1291603147983551	0.4564942419528961	0.3098618686199188	0.3868047297000885	-0.002654999727383256	0.25775575637817383	-0.08633251488208771	0.28912654519081116	-0.2325015515089035	-0.19074679911136627	-0.37750792503356934	0.2050594538450241	-0.9091293811798096	0.4572995901107788	0.5455071926116943	-0.07274002581834793	0.08597058057785034	0.7430107593536377	0.14167071878910065	-0.73594069480896	0.33446410298347473	0.08635329455137253	-0.2692345678806305	-0.9099418520927429	-0.08722087740898132	0.5241444706916809	0.428426593542099	-0.03384479507803917	-0.10318420082330704	0.407164067029953	0.09072838723659515	0.6078245043754578	-0.7916034460067749	0.7224106788635254	-0.21808260679244995	0.28713443875312805	0.05171549320220947	-0.5734401941299438	-0.18876266479492188	-0.2791597247123718	-0.04077385738492012	0.5619779825210571	0.046997178345918655	0.3792728781700134	0.5431241393089294	-0.11803285032510757	-0.09147974103689194	-0.18541599810123444	0.04808297008275986	0.6306185722351074	0.5996896624565125	0.1746397614479065	-0.13881511986255646	0.46243053674697876	0.48366111516952515	-0.004262847825884819	0.9634179472923279	-0.20103566348552704	0.187764972448349	0.2842700481414795	-0.12831951677799225	-0.6666113138198853	-0.26168349385261536	0.26062583923339844	0.0434422492980957	-0.4031082093715668	0.24086682498455048	-0.08757920563220978	0.45387858152389526	-0.2766105830669403	0.4956088066101074	0.24003495275974274	0.5057479739189148	-0.08552728593349457	-0.4711538553237915	0.17444643378257751	-0.09881272912025452	-0.3315919041633606	0.7875123023986816	-0.3510318398475647	-0.15509435534477234	-0.1768537312746048	-0.04724051430821419	0.0637505054473877	0.35121601819992065	-0.10340242832899094	0.3348751366138458	-0.38012605905532837	-0.010269408114254475	0.10966960340738297	-0.14141440391540527	-0.2476881742477417	0.02063479833304882	0.17833352088928223	0.26013556122779846	-0.44080257415771484	0.20603951811790466	-0.45827919244766235	-0.4609987139701843	-0.4003002941608429	-0.31144335865974426	-0.0264293123036623	0.19572332501411438	-0.3322935700416565	-0.6016444563865662	0.38503310084342957	-0.12644866108894348	0.05714021250605583	0.11976449191570282	0.11666682362556458	-0.42043593525886536	-0.13218486309051514	0.5189127326011658	-0.23587864637374878	-0.4341425597667694	-0.9205933213233948	0.07692765444517136	-0.03457995131611824	-0.2277560830116272	0.33616894483566284	0.5312445163726807	-0.06689466536045074	0.5156421661376953	-0.11095692217350006	-0.2768494188785553	0.16726316511631012	-0.2808763384819031	1.144411325454712	0.4901268482208252	-0.044997937977313995	-0.02745956927537918	0.01296776719391346	0.16589170694351196	0.60617995262146	-0.4762524962425232	-0.27480649948120117	-0.02378886379301548	0.4376824200153351	0.041555583477020264	0.04695004224777222	-0.2837691903114319	0.25862351059913635	0.47480612993240356	0.151353657245636	0.003453513840213418	0.9795367121696472	-0.777150571346283	-0.004128704778850079	-0.007322508376091719	-0.9620299935340881	-0.38324102759361267	0.004562993999570608	-0.5212895274162292	0.17048686742782593	-0.14591123163700104	0.18003185093402863	-0.5301814675331116	0.28313297033309937	0.0035737568978220224	-0.2621811330318451	-0.4039451777935028	0.7802944779396057	0.2196643352508545	0.4807922840118408	0.08504752069711685	-0.031032811850309372	0.06653597205877304	-0.16700483858585358	-0.739374041557312	-0.294772207736969	0.2096518725156784	0.638616144657135	-0.02109513431787491	0.30728980898857117
2020.02.13.945485_v1.xml	-0.5265272855758667	0.013894157484173775	-0.05910028517246246	0.04150916263461113	-0.2010006308555603	-0.08786509186029434	0.11930974572896957	0.1619836390018463	0.1839113086462021	-0.3260515630245209	-0.21741995215415955	-0.8284088969230652	0.19672013819217682	-0.3480801284313202	-0.30585986375808716	0.06938932836055756	0.5724033713340759	-0.32770153880119324	0.11799262464046478	0.126617893576622	0.11216256022453308	-0.40837547183036804	0.0774959921836853	0.7322157025337219	0.2706523835659027	-0.12279277294874191	-0.22936095297336578	0.08721669763326645	-0.43095239996910095	-0.286164253950119	0.5179741978645325	-0.6822993755340576	-0.4289376735687256	-0.04426594078540802	-0.49524569511413574	0.14416320621967316	-0.2746402323246002	0.3307271897792816	0.5083333849906921	-1.0002471208572388	0.16192637383937836	-0.03703594580292702	0.10737235844135284	-0.4929923713207245	0.35321882367134094	-0.31762492656707764	0.37262222170829773	0.01383944507688284	0.1379772424697876	0.16945379972457886	0.4819597005844116	-0.3340459167957306	0.0942339152097702	-0.031809478998184204	-0.31020084023475647	0.5039643049240112	0.155503511428833	0.08145938068628311	0.8846222758293152	-0.007541165687143803	-0.23516122996807098	0.1251794546842575	-0.20526614785194397	-0.6310247182846069	-0.09365573525428772	-0.28855040669441223	-0.17539305984973907	0.044240497052669525	0.4487627148628235	0.800618052482605	-0.12031438201665878	0.2533947825431824	-0.2446104735136032	-0.347731351852417	-0.15025930106639862	0.31395646929740906	-0.6275213956832886	0.3417869210243225	0.07966610044240952	0.20517897605895996	0.27683430910110474	-0.3626566231250763	-0.4758050739765167	-0.33170029520988464	0.3333432674407959	-0.2588292360305786	0.04080969840288162	0.5090827345848083	-0.2676631510257721	-0.37184110283851624	-0.03219476342201233	0.021810481324791908	0.5292389392852783	-0.2388489842414856	0.1187889575958252	-0.05210127681493759	-0.044283997267484665	0.16167640686035156	0.2818228304386139	0.49906113743782043	0.024711716920137405	-0.16948075592517853	-0.07067014276981354	-0.31456223130226135	-0.011357128620147705	-0.1765815168619156	0.5218458771705627	0.08805109560489655	0.44617244601249695	0.4433695673942566	0.42674222588539124	-0.42163628339767456	0.11263100057840347	0.26814326643943787	0.13943640887737274	0.037158187478780746	-0.5347556471824646	-0.27518585324287415	0.27332499623298645	-0.8782987594604492	0.24047067761421204	-0.49228090047836304	0.06978034228086472	0.5675323605537415	0.005801219027489424	0.24038030207157135	-0.37951919436454773	0.7065494060516357	0.31002044677734375	0.17267926037311554	-0.09979964792728424	0.09407653659582138	-0.01258010882884264	0.1895749419927597	-0.49395158886909485	-0.18705056607723236	-0.24109093844890594	0.1816280335187912	-0.820009171962738	0.6586403846740723	0.7935509085655212	0.08266059309244156	-0.006222803611308336	0.6849010586738586	-0.4835188090801239	-0.4553045630455017	0.1608400046825409	0.09758197516202927	0.0015407635364681482	-0.923068642616272	-0.15956418216228485	0.6844176650047302	0.07010077685117722	-0.44147351384162903	-0.22859258949756622	0.04340174049139023	-0.04014645889401436	0.5536220073699951	-0.9762360453605652	0.6339540481567383	-0.31984150409698486	0.3169962465763092	0.11940717697143555	-0.4537527859210968	-0.13024786114692688	-0.24299342930316925	-0.06492473930120468	0.45420631766319275	-0.14209967851638794	0.5766728520393372	0.2608477771282196	-0.006103769410401583	-0.06454367935657501	-0.20777253806591034	-0.14711931347846985	0.27074024081230164	0.38795769214630127	0.16305898129940033	0.023445408791303635	0.322421133518219	0.5566226243972778	0.054368533194065094	0.45658281445503235	-0.5005974769592285	0.18750125169754028	0.33827489614486694	-0.33211058378219604	-0.6751328706741333	0.01344816293567419	0.19117945432662964	-0.19869787991046906	-0.5508286952972412	0.18647567927837372	-0.1871746927499771	0.563673734664917	0.11819133162498474	0.2646728456020355	0.25886470079421997	0.13108518719673157	0.009297685697674751	-0.36966562271118164	0.23126007616519928	-0.08972041308879852	-0.43006688356399536	0.779459536075592	-0.30899325013160706	-0.30026936531066895	0.10877124220132828	0.052232444286346436	0.13031572103500366	0.47527116537094116	0.3239465653896332	0.11733546108007431	-0.22028231620788574	-0.1313529908657074	0.2530822455883026	-0.124392069876194	-0.3129290044307709	-0.06444992870092392	0.31556791067123413	0.3504701852798462	-0.6018196940422058	-0.02951100841164589	-0.5297566652297974	-0.4791185259819031	-0.18051788210868835	-0.3194979727268219	0.14039283990859985	0.2128894180059433	-0.32237711548805237	-0.45451828837394714	0.19049660861492157	0.1369527131319046	-0.1056956797838211	-0.1266203075647354	0.0037457533180713654	-0.5638113021850586	-0.0977715328335762	0.41488268971443176	-0.1355646401643753	-0.06792813539505005	-0.821115255355835	-0.18981777131557465	-0.11083458364009857	-0.09605415910482407	0.27292051911354065	0.7495211362838745	-0.0962756797671318	0.4983961582183838	0.23968744277954102	-0.11742730438709259	0.022996380925178528	-0.2995154559612274	0.5928060412406921	0.8801218867301941	0.19077356159687042	0.032228682190179825	0.11729073524475098	-0.108657106757164	0.43908509612083435	-0.18702997267246246	-0.3997684419155121	-0.3370976746082306	0.5487703680992126	0.0536746084690094	0.19672898948192596	-0.2187904417514801	0.15833154320716858	0.37718823552131653	0.32378634810447693	0.36887672543525696	0.9743987321853638	-0.6534803509712219	0.33689695596694946	0.17011962831020355	-0.9378061890602112	-0.1848841905593872	0.1877930760383606	-0.6740763187408447	0.4510209560394287	-0.32544782757759094	0.2171504944562912	-0.25168952345848083	0.20623454451560974	0.06230175122618675	-0.24461287260055542	-0.5068319439888	0.568671703338623	0.15375390648841858	0.39561787247657776	-0.13001306354999542	0.2960395812988281	-0.1581210196018219	0.06917424499988556	-0.8167562484741211	-0.07058015465736389	0.5096055865287781	0.4872533082962036	-0.03290041163563728	0.3567103147506714
2020.01.13.905190_v1.xml	0.04974410682916641	0.058255720883607864	-0.8287981748580933	-0.47781428694725037	0.4185101091861725	-0.22925323247909546	-0.038192018866539	0.18150104582309723	0.37814274430274963	-0.5493664145469666	-0.08957292139530182	-0.4971168041229248	0.25491687655448914	0.019174806773662567	-0.10131349414587021	-0.09551924467086792	0.10824335366487503	0.43452897667884827	0.024423763155937195	-0.029733579605817795	-0.12694352865219116	0.3584563732147217	0.10771553963422775	0.3024681508541107	0.887744128704071	-0.2048717439174652	-0.160204216837883	0.024377940222620964	-0.49105122685432434	0.21302232146263123	0.20647449791431427	-0.37726300954818726	0.060657646507024765	-0.47310179471969604	0.5532811880111694	0.34253746271133423	0.10789588838815689	0.4388532042503357	0.2678356170654297	-0.0769219622015953	0.13046161830425262	-0.16238395869731903	0.5033705830574036	-0.13064579665660858	0.21163740754127502	-0.1612200140953064	0.2634468376636505	0.5131770968437195	-0.4766414165496826	-0.04663199931383133	0.16776032745838165	0.43498164415359497	0.11879782378673553	-0.4249188303947449	-0.398712158203125	-0.38268566131591797	0.10935697704553604	-0.35990869998931885	0.0744415745139122	0.6738961338996887	0.26613593101501465	-0.4922330677509308	-0.5261126756668091	-0.11054369807243347	0.06243303045630455	-0.3523007333278656	-0.6490265727043152	-0.049452587962150574	-0.018374856561422348	0.057499293237924576	-0.45477747917175293	0.22786113619804382	-0.34274351596832275	-1.065268874168396	0.20558494329452515	-0.1659640520811081	-0.7762641310691833	-0.1785733699798584	0.3436056971549988	0.14503084123134613	-0.8730970025062561	0.41353607177734375	-0.19224762916564941	-0.04628371447324753	0.336434543132782	0.11848868429660797	0.22144407033920288	0.2863515317440033	-0.16207994520664215	-0.13910971581935883	0.2080731838941574	-0.16000968217849731	-0.37747466564178467	-0.2865353226661682	0.30867621302604675	-0.1572868824005127	0.09470520168542862	-0.3743593394756317	0.19440799951553345	0.006040163338184357	0.0543983057141304	0.3641054034233093	-0.05808263644576073	0.3585740923881531	0.5426381826400757	-0.6296247243881226	0.02237316034734249	0.19977951049804688	-0.1655193716287613	0.39764150977134705	0.3145882785320282	0.6212216019630432	-0.3386184573173523	0.03568200021982193	0.4904647469520569	-0.04933948814868927	-0.018028249964118004	-0.3008556067943573	0.12932723760604858	-0.6081958413124084	-0.12178986519575119	0.15886910259723663	-0.0030290575232356787	0.276859313249588	-0.32704102993011475	-0.03599970042705536	-0.9732044339179993	0.6412982940673828	-0.08998369425535202	-0.2095436453819275	-0.07963428646326065	-0.3066408932209015	0.0651770830154419	-0.2711735963821411	-0.09452470391988754	-0.33536818623542786	-0.17785613238811493	-1.0101109743118286	-0.3501800298690796	-0.08676761388778687	1.138529896736145	-0.3443152606487274	-0.2714565098285675	-0.4035134017467499	0.7613244652748108	0.788910448551178	-1.058901071548462	-0.004955580923706293	-0.06532842665910721	-0.15896639227867126	-0.11659027636051178	-0.4331042170524597	-0.0940687358379364	-0.06728838384151459	-0.3029409945011139	-0.399061918258667	-0.09272264689207077	-0.136257141828537	0.25101718306541443	-0.21682339906692505	-0.0855451449751854	0.4058215022087097	0.28332191705703735	0.1282491832971573	-0.32207366824150085	-0.30850669741630554	0.1781027764081955	-0.09252090752124786	0.09484799951314926	0.320984810590744	-0.0013192577753216028	0.45670008659362793	0.42224857211112976	-0.13247087597846985	-0.2509218752384186	-0.44037631154060364	0.00035405554808676243	0.7989655137062073	-0.005302161443978548	0.21238400042057037	0.2318187803030014	-0.03428427502512932	0.23241892457008362	-0.7368452548980713	-0.39972782135009766	0.04220518842339516	0.15437406301498413	0.009729928337037563	0.5614050626754761	-0.4156670570373535	-0.0003722919209394604	-0.3521779179573059	-0.10001538693904877	-0.3307662606239319	0.19811592996120453	-0.4724990129470825	0.4556560814380646	-0.008672158233821392	0.29345545172691345	-0.39308834075927734	-0.659695029258728	0.1671585887670517	0.37346750497817993	-0.1544649600982666	0.14586664736270905	0.4712492525577545	-0.321763813495636	0.2069249302148819	0.21902111172676086	-0.20404402911663055	-0.09538175165653229	0.17916947603225708	-0.018570711836218834	0.08434745669364929	-0.17674504220485687	-0.4482804834842682	-0.08041159063577652	0.3362266719341278	-0.04799141362309456	-0.4436548054218292	0.14366042613983154	-0.7949756979942322	-0.2814030349254608	0.40808457136154175	-0.24815168976783752	0.34854990243911743	-0.16718538105487823	-0.06547462195158005	-0.003396549029275775	-0.27248311042785645	-0.13308332860469818	0.6545817852020264	-0.5932462811470032	-0.6689910888671875	0.024941259995102882	-0.02580949477851391	-0.24444647133350372	-0.27261626720428467	0.43593892455101013	-0.3317735195159912	-0.3468569219112396	-0.13769963383674622	-0.5151194334030151	0.42196640372276306	-0.31914690136909485	-0.6543686985969543	1.0051072835922241	0.2728472650051117	-0.07604847848415375	0.20803789794445038	-0.15097317099571228	-0.13364361226558685	-0.3358781337738037	0.24240335822105408	-0.19502441585063934	0.09270017594099045	-0.06309959292411804	-0.306403785943985	-0.07304666191339493	-0.06176183000206947	0.40632691979408264	0.1471778303384781	-0.3042747974395752	0.5696512460708618	0.2807137370109558	0.9964781403541565	0.35132619738578796	-0.3924274146556854	-0.17763622105121613	-0.141607865691185	0.27177464962005615	1.0281671285629272	0.8801621794700623	0.26904061436653137	0.5446385741233826	-0.29332223534584045	0.19872362911701202	-0.052460186183452606	-0.21253958344459534	0.005722702946513891	-0.1323181688785553	0.29191067814826965	-0.19453734159469604	0.16827510297298431	-0.3338254988193512	-0.450093150138855	-0.044849660247564316	0.18390564620494843	-0.0008505545556545258	0.5567094087600708	0.2813188433647156	0.27285975217819214	0.06783155351877213	-0.11239143460988998	-0.20688794553279877	0.17738941311836243	0.3746563196182251	0.13639917969703674	-0.5164850354194641	0.5553154349327087
865089_v1.xml	0.13394533097743988	0.14957334101200104	-0.49701493978500366	0.1861676424741745	-0.0009912332752719522	-0.13899977505207062	0.16965638101100922	0.3167906701564789	0.48260247707366943	-0.35997894406318665	-0.41622528433799744	-0.2078499048948288	-0.15025579929351807	-0.13779106736183167	0.17410160601139069	0.18866188824176788	-0.5233327746391296	0.15872520208358765	-0.2064885050058365	-0.4553191065788269	-0.1277974247932434	0.006323931273072958	0.19860412180423737	-0.09207047522068024	0.282760888338089	-0.038154732435941696	-0.6508588194847107	-0.15926285088062286	-0.5152263045310974	0.5510141849517822	0.11843433231115341	0.25380539894104004	-0.10962709784507751	0.11562184244394302	0.17980770766735077	0.23396539688110352	-0.03758714720606804	0.3787311315536499	0.5812728404998779	0.12632152438163757	0.34802207350730896	-0.02910064160823822	0.1327604055404663	-0.17111417651176453	-0.04295901954174042	-0.5413334369659424	-0.02305041439831257	0.0284741148352623	-0.11889831721782684	0.40120700001716614	0.036643173545598984	-0.06688877195119858	0.16508018970489502	-0.29038193821907043	-0.1229378879070282	0.4247496426105499	0.20046405494213104	-0.3010042905807495	0.32891660928726196	0.3613644242286682	0.10313642770051956	0.08249831944704056	-0.338344007730484	-0.6839998960494995	-0.12001001089811325	-0.22195592522621155	-0.18218643963336945	0.2606496512889862	-0.05197056010365486	0.02250366099178791	-0.4354401230812073	-0.08103198558092117	-0.08609164506196976	-0.9366213083267212	-0.23236259818077087	-0.05070077255368233	-0.15932899713516235	-0.02660530060529709	0.6512483358383179	0.04554445669054985	-0.45162707567214966	0.27328696846961975	0.19159196317195892	-0.23682254552841187	-0.23243582248687744	0.17873722314834595	0.20676366984844208	0.30788367986679077	-0.44038018584251404	0.10615603625774384	-0.03235756605863571	-0.3698062598705292	-0.016103005036711693	-0.27700257301330566	0.2332553118467331	-0.03834276646375656	0.11678574979305267	-0.0008465616265311837	0.41347262263298035	0.1880991905927658	-0.5190005302429199	0.3845697045326233	0.22380761802196503	0.10879367589950562	0.18255485594272614	-0.6426762938499451	0.2293996512889862	0.03009307011961937	-0.560869574546814	0.5451046228408813	0.4033850431442261	0.2489853948354721	0.22645947337150574	-0.19125771522521973	-0.039678048342466354	-0.2574511766433716	-0.18832923471927643	-0.6402309536933899	0.3778698444366455	-0.013861946761608124	-0.2720280587673187	-0.8027855753898621	-0.1604783535003662	0.2985561788082123	0.03251240402460098	-0.4748501181602478	-0.22079579532146454	0.43843507766723633	0.025333160534501076	0.5017874240875244	0.09723778814077377	-0.10087471455335617	-0.3394542932510376	-0.045136112719774246	-0.12610872089862823	-0.3460272252559662	0.14388717710971832	-0.8164859414100647	-0.32043319940567017	-0.2886456549167633	0.8663128614425659	-0.7100660800933838	-0.43837079405784607	0.10178852081298828	0.27515801787376404	0.3473590314388275	-0.4469796419143677	0.2503156363964081	-0.542632520198822	-0.4898180365562439	-0.5317833423614502	0.06833843886852264	0.11583373695611954	0.5115691423416138	-0.22577522695064545	-0.4768877923488617	-0.6786977648735046	0.09017925709486008	0.260870099067688	0.40782707929611206	-0.11354947835206985	0.25233301520347595	-0.028766566887497902	-0.14433962106704712	-0.19392238557338715	-0.08005954325199127	-0.07388759404420853	-0.02606159821152687	-0.05155237764120102	0.49456167221069336	-0.15791435539722443	0.3302154541015625	-0.16809171438217163	0.15939800441265106	-0.04066655412316322	-0.25818949937820435	-0.4125847816467285	0.569681704044342	-0.1876123547554016	-0.05216997116804123	0.06762681156396866	0.14873181283473969	0.3914788067340851	-0.48876744508743286	0.20146603882312775	0.14992287755012512	0.19278419017791748	0.07165908068418503	0.36134299635887146	0.08947023749351501	0.3403475880622864	-0.29192087054252625	0.07731642574071884	-0.10373987257480621	0.14385950565338135	0.10996056348085403	0.2340945154428482	-0.07622089236974716	0.42905229330062866	-0.13210202753543854	-0.12250472605228424	0.4270801246166229	0.10321227461099625	-0.17093421518802643	0.3716728091239929	-0.07822859287261963	-0.3275569975376129	-0.03935996815562248	0.4714776277542114	0.05677584931254387	-0.07413193583488464	-0.054640062153339386	0.5382558107376099	-0.4230741262435913	-0.16198638081550598	-0.3670588433742523	-0.5190596580505371	-0.3541701138019562	-0.04181516543030739	-0.059036578983068466	0.3358878493309021	-0.31979990005493164	0.11470922827720642	-0.12556353211402893	-0.18901735544204712	0.08793192356824875	-0.3141176104545593	0.2737977206707001	-0.014389643445611	-0.2578846514225006	-0.376730740070343	0.5980598330497742	-0.4563230276107788	-0.6631463170051575	0.11143718659877777	0.2833023965358734	-0.1517682522535324	-0.33807241916656494	0.22477585077285767	-0.04700355604290962	-0.4749470055103302	0.3933890163898468	-0.3111508786678314	0.09818576276302338	0.2544459104537964	-0.37902337312698364	0.5494014024734497	0.34419798851013184	-0.06534294784069061	-0.27486154437065125	-0.32270723581314087	0.2991734743118286	0.1540839821100235	0.25665873289108276	0.05294441431760788	0.1676447093486786	-0.32333019375801086	0.17164236307144165	-0.355368435382843	0.1379685252904892	-0.26896482706069946	-0.24919681251049042	-0.41312286257743835	0.22214719653129578	-0.28396695852279663	0.5701431632041931	-0.13101880252361298	-0.1752813160419464	0.36711999773979187	-0.5454384684562683	0.08270130306482315	0.8151848316192627	0.22213910520076752	0.5383099317550659	0.5912111401557922	0.12769867479801178	-0.15693451464176178	0.3228388726711273	0.0033635077998042107	-0.23729366064071655	-0.27561548352241516	0.19748112559318542	-0.09543651342391968	0.47421759366989136	0.15357011556625366	-0.40999189019203186	-0.8112269639968872	0.24435018002986908	-0.3928292393684387	0.24718455970287323	0.2835571765899658	0.5966967940330505	0.06639374792575836	-0.24467860162258148	-0.6642690300941467	0.1263161152601242	0.2335919737815857	-0.12742574512958527	-0.23847177624702454	0.33309048414230347
832675_v1.xml	0.12057426571846008	0.4359976053237915	-0.7307270169258118	-0.14444875717163086	0.44671791791915894	-0.23943385481834412	-0.2306988686323166	0.21732202172279358	0.7421767115592957	-0.4437408745288849	-0.1687907725572586	-0.3526725769042969	0.20259587466716766	-0.40686434507369995	-0.07921238988637924	-0.3333436846733093	-0.1652373969554901	0.3835255205631256	-0.1393444538116455	0.10306627303361893	-0.12443040311336517	0.08230885863304138	0.1754634827375412	0.34992915391921997	0.7692616581916809	-0.05456845089793205	-0.4050377309322357	-0.6623199582099915	-0.6485899686813354	0.2782016396522522	0.382517009973526	0.053704679012298584	-0.008786751888692379	-0.35197171568870544	0.1905435025691986	0.3667226731777191	0.10019551217556	0.38912203907966614	0.5144986510276794	-0.3699444830417633	0.44186046719551086	-0.1494837999343872	0.6989378929138184	-0.105777807533741	0.2453410029411316	-0.23384538292884827	0.21821454167366028	0.6561238765716553	-0.18855991959571838	-0.2293350249528885	0.14047764241695404	0.23224741220474243	-0.08148098737001419	-0.3876039981842041	-0.21818889677524567	-0.18466702103614807	0.297288179397583	-0.09398605674505234	0.22453901171684265	0.4557124078273773	0.03584681451320648	-0.19198614358901978	-0.6728014349937439	-0.09781418740749359	0.16942696273326874	-0.5065650939941406	-0.5227915644645691	-0.08891898393630981	0.052663497626781464	0.1340453028678894	-0.3571647107601166	0.33015772700309753	-0.03953196480870247	-0.5861479043960571	0.3500756025314331	-0.03161778301000595	-0.8095178604125977	0.016210196539759636	0.3944791853427887	-0.13287353515625	-0.2676617503166199	0.6009247303009033	-0.04227864369750023	-0.11699345707893372	-0.07250726222991943	0.071698859333992	-0.08970619738101959	0.383597195148468	-0.0006185460952110589	-0.40302449464797974	0.020619535818696022	-0.34693002700805664	-0.29006722569465637	-0.08231533318758011	0.35680386424064636	-0.11089050769805908	-0.0597926527261734	-0.1984250694513321	0.33468231558799744	-0.13117490708827972	-0.012662354856729507	0.08649469166994095	0.012412192299962044	0.13811242580413818	0.18062709271907806	-0.8942159414291382	0.057554446160793304	0.3995697796344757	-0.3881784677505493	0.2999418079853058	0.23395027220249176	0.3941144645214081	0.09779320657253265	-0.010765637271106243	0.32866358757019043	-0.04760928079485893	-0.3761196732521057	-0.13877956569194794	0.5242565274238586	-0.6375368237495422	0.3057234287261963	-0.10057077556848526	0.1354212462902069	0.2664273679256439	-0.25481149554252625	0.340813010931015	0.08840504288673401	0.5231062173843384	-0.008427898399531841	0.14232231676578522	0.20706386864185333	0.07837044447660446	0.055789750069379807	0.29706016182899475	-0.3205222487449646	-0.4793718755245209	-0.002202292438596487	-1.0289270877838135	-0.45570480823516846	0.09616255015134811	1.1202127933502197	-0.4917575716972351	0.03791014105081558	-0.22462643682956696	0.34358662366867065	0.48199501633644104	-1.1788359880447388	0.22381989657878876	-0.4160078167915344	-0.2852104902267456	-0.20083408057689667	-0.2889079451560974	0.14795668423175812	-0.05549613758921623	-0.5026626586914062	-0.07914137840270996	0.11695047467947006	-0.1327734738588333	0.05749954283237457	0.15965746343135834	-0.06796412914991379	0.18990018963813782	-0.14053769409656525	-0.13603006303310394	-0.39709076285362244	-0.3136754333972931	0.022959982976317406	0.23549148440361023	0.3073253333568573	-0.002156980335712433	0.18540696799755096	0.27249473333358765	0.33842912316322327	0.02123969979584217	-0.1090267077088356	-0.43330609798431396	-0.08004412055015564	0.6675752401351929	-0.5981289148330688	0.47856491804122925	0.1788233369588852	-0.05016917735338211	0.1998463124036789	-0.4548017084598541	-0.17694789171218872	0.0844682976603508	0.18416808545589447	0.2212885171175003	0.5410799384117126	-0.2822050154209137	0.13454197347164154	-0.41865235567092896	0.08838775753974915	-0.05995715409517288	0.14574205875396729	-0.2496282309293747	0.2950248420238495	0.18697702884674072	0.5838438272476196	-0.19813258945941925	-0.5778430700302124	0.5787783265113831	0.4258497357368469	0.10244277864694595	0.7954603433609009	0.3259274959564209	-0.0409979410469532	0.06533375382423401	0.5473225116729736	0.10685514658689499	-0.3911868929862976	-0.3614656627178192	0.1078493520617485	-0.38465753197669983	-0.30791106820106506	-0.32408949732780457	0.08954598009586334	0.03188798949122429	-0.059196267277002335	-0.12593144178390503	0.0696171224117279	-0.7659488320350647	-0.20886005461215973	0.03782309964299202	-0.5424602031707764	0.02089143916964531	-0.21049591898918152	0.23522280156612396	0.08318975567817688	-0.13542130589485168	-0.46692171692848206	0.48929452896118164	-0.40474385023117065	-0.5679911971092224	-0.4304530620574951	-0.13364048302173615	-0.20020772516727448	-0.3024219870567322	1.255566120147705	-0.15453998744487762	-0.2287251353263855	-0.0914195105433464	-0.3719443678855896	0.27483177185058594	-0.0849766656756401	-0.2946573793888092	0.5184258222579956	0.3782152533531189	-0.13566777110099792	0.011026090011000633	0.21793310344219208	-0.095376156270504	-0.5180665850639343	0.29874515533447266	-0.059559594839811325	-0.30114200711250305	-0.3209623694419861	-0.34767329692840576	-0.2082853764295578	-0.14638790488243103	0.16401608288288116	0.06637924164533615	-0.24118159711360931	0.337346613407135	0.20912612974643707	0.46589040756225586	0.09170138090848923	0.08980084955692291	0.4152044951915741	-0.3502172827720642	0.32731035351753235	0.819953441619873	0.3503173291683197	0.3640679121017456	0.32358884811401367	-0.39405712485313416	0.33859217166900635	-0.1407122164964676	-0.14206020534038544	0.1770411729812622	-0.5685155391693115	0.04832927882671356	-0.5499376654624939	-0.03481354936957359	-0.1413608342409134	-0.6844632625579834	-0.07261049747467041	0.2252502292394638	-0.025583934038877487	0.4546021819114685	0.36583492159843445	0.2799184024333954	0.3066938519477844	-0.3005748391151428	-0.48186564445495605	-0.8093881607055664	0.4479435682296753	0.24158677458763123	-0.46161824464797974	-0.10293067246675491
2020.02.29.965418_v2.xml	-0.2115350216627121	0.12455374747514725	-0.5791563391685486	0.26588693261146545	0.15491783618927002	-0.293096125125885	-0.29256778955459595	0.36030465364456177	0.7249330282211304	0.07784000039100647	-0.29050278663635254	-0.4589589536190033	0.16657830774784088	-0.7603774666786194	-0.23276716470718384	0.31338974833488464	0.5560149550437927	0.11134443432092667	-0.276790052652359	0.4400161802768707	0.05758889019489288	-0.29967793822288513	0.4073285460472107	0.16572697460651398	0.8494786024093628	-0.21646663546562195	-0.2589505612850189	0.4188542664051056	-0.7259706854820251	-0.05136345326900482	0.15173295140266418	0.02984805591404438	-0.6023944616317749	0.13602590560913086	-0.5009641647338867	-0.37830594182014465	0.3474425673484802	-0.01905062235891819	1.1814231872558594	-0.5367581248283386	0.7937204241752625	0.19184130430221558	-0.001962218899279833	-0.17097440361976624	0.4228047728538513	-0.4739431142807007	0.05221804231405258	0.17834290862083435	0.06708628684282303	0.33176103234291077	-0.19170141220092773	-0.29237258434295654	-0.005062235053628683	-0.20671109855175018	-0.21969935297966003	1.0291154384613037	0.23371464014053345	-0.023305345326662064	0.7782224416732788	0.4667836129665375	-0.2917977571487427	0.3999883234500885	-0.3074851930141449	-0.6460837125778198	-0.1634826362133026	-1.242684245109558	0.3018742799758911	-0.05898159742355347	0.20442192256450653	0.550285816192627	-0.414755254983902	0.20117761194705963	-0.28522276878356934	0.019690612331032753	0.16363351047039032	-0.22359496355056763	-0.21439717710018158	0.08973971754312515	-0.2087373584508896	-0.08435925096273422	0.35104134678840637	-0.2009507268667221	-0.3451400697231293	-0.029709558933973312	-0.1771927922964096	0.09840738028287888	0.18524563312530518	0.3914702236652374	-0.1503751575946808	-0.5598831176757812	-0.1480928212404251	0.2289520651102066	0.3461821675300598	-0.2063673436641693	-0.40791448950767517	-0.24692238867282867	-0.4085500240325928	-0.4375189244747162	0.3058044910430908	0.42804160714149475	-0.19067694246768951	-0.04991671070456505	0.3090876638889313	0.14329500496387482	0.1759781390428543	-0.9932985901832581	0.6849169731140137	-0.1261378675699234	0.12112622708082199	0.6224998235702515	0.866215169429779	-0.12821543216705322	0.4793208837509155	-0.20745383203029633	0.3379572927951813	0.5242317318916321	-0.5194993615150452	-0.059215907007455826	0.5591437220573425	-0.5098728537559509	0.4887146055698395	-0.17681822180747986	-0.22413337230682373	0.8627572059631348	0.02480589970946312	-0.06830907613039017	0.04801736772060394	0.37295809388160706	0.2637007236480713	0.27561745047569275	0.07028432935476303	0.10750973969697952	0.15331527590751648	0.8125211596488953	-0.36632898449897766	0.17157910764217377	-0.004407254047691822	-0.24123480916023254	-0.8316842317581177	0.07309272885322571	1.1474690437316895	0.0182893518358469	-0.24352441728115082	0.5130425691604614	-0.11098714172840118	-0.5443956851959229	-0.0835820883512497	0.3698194921016693	-0.4243102967739105	-0.5229164958000183	-0.5032932162284851	0.46671876311302185	-0.026582837104797363	0.19738595187664032	-0.15399384498596191	-0.08585807681083679	-0.1027146428823471	0.3413136601448059	-0.27988600730895996	0.6479305028915405	-0.26864686608314514	0.20349393784999847	0.4519025981426239	-0.5422926545143127	-0.2297508716583252	-0.1112910732626915	-0.520958662033081	0.29173585772514343	0.10535358637571335	0.4717809557914734	0.2214856743812561	0.07205072790384293	-0.2755155563354492	-0.21967186033725739	-0.04743485897779465	0.040434569120407104	0.2447199523448944	0.1898074448108673	-0.13936889171600342	0.41737616062164307	0.12796272337436676	0.1699252873659134	0.6851407289505005	-0.5394774675369263	0.2205832451581955	0.5463049411773682	-0.1310141682624817	-0.6551023721694946	-0.13445498049259186	0.1732117235660553	0.3022049367427826	-0.26230311393737793	0.3509046733379364	-0.2912762761116028	0.39211830496788025	-0.056800078600645065	0.15686345100402832	0.24966850876808167	0.5755183100700378	-0.13207471370697021	0.1047210618853569	0.3913160562515259	0.3735836148262024	-0.3429946005344391	1.0327835083007812	-0.1794825941324234	-0.65876305103302	0.10299652814865112	0.4526756703853607	0.1992533802986145	-0.240132674574852	0.004693039692938328	0.442898154258728	-1.1017454862594604	-0.04128711298108101	0.34893643856048584	0.04587123170495033	-0.5090765953063965	-0.423286110162735	0.15399546921253204	0.10163885354995728	-0.4438071846961975	0.012204715050756931	-0.4810442328453064	-0.4220343828201294	-0.24981603026390076	-0.131367489695549	0.43051591515541077	0.5249525308609009	0.36404740810394287	-0.4528818428516388	0.39017409086227417	0.03657221049070358	-0.11841928958892822	0.2084702104330063	-0.1307959407567978	-0.058841247111558914	-0.3674734830856323	0.4293478727340698	-0.3283643424510956	-0.7682487368583679	-0.3834516406059265	-0.3441302180290222	-0.046212587505578995	0.04227209836244583	0.008123421110212803	0.8691557049751282	0.2333432137966156	0.05671847239136696	-0.16118952631950378	-0.200687438249588	-0.17606748640537262	-0.6878930330276489	1.230309009552002	0.6003369688987732	0.15369954705238342	-0.06352695822715759	0.27176791429519653	-0.26854604482650757	0.18473990261554718	-0.09611818194389343	-0.14790965616703033	-0.19419355690479279	0.5122451186180115	-0.18939362466335297	0.18454676866531372	-0.18682008981704712	-0.04172328859567642	0.5898520946502686	0.05351084843277931	0.22305382788181305	1.2992266416549683	-0.22819414734840393	0.3455890417098999	0.48049110174179077	-0.07682763785123825	0.45440271496772766	-0.17244845628738403	-0.5281198620796204	-0.03882116451859474	-0.6978391408920288	0.49034520983695984	-0.005987827200442553	0.589649498462677	0.6671094298362732	-0.5971203446388245	-0.5400699973106384	0.4126262366771698	-0.12341000139713287	0.1387326866388321	0.2836886942386627	0.07829169183969498	-0.0962056890130043	-0.03661005571484566	-0.8340203166007996	-0.5106191039085388	0.3364608883857727	0.7951557040214539	-0.4933863878250122	-0.21377135813236237
785691_v2.xml	-0.42373886704444885	0.29924458265304565	-0.3474944829940796	-0.29549920558929443	0.3028326630592346	-0.2519571781158447	-0.2760833203792572	-0.23009438812732697	0.3840792775154114	-0.689298689365387	-0.2547048330307007	-0.5929924845695496	0.3004074692726135	-0.7436443567276001	-0.23559947311878204	-0.28926417231559753	0.6927222609519958	0.08622296899557114	-0.2388165444135666	0.46761366724967957	-0.20402728021144867	-0.12470435351133347	0.434785395860672	0.5697529911994934	0.43911293148994446	-0.3742285966873169	-0.4373280704021454	-0.23335576057434082	-0.5571632981300354	0.037983447313308716	0.7935753464698792	-0.4858817160129547	-0.3988122045993805	-0.187570258975029	-0.6818044781684875	0.1339951604604721	0.04625377431511879	0.5565301775932312	0.8082053065299988	-0.9330342411994934	0.3744373321533203	-0.046818412840366364	0.1557721048593521	-0.48687073588371277	0.5721421241760254	0.03803173452615738	0.6921979188919067	0.37520503997802734	0.2374628335237503	0.1044526994228363	0.037041760981082916	-0.16515231132507324	0.0021984174381941557	-0.4960661828517914	-0.6405880451202393	0.8216870427131653	0.521474301815033	-0.013178077526390553	1.4501677751541138	0.04184422269463539	-0.1446111500263214	-0.14854252338409424	0.22469009459018707	-0.5624405741691589	-0.45352113246917725	-0.9086195230484009	-0.22135351598262787	0.3377874791622162	0.7025801539421082	0.9242570996284485	0.11977119743824005	0.2955463230609894	0.005277725867927074	-0.10756184905767441	-0.14935000240802765	0.06367479264736176	-0.20322968065738678	0.48559337854385376	-0.30458906292915344	0.13445797562599182	0.1929297000169754	-0.20677432417869568	-0.3283771574497223	-0.20166678726673126	0.009314711205661297	-0.2991715669631958	0.08524893969297409	0.6053438186645508	-0.1771550178527832	-0.5061953067779541	0.26135504245758057	0.08602407574653625	0.7580292820930481	-0.32474708557128906	-0.31682050228118896	-0.13564708828926086	-0.3195183277130127	0.16635827720165253	0.3250320255756378	0.13991095125675201	-0.16532807052135468	-0.1543443351984024	0.04436995089054108	0.07454783469438553	0.11374049633741379	-0.8057072758674622	0.28816381096839905	0.41729721426963806	-0.06469603627920151	0.9165399670600891	0.34491822123527527	-0.3161716163158417	-0.006701434031128883	0.1804552525281906	0.07323598861694336	0.18483270704746246	-0.3040240406990051	-0.11794154345989227	0.386160284280777	-1.1683716773986816	0.5847058296203613	-0.011273070238530636	0.22721414268016815	0.8716967701911926	-0.5654633045196533	0.45849934220314026	0.02501659467816353	0.5034604668617249	0.2265072613954544	-0.009464288130402565	-0.11511090397834778	0.08049674332141876	0.36400362849235535	0.7148553133010864	-0.6743383407592773	-0.1865566521883011	-0.32706528902053833	0.11584360897541046	-1.0506426095962524	0.68995201587677	0.7604684233665466	-0.10066459327936172	0.3188263773918152	0.7077642679214478	0.04201589524745941	-0.6643649339675903	0.18497413396835327	0.008816736750304699	-0.48644518852233887	-0.452583372592926	-0.19622021913528442	0.44394099712371826	0.11625255644321442	-0.10672997683286667	-0.39856570959091187	0.2228078693151474	0.14166608452796936	0.2116447240114212	-0.8949615359306335	0.796654462814331	-0.03696505352854729	0.4331109821796417	-0.10247866064310074	-0.5837730765342712	-0.5033833980560303	-0.7904700636863708	-0.047455888241529465	0.28198519349098206	0.05612374097108841	0.4060732126235962	0.49664926528930664	0.04149386286735535	0.04443149268627167	-0.42929214239120483	0.10111705958843231	0.1996084749698639	0.5449807047843933	0.6011996269226074	-0.31433144211769104	0.5870935916900635	0.29735082387924194	-0.09253554791212082	0.6440960168838501	-0.2812018394470215	0.06895946711301804	0.2501295208930969	-0.22861942648887634	-0.6677502989768982	0.014591260813176632	0.13267196714878082	0.24008257687091827	-0.8982837200164795	0.31449365615844727	0.08548830449581146	0.37489181756973267	-0.3577330708503723	0.23623383045196533	0.1948288083076477	0.9010473489761353	0.018264377489686012	-0.25367677211761475	0.5949617624282837	0.5752708911895752	-0.28555262088775635	1.1518818140029907	-0.34450671076774597	-0.046437960118055344	-0.07344557344913483	0.4006393849849701	0.22778822481632233	0.10176604241132736	-0.06945861876010895	0.48845016956329346	-0.4931691288948059	0.02754780650138855	0.15954430401325226	0.41686323285102844	-0.25524526834487915	0.09802494943141937	-0.004260865040123463	0.337744802236557	-0.7164614796638489	-0.21095183491706848	-0.4084254503250122	-0.6008430123329163	-0.10182856023311615	-0.17891240119934082	-0.01098666712641716	0.3758690059185028	-0.06046711653470993	-0.6993879675865173	0.28120365738868713	-0.011420989409089088	-0.14485548436641693	-0.2588316798210144	0.24697816371917725	-0.30378231406211853	-0.4003036618232727	0.6550519466400146	-0.2806616425514221	-0.3787335455417633	-0.7775747179985046	-0.03657438978552818	-0.22019509971141815	-0.07834819704294205	0.26656579971313477	0.46369245648384094	0.03723538666963577	0.37760400772094727	0.4229600131511688	-0.4194921553134918	-0.014287365600466728	-0.7827192544937134	0.7854876518249512	0.5419396162033081	-0.0850716382265091	-0.13421601057052612	-0.2398047298192978	-0.30347615480422974	0.0842457264661789	-0.022571364417672157	-0.03374353423714638	-0.3197421431541443	0.743584156036377	0.23113004863262177	0.3258136510848999	-0.2739547789096832	0.10413305461406708	0.6321471929550171	0.1519138664007187	0.1954684853553772	0.9527274370193481	-0.22525082528591156	0.009991507045924664	0.027652394026517868	-1.0753566026687622	0.23031304776668549	0.14792823791503906	-0.3375777304172516	0.2927248179912567	-0.3790111541748047	-0.013495675288140774	-0.5002825856208801	0.3895573019981384	0.4723714292049408	-0.46914032101631165	-0.24675330519676208	0.4463503360748291	0.1560257375240326	0.4459509551525116	0.17666879296302795	0.16740451753139496	0.07500911504030228	0.22098402678966522	-0.9960934519767761	-0.4363849461078644	0.7084078788757324	0.6902802586555481	0.05798623710870743	0.03559636324644089
2020.02.16.951913_v1.xml	-0.06867387145757675	0.3537067472934723	-0.7428559064865112	-0.3281894624233246	-0.1437266618013382	0.11402831226587296	0.08813855051994324	0.30348294973373413	0.015540461987257004	-0.7639266848564148	-0.04904327169060707	-0.6291332244873047	-0.08291014283895493	-0.147064208984375	0.028609735891222954	0.0648457482457161	0.24627399444580078	0.33107811212539673	-0.5685656666755676	-0.13237585127353668	-0.007149007637053728	0.02714456431567669	-0.06827034801244736	0.1560106873512268	0.3790772557258606	-0.2454104721546173	-0.3090471625328064	0.17011578381061554	-0.8723639845848083	0.6641354560852051	0.42638787627220154	-0.5098748207092285	-0.5363078713417053	-0.060666535049676895	0.01980016939342022	0.2676679491996765	-0.12632375955581665	0.5829240083694458	0.6457293629646301	-0.23982183635234833	0.40117964148521423	-0.022057348862290382	0.27742499113082886	-0.39915263652801514	0.6184915900230408	-0.26659223437309265	0.1773141622543335	0.1901768296957016	0.2782895863056183	0.4199833869934082	0.3849099278450012	0.14025293290615082	0.25096356868743896	-0.4126465916633606	-0.4926437735557556	0.6649721264839172	0.25786250829696655	-0.4084545075893402	0.9423556923866272	0.47635599970817566	0.1146927922964096	-0.07218839228153229	-0.02067474275827408	-0.6366941928863525	0.07983078807592392	-0.6573101282119751	-0.4352650046348572	0.010469427332282066	-0.0798816829919815	0.09734756499528885	-0.43942660093307495	0.32329699397087097	-0.1412685215473175	-0.540652871131897	0.1147315502166748	0.010758867487311363	-0.7613521814346313	0.15453456342220306	0.475652813911438	-0.042563751339912415	-0.8255564570426941	-0.1780499368906021	-0.1382436454296112	0.3306328058242798	0.2832455635070801	0.010152005590498447	0.34967127442359924	0.44170981645584106	-0.0378989651799202	-0.02663443610072136	0.15021593868732452	0.19825901091098785	0.656596302986145	-0.239703968167305	0.1462404578924179	-0.24507182836532593	0.12121712416410446	-0.1969347596168518	0.5827893614768982	0.6676015853881836	-0.5047787427902222	0.1049981415271759	0.04247768595814705	-0.08887958526611328	0.1686411052942276	-0.9466191530227661	0.602155327796936	0.38048064708709717	-0.030880745500326157	0.38130730390548706	0.4366907775402069	0.5028406977653503	-0.2933654189109802	0.0667911097407341	0.4767772853374481	-0.1794954389333725	-0.5443551540374756	-0.7845120429992676	0.2063908874988556	-0.90224289894104	-0.07891447842121124	-0.29522132873535156	0.08916451036930084	1.0346674919128418	-0.37546661496162415	-0.2686503827571869	-0.5338307023048401	0.804757297039032	0.339172899723053	0.28600457310676575	0.14206025004386902	0.13178831338882446	0.1840769499540329	-0.05431187525391579	-0.26344534754753113	-0.4515865445137024	-0.279491126537323	-0.43094533681869507	-0.7866359353065491	-0.1943550407886505	1.311902403831482	0.2621726989746094	-0.2922416925430298	0.17729060351848602	-0.0708119124174118	0.4985676407814026	-0.436354398727417	0.2832074761390686	-0.07571449130773544	-0.792262077331543	-0.8013811707496643	0.0008184349862858653	-0.05844580754637718	0.13351185619831085	-0.5435182452201843	-0.6883151531219482	-0.3456333875656128	0.5294623374938965	-0.14846885204315186	0.8496595621109009	-0.14875268936157227	0.3879421353340149	-0.07931289821863174	0.11872968077659607	0.044225893914699554	-0.42699164152145386	0.30156612396240234	-0.08785469084978104	0.09486444294452667	0.42103472352027893	0.07184962928295135	0.4916377365589142	-0.007081383373588324	0.2054126262664795	-0.2053435891866684	-0.5424824953079224	0.3797309994697571	0.7937892079353333	-0.16220636665821075	0.3862535059452057	0.5337826609611511	0.004471827298402786	0.1870376020669937	-0.21900445222854614	0.020649343729019165	-0.02368950843811035	-0.016673795878887177	-0.29870495200157166	0.5864095687866211	0.24986663460731506	-0.3196485638618469	-0.5357734560966492	0.1640213131904602	-0.3571402430534363	0.11764227598905563	-0.17190249264240265	0.0122899254783988	0.3954464793205261	1.092775583267212	0.023837827146053314	-0.21657994389533997	0.3351013660430908	0.6486503481864929	-0.17789913713932037	0.798632025718689	0.12114659696817398	-0.6823329329490662	-0.005653875879943371	0.32741793990135193	-0.1120351180434227	0.21794871985912323	0.32226118445396423	0.4774526357650757	-0.1521795690059662	-0.4739619493484497	0.07051441818475723	-0.4429190456867218	-0.24000747501850128	-0.07811950147151947	-0.1496606469154358	0.44125640392303467	-0.48209521174430847	-0.16454970836639404	-0.3090194761753082	-0.6407151222229004	-0.045897286385297775	0.0179082490503788	0.5738726258277893	0.22657309472560883	-0.3474748134613037	-0.5551766157150269	0.22310644388198853	-0.09387709200382233	-0.8224098682403564	-0.26185786724090576	0.22675494849681854	-0.8210515975952148	-0.4870494306087494	0.3883293867111206	-0.22522953152656555	-0.36639654636383057	-0.05775513872504234	-0.5679793357849121	-0.05272655189037323	0.08726011961698532	-0.41337546706199646	0.9974342584609985	0.4254450500011444	0.4220077693462372	0.2767958641052246	-0.37409961223602295	-0.021006271243095398	-0.665635347366333	0.0702417865395546	0.3984403908252716	-0.10319069772958755	-0.22083409130573273	0.09606308490037918	0.025929812341928482	-0.024943118914961815	0.3511005640029907	-0.06690672039985657	-0.4752192199230194	0.5767905712127686	-0.45385634899139404	1.0435960292816162	0.16333642601966858	0.039215292781591415	0.426259309053421	0.10921090096235275	0.38536128401756287	1.1775940656661987	0.6125010251998901	0.5168383121490479	0.3316929340362549	-0.3735591173171997	0.06016986444592476	0.13248836994171143	0.3090818226337433	-0.06025325879454613	-0.6446337103843689	0.15900291502475739	-0.22560077905654907	0.23569093644618988	0.3333260118961334	-0.8798019886016846	-0.39710918068885803	-0.008824475109577179	-0.420958936214447	0.15967319905757904	0.611124575138092	1.0072572231292725	-0.3349716365337372	0.35217544436454773	-0.8770458102226257	0.07019776105880737	0.6384744048118591	0.026175277307629585	0.03624815493822098	0.391781210899353
2020.01.22.914952_v2.xml	-0.2981308400630951	-0.02455751784145832	-0.37693366408348083	-0.2116098403930664	-0.12543024122714996	-0.09049530327320099	0.07142837345600128	0.35885879397392273	0.3519393801689148	-0.3429809808731079	-0.39996498823165894	-0.7052339315414429	0.1768413484096527	-0.3790418207645416	-0.12573660910129547	0.120455801486969	0.43255752325057983	0.19154153764247894	-0.09029658138751984	0.0910908430814743	0.1306939572095871	-0.3320375084877014	0.1348091959953308	0.34175994992256165	0.29281577467918396	-0.1869385689496994	-0.24726465344429016	0.08458594977855682	-0.6507996320724487	0.1368292272090912	0.480184942483902	-0.5029654502868652	-0.30860793590545654	-0.011455035768449306	-0.28460606932640076	-0.08319385349750519	-0.31876951456069946	0.3027488887310028	0.619839608669281	-0.777741014957428	0.4221786558628082	-0.17372676730155945	0.10624769330024719	-0.28441399335861206	0.3850269317626953	-0.45592159032821655	0.2753548324108124	-0.03363383561372757	0.017858333885669708	0.3253133296966553	0.3340781629085541	-0.08398879319429398	0.02392471954226494	-0.12065747380256653	-0.3062623143196106	0.4450118839740753	0.05790931358933449	-0.031701941043138504	0.4869483709335327	0.24663220345973969	-0.15182359516620636	0.1646205633878708	-0.37615785002708435	-0.5973227024078369	0.09260839223861694	-0.607509970664978	-0.30926990509033203	-0.04386869817972183	0.25513702630996704	0.4769228994846344	-0.34499070048332214	0.3446110486984253	-0.1449323445558548	-0.28527602553367615	-0.013468355871737003	0.16196197271347046	-0.7041259407997131	0.3387076258659363	0.15972711145877838	0.13457483053207397	0.0959874838590622	-0.17111673951148987	-0.362919420003891	-0.06664379686117172	0.3293662965297699	-0.07217065244913101	0.2064066231250763	0.44955822825431824	-0.3539772629737854	-0.38446569442749023	-0.07235944271087646	0.15936164557933807	0.3447229862213135	-0.22932027280330658	0.17659661173820496	-0.05753881484270096	-0.03418488800525665	-0.04481659457087517	0.5528114438056946	0.41730812191963196	0.036752935498952866	-0.06307347118854523	0.017038747668266296	-0.21760421991348267	0.14894184470176697	-0.3054678738117218	0.5246882438659668	0.020236186683177948	0.22223667800426483	0.4516456425189972	0.4624217450618744	-0.07647155970335007	-0.08668942749500275	0.20293644070625305	0.10613755881786346	0.05788407102227211	-0.48918959498405457	-0.4402918517589569	0.14146435260772705	-0.8470738530158997	0.06143506243824959	-0.24347297847270966	-0.14056450128555298	0.6910614371299744	0.16067330539226532	0.13517500460147858	-0.32004132866859436	0.7165900468826294	0.26512739062309265	0.21061944961547852	-0.05060873553156853	0.10796274244785309	0.028088755905628204	-0.05607525259256363	-0.33696892857551575	-0.234771728515625	-0.13756178319454193	-0.20442204177379608	-0.6033656597137451	0.4187786877155304	1.025831699371338	0.026455922052264214	-0.18482354283332825	0.2502305507659912	-0.4520338475704193	-0.08641120791435242	-0.156948983669281	0.1879214644432068	-0.16957245767116547	-0.6766398549079895	-0.5009947419166565	0.29932644963264465	-0.1457647681236267	-0.14794589579105377	-0.14747191965579987	-0.13897106051445007	-0.11525443196296692	0.5326836705207825	-0.5943315029144287	0.724892258644104	-0.5590633153915405	0.31817761063575745	0.23847655951976776	-0.13407430052757263	-0.20037734508514404	-0.0025923040229827166	-0.04826129972934723	0.4157067537307739	-0.033243078738451004	0.5621697902679443	0.26494383811950684	0.2471524477005005	0.16913117468357086	-0.2266441434621811	-0.3483879864215851	-0.03909282758831978	0.17309679090976715	0.4126463830471039	0.05895402282476425	0.26990243792533875	0.5340775847434998	0.270800918340683	0.4832838475704193	-0.3550237715244293	-0.04747607558965683	0.3212040662765503	-0.15271277725696564	-0.5063925981521606	0.1660926192998886	0.1028471514582634	-0.09011524170637131	-0.28317126631736755	0.18975502252578735	-0.23690755665302277	0.4851207733154297	-0.053888581693172455	0.12461458891630173	0.3904358446598053	0.3064371943473816	-0.16023662686347961	-0.30253124237060547	0.14091211557388306	0.12356159090995789	-0.44876885414123535	0.6536504626274109	-0.3002288341522217	-0.42489001154899597	0.03328403830528259	0.40816083550453186	0.010557388886809349	0.2736242115497589	0.2665129005908966	-0.04337863251566887	-0.3229424059391022	-0.2826469838619232	0.09133104979991913	-0.32107868790626526	-0.42509597539901733	-0.19492295384407043	-0.04149127006530762	0.22011736035346985	-0.3706735670566559	-0.05859511345624924	-0.41570255160331726	-0.45133963227272034	0.027159422636032104	-0.09920328110456467	0.23946882784366608	0.042489856481552124	-0.17763538658618927	-0.7149431109428406	0.4305833876132965	-0.1017259806394577	-0.410714715719223	0.026656270027160645	0.14366041123867035	-0.462239146232605	-0.27695220708847046	0.6411817073822021	-0.10206295549869537	-0.0302489772439003	-0.3264801502227783	-0.39634445309638977	-0.03443906083703041	-0.23289453983306885	0.14994406700134277	0.984857439994812	-0.014191048219799995	0.6432135105133057	0.1020183116197586	-0.37961187958717346	-0.10153449326753616	-0.4296978712081909	0.5855565071105957	0.8632853031158447	0.17707136273384094	-0.1310131698846817	-0.006396292708814144	-0.33923423290252686	0.41040197014808655	-0.10873371362686157	-0.2862774133682251	-0.3898581266403198	0.6657856702804565	-0.04181956127285957	0.43892496824264526	-0.1637977808713913	-0.04403330013155937	0.3052108585834503	0.01052708551287651	0.3060234785079956	1.0009098052978516	-0.2571040391921997	0.28558510541915894	0.3834661543369293	-0.5385338068008423	-0.2641180753707886	0.1285758763551712	-0.3955160677433014	0.3176910877227783	-0.25216737389564514	0.33376070857048035	-0.03267594426870346	0.36686640977859497	0.251303106546402	-0.5463815927505493	-0.6534461975097656	0.3633142113685608	-0.09710676223039627	0.3705693483352661	-0.010202505625784397	0.4422745406627655	-0.22560515999794006	-0.03869300335645676	-0.8304337859153748	-0.18635602295398712	0.6695928573608398	0.2700355052947998	-0.2615012228488922	0.36973533034324646
819037_v1.xml	0.0444197803735733	-0.023670587688684464	-0.6410790085792542	-0.32228830456733704	0.3453090488910675	0.09789039939641953	-0.01031556073576212	-0.1157512441277504	0.17276349663734436	-0.6272969245910645	-0.19016523659229279	-0.6477682590484619	-0.2596903145313263	-0.4905248284339905	-0.008855678141117096	-0.17251229286193848	0.5042067170143127	0.2382805198431015	0.1310700923204422	-0.022867312654852867	-0.1774928867816925	0.42092442512512207	0.09942369163036346	0.10350459814071655	0.3243354856967926	-0.1142616793513298	-0.1693154126405716	-0.023432748392224312	-0.5609360933303833	0.7851385474205017	0.30578741431236267	-0.2949115037918091	0.013356423936784267	-0.13080686330795288	-0.0324578694999218	0.20055946707725525	0.2852626144886017	0.9778223037719727	0.42543214559555054	0.20333512127399445	-0.08115103840827942	-0.024962356314063072	0.6389294266700745	-0.17108552157878876	0.3261498510837555	0.14862960577011108	0.3819758892059326	0.06632031500339508	0.28527379035949707	0.31835973262786865	-0.061347197741270065	-0.10975763946771622	0.16735981404781342	-0.8265568614006042	-0.48572298884391785	-0.15558956563472748	0.4223850667476654	-0.24301721155643463	0.9003092050552368	0.5055612325668335	0.41299548745155334	-0.16085213422775269	0.22848744690418243	-0.23731379210948944	0.056469619274139404	-0.37462249398231506	-0.4681217670440674	-0.15943892300128937	-0.024307584390044212	0.19963106513023376	-0.24464420974254608	0.2412191480398178	-0.15747025609016418	-0.4326421022415161	-0.08972803503274918	-0.05707466974854469	-0.4488145112991333	0.09681211411952972	0.12656250596046448	-0.14393600821495056	-0.9601112604141235	-0.3072654604911804	-0.061711911112070084	0.3198050260543823	0.22016356885433197	0.21417230367660522	0.2600494623184204	0.00384890497662127	-0.11583410948514938	0.044830743223428726	0.12417382746934891	0.1022561565041542	0.2735038101673126	-0.29398658871650696	-0.210035502910614	0.05305464193224907	-0.03207876533269882	0.3422251045703888	0.3639831244945526	0.22043457627296448	0.149131178855896	0.12709373235702515	-0.32101696729660034	0.10655922442674637	0.21121017634868622	-0.7927756309509277	0.2807967960834503	0.24733087420463562	-0.3120330572128296	0.640364944934845	0.5414595603942871	0.18032340705394745	-0.0007197390077635646	-0.08564099669456482	0.4747541546821594	-0.02367454208433628	-0.2314794510602951	-0.5041701197624207	-0.021935289725661278	-0.2516726553440094	0.08587081730365753	-0.20480506122112274	-0.02241211198270321	0.4588368535041809	-0.7689945697784424	0.016490446403622627	-0.4763133227825165	0.6590951681137085	0.3268727958202362	0.0314653180539608	-0.34565871953964233	-0.06472684442996979	-0.17454098165035248	0.16122478246688843	-0.4873156249523163	-0.6110615134239197	-0.5580123066902161	-0.2371630221605301	-0.2840838134288788	0.011880126781761646	0.719579815864563	-0.34000128507614136	-0.6074447631835938	-0.0859617069363594	-0.11291783303022385	0.16148775815963745	-0.6934001445770264	0.0979742631316185	-0.559891939163208	-0.6175351738929749	-0.5574010014533997	-0.16667518019676208	0.07493321597576141	-0.00888432003557682	-0.4574596881866455	-0.09710367023944855	-0.41687750816345215	0.4451472759246826	0.2742713391780853	0.25420308113098145	0.38829895853996277	0.03297538310289383	-0.0851467102766037	0.19035999476909637	-0.5066946744918823	-0.290337473154068	-0.029549678787589073	0.16159118711948395	0.2729268968105316	0.0029403758235275745	0.022770503535866737	0.13373909890651703	0.08165423572063446	-0.04093213006854057	0.02246035449206829	-0.22133678197860718	0.22982259094715118	0.8002601861953735	-0.2061026692390442	0.038198668509721756	0.05025755614042282	-0.10580561310052872	0.14390893280506134	-0.27801233530044556	0.11589831113815308	0.03461873531341553	0.03619033843278885	-0.4789406657218933	0.4273439347743988	0.1955076903104782	-0.043421074748039246	-0.6363429427146912	7.522787927882746e-05	-0.42558157444000244	0.08106964081525803	-0.39441198110580444	0.12610061466693878	0.24469831585884094	0.704647421836853	-0.23543044924736023	-0.2921692728996277	0.20486082136631012	0.5559096932411194	-0.06991464644670486	0.5882712602615356	0.21819870173931122	-0.428899347782135	-0.09679793566465378	0.19412778317928314	0.10229141265153885	-0.048881858587265015	0.13007058203220367	0.17911472916603088	-0.036680929362773895	-0.3395591676235199	-0.46797850728034973	0.3339451849460602	-0.6185097098350525	-0.21260367333889008	-0.12967778742313385	-0.08295391499996185	-0.41617992520332336	-0.28036779165267944	0.12364379316568375	0.09323636442422867	-0.04031014069914818	-0.3757406175136566	-0.062225207686424255	0.09153340011835098	-0.31289616227149963	-0.18180082738399506	0.6125161647796631	-0.05196446552872658	-0.9657389521598816	-0.31168416142463684	0.42960554361343384	-0.47722262144088745	-0.3947812020778656	0.1808062344789505	-0.1810528188943863	-0.01118431705981493	-0.037096310406923294	-0.16895024478435516	-0.14715880155563354	-0.08523716032505035	-0.11637769639492035	0.8577051758766174	0.30068230628967285	-0.10520156472921371	0.15677085518836975	-0.08580213785171509	-0.07230638712644577	-0.1367112547159195	-0.030764197930693626	0.04218887537717819	-0.05099321901798248	-0.2159864455461502	0.033795543015003204	-0.1515086144208908	-0.13146553933620453	0.32230234146118164	0.02039218321442604	-0.4195118546485901	0.5517195463180542	-0.27050507068634033	0.5768894553184509	0.13054664433002472	0.10480090975761414	0.24357056617736816	0.1829105019569397	0.11329337954521179	0.7626470327377319	0.15027715265750885	0.01719576120376587	0.31829366087913513	-0.7018705606460571	0.05997760221362114	0.30083662271499634	0.18209807574748993	0.07016393542289734	0.08570962399244308	0.12648752331733704	-0.46801429986953735	-0.01331641711294651	0.3546628952026367	-0.7193719744682312	-0.19677573442459106	0.07511818408966064	-0.4163975417613983	0.5675259828567505	0.17535817623138428	0.7493142485618591	-0.0080961799249053	0.28048503398895264	-0.6354597210884094	0.18761394917964935	0.8752182722091675	-0.045336510986089706	0.18916873633861542	0.29494091868400574
2020.03.21.001933_v1.xml	-0.458152711391449	-0.09867877513170242	-0.4787893295288086	-0.1356382817029953	0.2821398377418518	-0.19478324055671692	-0.44589096307754517	-0.11876478791236877	0.557628870010376	-0.36727505922317505	-0.25696128606796265	-0.6849595308303833	0.44299036264419556	-0.7208027243614197	-0.40213528275489807	-0.05235179141163826	0.7386074662208557	0.08459264039993286	0.21033748984336853	0.07811123877763748	-0.07070008665323257	-0.07694882154464722	0.6087156534194946	0.5928895473480225	0.5796261429786682	-0.49434512853622437	-0.2924273908138275	0.06450535356998444	-0.36336565017700195	0.06952726095914841	0.4224323630332947	-0.3347277045249939	-0.5340441465377808	-0.2059520035982132	-0.6903218626976013	0.23805680871009827	0.06688662618398666	0.47281843423843384	0.4255414307117462	-0.5435899496078491	0.39531993865966797	0.023915987461805344	0.2223135232925415	-0.3678911328315735	0.47928062081336975	-0.1946343034505844	0.4191669821739197	0.15156374871730804	0.02008870057761669	0.211980402469635	0.14673201739788055	-0.2012692540884018	0.08472379297018051	-0.21123194694519043	-0.30981019139289856	0.6466678380966187	0.40214213728904724	0.008003332652151585	1.1531938314437866	0.014244107529520988	0.18767687678337097	0.05064758285880089	0.0905727967619896	-0.5714778304100037	-0.3799645006656647	-0.6570189595222473	-0.39287900924682617	0.11294729262590408	0.32670313119888306	0.7978923916816711	-0.1042482852935791	0.2654966413974762	-0.33559462428092957	-0.2231294959783554	0.11532708257436752	-0.10884486883878708	-0.3648673892021179	0.2836137115955353	-0.23633365333080292	0.12382158637046814	-0.18114925920963287	-0.2309710830450058	-0.40875449776649475	-0.23770813643932343	0.10830683261156082	0.007120575290173292	0.3478477895259857	0.25945815443992615	-0.4221076965332031	-0.1252264827489853	0.18650807440280914	0.3560391962528229	0.3334716260433197	-0.4921129643917084	-0.3810848891735077	0.12685497105121613	-0.18338802456855774	0.11298631876707077	0.10717054456472397	0.321402370929718	0.20592385530471802	-0.1659369021654129	-0.022730961441993713	0.026645414531230927	0.07955189049243927	-0.43179216980934143	0.4266919195652008	0.26654180884361267	0.2373793125152588	0.5255907773971558	0.6135973930358887	-0.41561588644981384	-0.12218921631574631	0.1446591019630432	0.19717592000961304	0.3400759696960449	-0.5150258541107178	0.022320231422781944	0.2909812927246094	-0.6247159242630005	0.30195069313049316	-0.1354566365480423	-0.11472167074680328	0.7044535279273987	-0.21182532608509064	0.10780946165323257	-0.3822958469390869	0.6426519751548767	0.35868600010871887	-0.014165216125547886	0.03648419305682182	-0.040165308862924576	0.2369253933429718	0.5704355239868164	-0.39296194911003113	-0.1429254114627838	-0.43260496854782104	0.2109432965517044	-0.7272195816040039	0.5620890855789185	0.8849064707756042	-0.026319075375795364	0.06090313196182251	0.4295828640460968	-0.07545311748981476	-0.46302202343940735	-0.22020815312862396	0.1887911558151245	0.021534930914640427	-0.6711870431900024	-0.41302913427352905	0.0898207351565361	-0.07291573286056519	-0.15025438368320465	-0.18559670448303223	-0.04066995158791542	-0.2610236704349518	0.22983577847480774	-0.49477800726890564	0.5891484618186951	0.03763618320226669	0.34975093603134155	0.07728064060211182	-0.4856974184513092	-0.31761637330055237	-0.36340898275375366	-0.2387409806251526	0.4658762812614441	-0.06546468287706375	-0.0070274462923407555	0.4089035987854004	-0.08792760223150253	0.0319548137485981	-0.3233303725719452	-0.0734838917851448	0.3122377097606659	0.34351491928100586	0.3560672700405121	-0.34545108675956726	0.4543004631996155	0.4047974944114685	0.15513993799686432	0.15113992989063263	-0.37268760800361633	0.056766919791698456	0.17753440141677856	0.004773417022079229	-1.0298622846603394	-0.03642372786998749	0.13170082867145538	0.22325383126735687	-0.9553182125091553	0.3659305274486542	-0.27310577034950256	0.48017123341560364	-0.027540506795048714	0.5049389004707336	0.27797871828079224	0.5589855313301086	-0.17760442197322845	-0.18241287767887115	0.18841704726219177	0.6526482105255127	-0.29029735922813416	0.8423203825950623	-0.05278830975294113	-0.1866622269153595	-0.12139543145895004	0.13401858508586884	0.14240247011184692	-0.10241412371397018	0.00117313745431602	0.33356451988220215	-0.45500409603118896	0.12643566727638245	0.03125983104109764	0.44175684452056885	-0.3900415003299713	-0.12092316150665283	0.24723003804683685	0.1385156810283661	-0.5943906903266907	0.034535378217697144	-0.3011727035045624	-0.215774267911911	-0.14843891561031342	-0.34051305055618286	-0.016044171527028084	0.02614598348736763	0.049837786704301834	-0.24437816441059113	0.294166624546051	0.019508760422468185	0.09377394616603851	-0.32263147830963135	0.14551976323127747	-0.3152453601360321	-0.18934394419193268	0.3798667788505554	-0.27798953652381897	-0.18190594017505646	-0.6617280840873718	-0.16786667704582214	-0.23108090460300446	-0.10561824589967728	0.10218679159879684	0.8342529535293579	0.16409364342689514	0.17517787218093872	0.36474335193634033	-0.22908353805541992	0.007985962554812431	-0.3462522029876709	0.8399450778961182	0.4434058368206024	0.1749054491519928	-0.0017093004425987601	0.14992085099220276	-0.050535671412944794	0.07944625616073608	-0.015069970861077309	-0.12880760431289673	-0.3359071612358093	0.7927554845809937	0.4528639614582062	0.2781379818916321	0.23550361394882202	0.004341534338891506	0.33861055970191956	0.24483203887939453	0.21802660822868347	1.3175923824310303	-0.21565616130828857	0.18083812296390533	0.18204045295715332	-0.8542036414146423	0.23545633256435394	-0.09525183588266373	-0.5094056725502014	0.23467759788036346	-0.23047523200511932	0.15019714832305908	-0.34404057264328003	0.35917341709136963	0.27995967864990234	-0.3214035928249359	-0.07338538765907288	0.46408510208129883	-0.03301205113530159	0.41030871868133545	0.2302982360124588	0.23785416781902313	-0.016732871532440186	0.27957987785339355	-0.7054132223129272	-0.12098439782857895	0.6985969543457031	0.7736344337463379	-0.030038077384233475	0.3040725290775299
2020.02.17.952903_v1.xml	-0.7697119116783142	-0.1276582032442093	-1.013434886932373	0.02692723087966442	0.4784074127674103	-0.5002692937850952	-0.6285632848739624	0.11968643963336945	0.7492846846580505	-0.1903022974729538	0.24201533198356628	-0.5354217290878296	0.17077846825122833	-0.56638503074646	-0.5197482109069824	0.1403682827949524	0.8198650479316711	0.31152015924453735	0.16648003458976746	0.016430426388978958	-0.09780372679233551	-0.10294605046510696	0.4517035186290741	0.3572838306427002	0.7746225595474243	-0.4406655728816986	-0.20309048891067505	0.06266769021749496	-0.660266637802124	0.25569912791252136	0.4066717028617859	-0.1629985123872757	-0.28205761313438416	-0.09014767408370972	-0.7086087465286255	0.3403968811035156	0.21701990067958832	0.6042852997779846	0.24887922406196594	-0.29764798283576965	0.7105856537818909	0.13647980988025665	0.1198335811495781	-0.3110615015029907	0.16327880322933197	-0.2028629630804062	0.28955861926078796	0.02853313274681568	-0.23654799163341522	-0.03665320575237274	-0.03708140179514885	-0.0784958228468895	-0.0855259895324707	-0.17093825340270996	-0.3110785186290741	0.34521016478538513	0.1670554131269455	0.2516438961029053	1.0393801927566528	0.6619043946266174	0.0410454161465168	0.08603552728891373	-0.08342519402503967	-0.5455125570297241	-0.15011218190193176	-0.7304244637489319	-0.41888582706451416	-0.22134405374526978	0.3724157512187958	0.8128293752670288	-0.36487600207328796	0.721729040145874	-0.45679038763046265	-0.31111711263656616	0.17174462974071503	-0.21320244669914246	-0.808184027671814	-0.03012877330183983	-0.1995144784450531	0.5272547006607056	-0.1422896385192871	-0.14079095423221588	-0.2864730954170227	-0.5874465703964233	0.06258050352334976	0.331747442483902	0.25513091683387756	0.11604186147451401	-0.21793578565120697	-0.03650520741939545	0.13297425210475922	0.34439659118652344	0.15819518268108368	-0.64134681224823	-0.2787104845046997	0.1712709665298462	-0.5762133598327637	-0.4695458710193634	0.20838163793087006	0.42916589975357056	0.5710582733154297	0.09094911813735962	-0.1719934195280075	0.3676154315471649	0.051301322877407074	-0.6176079511642456	0.421094685792923	0.2645118534564972	0.8941423296928406	0.31891998648643494	0.5434697866439819	-0.21632598340511322	-0.0683283656835556	0.034894779324531555	0.12283387780189514	0.29405245184898376	-0.4061390459537506	0.08617502450942993	0.4380218982696533	-0.9335396885871887	0.372437059879303	-0.15288189053535461	-0.26114776730537415	0.9175822734832764	-0.2565605044364929	0.259956419467926	-0.6430941820144653	0.7262868881225586	0.21352337300777435	-0.5295354723930359	-0.006458217743784189	-0.29107174277305603	0.18098025023937225	0.34039193391799927	-0.34653565287590027	-0.010587818920612335	-0.2860400974750519	-0.04447595030069351	-0.5987052917480469	0.3586697578430176	1.1135910749435425	0.03504171967506409	-0.0007922802469693124	0.21778294444084167	0.3255864679813385	-0.20038309693336487	-0.8468512892723083	0.1809074431657791	0.182185098528862	-0.6891498565673828	-0.2959355413913727	0.028645740821957588	-0.23386062681674957	0.022121433168649673	-0.05719129741191864	-0.44636374711990356	-0.21808426082134247	0.14083676040172577	-0.369914174079895	0.2197473794221878	-0.3660576343536377	0.5053163766860962	0.34216299653053284	-0.5252103805541992	-0.35258519649505615	-0.23007315397262573	-0.24082118272781372	0.38788703083992004	-0.23452357947826385	-0.001395186292938888	0.3799985349178314	0.03989497944712639	0.45930054783821106	-0.43852362036705017	-0.10097722709178925	-0.010570704936981201	-0.2363813817501068	0.29120057821273804	-0.11582833528518677	0.4161417782306671	0.4159134030342102	0.23498757183551788	0.30767548084259033	-0.48580417037010193	-0.10519537329673767	0.41372016072273254	-0.1552993208169937	-0.8792535662651062	0.18422777950763702	-0.148595929145813	0.2160334587097168	-1.0203447341918945	-0.01824072189629078	-0.5805218815803528	0.5104840993881226	0.06551794707775116	0.4457365572452545	0.6543552279472351	0.5777655243873596	-0.6473655104637146	-0.22587741911411285	0.1388338953256607	0.6666424870491028	-0.23617948591709137	0.5412152409553528	0.12439505010843277	-0.32327523827552795	-0.11909615993499756	0.2670133709907532	-0.08734225481748581	0.00012361083645373583	0.288679301738739	0.34312042593955994	-0.6493825316429138	-0.14679506421089172	0.06418583542108536	0.5965239405632019	-0.3454527258872986	-0.47957929968833923	0.24117837846279144	0.24212749302387238	-0.8447619676589966	-0.04346828535199165	0.12961676716804504	-0.09741019457578659	0.24812699854373932	-0.39141449332237244	0.35691964626312256	0.23019763827323914	0.23835214972496033	-0.2830571234226227	0.3606937527656555	-0.22312118113040924	-0.17905086278915405	-0.20108525454998016	0.08060669898986816	-0.4199734926223755	-0.27099791169166565	0.4740678369998932	-0.4829061031341553	-0.04168228432536125	-0.45442602038383484	-0.08739904314279556	0.14415626227855682	-0.22336213290691376	-0.24346791207790375	1.116418480873108	0.47373420000076294	-0.0926496833562851	0.334002822637558	-0.22300317883491516	-0.18041563034057617	-0.276561439037323	0.9354968070983887	0.36409029364585876	0.4492693245410919	0.24650980532169342	0.12816232442855835	-0.38116011023521423	-0.23755237460136414	-0.07532816380262375	-0.23181068897247314	-0.31707772612571716	0.7973909974098206	0.5874042510986328	0.14492982625961304	0.7439223527908325	-0.05754077434539795	0.13402189314365387	0.473301500082016	0.2044428586959839	1.4490162134170532	0.06273344159126282	0.2571062445640564	0.39374080300331116	-0.7849676012992859	0.5728132724761963	-0.3300156891345978	-0.5240551233291626	0.15201117098331451	-0.35729292035102844	0.3229064345359802	0.056551676243543625	0.2855914831161499	-0.002131419023498893	-0.6010333895683289	-0.04885157570242882	0.5663847327232361	0.1089891567826271	0.49092960357666016	0.03527626022696495	0.29056516289711	0.07636822760105133	0.4998621344566345	-0.6431145668029785	0.13284681737422943	0.8715021014213562	0.8054366707801819	-0.2951343059539795	0.35316285490989685
2020.03.13.991570_v1.xml	-0.5549540519714355	-0.35259610414505005	-0.9293411374092102	-0.3960511386394501	0.4293327331542969	-0.37033331394195557	-0.5700756907463074	0.17919141054153442	0.40463152527809143	-0.470974862575531	0.0591566301882267	-0.542026937007904	0.039732277393341064	-0.3360349237918854	-0.36581897735595703	-0.09040465950965881	0.7546058893203735	0.5854311585426331	0.17753347754478455	-0.2934624254703522	-0.16514082252979279	0.020487194880843163	0.3751675486564636	0.2226705551147461	0.7629290223121643	-0.5007948279380798	-0.0692688375711441	-0.0869256779551506	-0.4982612729072571	0.3639076352119446	0.5602899789810181	-0.28862902522087097	-0.28115230798721313	-0.343677818775177	-0.5257129073143005	0.27813461422920227	0.13475468754768372	0.6177055835723877	-0.06410423666238785	-0.0020972872152924538	0.4794567823410034	0.031148841604590416	-0.01969723217189312	-0.33601564168930054	0.2968730628490448	-0.22631770372390747	0.11485560238361359	-0.19225648045539856	-0.18203964829444885	-0.007991254329681396	0.14375844597816467	-0.04281311482191086	0.05047585442662239	-0.07566767930984497	-0.3094424605369568	0.29198315739631653	0.3177115023136139	0.0032094658818095922	0.6819369196891785	0.7072111368179321	0.242106631398201	0.03813015669584274	-0.12073217332363129	-0.6282623410224915	0.06931274384260178	-0.35560619831085205	-0.59458988904953	-0.2055182009935379	0.32865166664123535	0.6776954531669617	-0.365974485874176	0.5871225595474243	-0.23215055465698242	-0.37109676003456116	0.14839263260364532	-0.16762389242649078	-0.7511298656463623	0.07044621556997299	-0.03397471830248833	0.16959483921527863	-0.6308251619338989	-0.28035372495651245	-0.45548877120018005	-0.5143914222717285	0.12587977945804596	0.2903243899345398	0.3517615497112274	0.023028794676065445	-0.19362811744213104	0.04286353662610054	0.102345310151577	0.522299587726593	0.28261083364486694	-0.6205579042434692	-0.2234160453081131	0.18175546824932098	-0.34780049324035645	0.032586731016635895	0.35858866572380066	0.42363467812538147	0.40180444717407227	0.13400444388389587	-0.1881478726863861	0.11088210344314575	0.28406891226768494	-0.4132949113845825	0.0607001855969429	0.16651782393455505	0.5243692994117737	0.36678987741470337	0.33547231554985046	-0.09675511717796326	-0.25585830211639404	0.18990200757980347	0.14045226573944092	0.2568395733833313	-0.18620552122592926	-0.028484629467129707	0.1393587589263916	-0.7985264658927917	-0.006847309414297342	0.14301730692386627	-0.12499844282865524	0.8545105457305908	-0.2660355269908905	0.11993689090013504	-0.9498780369758606	0.4693363904953003	0.2025223970413208	-0.6467313766479492	-0.10871578007936478	-0.32577431201934814	0.30067169666290283	-0.14640407264232635	-0.1944313943386078	0.029534924775362015	-0.4900151491165161	0.07198911905288696	-0.36564233899116516	0.37511131167411804	1.0360071659088135	-0.1291164755821228	-0.24630676209926605	-0.24570143222808838	0.08370982855558395	0.06029195711016655	-0.6680033206939697	0.10361583530902863	0.15371453762054443	-0.4693480432033539	-0.2943759858608246	-0.35314133763313293	-0.174412801861763	-0.33110561966896057	-0.17568165063858032	-0.3199485242366791	-0.2129189670085907	0.1832088828086853	-0.4306339621543884	0.29229721426963806	-0.2987971901893616	0.5077779293060303	0.2127971202135086	-0.016396304592490196	-0.5423006415367126	-0.32323163747787476	0.029051436111330986	0.2720043659210205	-0.19627265632152557	-0.10025543719530106	0.3446580767631531	0.13314135372638702	0.42787569761276245	-0.4786074161529541	-0.39994120597839355	0.11197271943092346	-0.23745375871658325	0.09366533905267715	0.06792015582323074	0.31277701258659363	0.46087872982025146	0.2444053739309311	0.16593727469444275	-0.3664412796497345	-0.2965652644634247	0.143254354596138	0.14701038599014282	-0.8447828888893127	0.4091014862060547	-0.10461928695440292	-0.03665751963853836	-0.8362405896186829	0.09298502653837204	-0.5825746655464172	0.5348239541053772	-0.05948623642325401	0.27715957164764404	0.6775367259979248	0.36149850487709045	-0.52776038646698	-0.41066887974739075	-0.01733470894396305	0.6061039566993713	-0.37745508551597595	0.28119730949401855	0.07697102427482605	-0.16248652338981628	-0.008127361536026001	0.29611319303512573	-0.13121967017650604	0.04095706343650818	0.4433884620666504	-0.0497751384973526	-0.4784091114997864	-0.152195543050766	-0.34297358989715576	0.2562991678714752	-0.07389328628778458	-0.07663386315107346	-0.24135664105415344	0.1450004279613495	-0.6288437843322754	-0.264570415019989	0.28310680389404297	0.07711035013198853	0.2514287531375885	-0.5215350985527039	0.30860260128974915	-0.16049237549304962	-0.06153123080730438	-0.33377572894096375	0.07446857541799545	-0.28314831852912903	-0.18171188235282898	-0.3179601728916168	0.03369441255927086	-0.38956302404403687	-0.2510661780834198	0.49844199419021606	-0.2527374029159546	0.020063387230038643	-0.4607735276222229	-0.08541230857372284	0.20014570653438568	-0.3011718988418579	-0.43979790806770325	1.3863998651504517	0.25884971022605896	0.1275155395269394	0.5926206111907959	-0.10679704695940018	0.015514072962105274	0.1308877319097519	0.7324866056442261	0.3743066191673279	0.4055473208427429	0.27226173877716064	-0.01151791401207447	-0.5301403403282166	-0.17346084117889404	-0.10332164913415909	-0.18996304273605347	-0.2021397203207016	0.9871740341186523	0.6966208219528198	0.6165046691894531	0.8659239411354065	-0.250324547290802	-0.05971532315015793	0.13581158220767975	0.09202462434768677	1.417954921722412	0.1950301080942154	0.308243989944458	0.42354586720466614	-0.7981638312339783	0.15937525033950806	-0.09920331090688705	-0.3065599203109741	0.3453211486339569	-0.25121739506721497	0.264303058385849	-0.040715862065553665	0.28580009937286377	-0.1840113252401352	-0.4938644766807556	0.13318611681461334	0.5499789118766785	-0.20451386272907257	0.48081737756729126	-0.10442645102739334	0.33397987484931946	0.011082841083407402	0.2524828016757965	-0.6980417370796204	0.15564315021038055	0.9577406644821167	0.6419952511787415	-0.1815691590309143	0.7731813788414001
813378_v2.xml	0.29823625087738037	0.42015939950942993	-0.7092783451080322	-0.3514360189437866	-0.15049830079078674	-0.1333962380886078	-0.034265536814928055	0.01652367040514946	0.49332985281944275	-0.5473330020904541	-0.10752823948860168	-0.7197049260139465	0.2547231912612915	-0.2737308442592621	-0.08420050144195557	-0.10667276382446289	0.519984245300293	0.16236230731010437	-0.3448408842086792	0.131876602768898	-0.07668666541576385	0.6341717839241028	-0.1620214730501175	0.2581988573074341	0.5579788088798523	-0.17849475145339966	-0.23898041248321533	-0.15378472208976746	-0.6593874096870422	0.6944661140441895	0.3804377615451813	-0.6737024784088135	-0.15047281980514526	-0.29649779200553894	0.010060780681669712	-0.023134911432862282	-0.002022000728175044	0.5534510612487793	0.9735801815986633	-0.5001670122146606	0.1574646383523941	-0.054126761853694916	0.5008894801139832	-0.21607092022895813	0.38079193234443665	0.10324782133102417	0.13070565462112427	0.35151612758636475	0.32701027393341064	0.12001313269138336	0.08339915424585342	0.11168734729290009	0.23920772969722748	-0.500442385673523	-0.635481595993042	0.11024920642375946	0.09470664709806442	-0.38751330971717834	0.8742765784263611	0.6913331747055054	0.37595704197883606	-0.08190493285655975	-0.19396212697029114	-0.1354971081018448	-0.08563187718391418	-1.0713820457458496	-0.7306996583938599	-0.09634667634963989	0.05488130450248718	0.014986046589910984	-0.3421279489994049	0.13087035715579987	-0.3070248067378998	-0.38433101773262024	0.26416969299316406	0.019694456830620766	-0.7309295535087585	0.19481046497821808	0.16096413135528564	0.1962851881980896	-0.5304515957832336	0.06306859850883484	-0.03949374705553055	0.5555009245872498	0.06889667361974716	-0.10330544412136078	-0.04795753210783005	0.6010795831680298	-0.11972443014383316	-0.095439612865448	-0.07994581758975983	0.11933315545320511	0.23101618885993958	-0.3285634517669678	-0.1116308644413948	-0.2334241271018982	0.17295755445957184	-0.17175482213497162	0.3899911940097809	0.4439884424209595	-0.15478414297103882	-0.06629020720720291	-0.34823474287986755	0.012595472857356071	0.2148522436618805	-1.0077602863311768	0.4966084957122803	0.5215915441513062	-0.3076625466346741	0.5100910663604736	0.12237154692411423	0.31159713864326477	-0.1317281723022461	0.10474280267953873	0.2618170976638794	0.01964827999472618	-0.08798129856586456	-0.23502413928508759	-0.03199027478694916	-0.6277837753295898	0.15470801293849945	-0.06787198781967163	0.565944492816925	0.6880273818969727	-0.5508727431297302	0.05739299952983856	-0.31975382566452026	0.2604250907897949	0.05673074722290039	0.5959877371788025	0.24199120700359344	0.20212653279304504	0.21566534042358398	-0.27872011065483093	-0.2943768799304962	-0.3925153911113739	-0.918514609336853	-0.7698712944984436	-0.7387021780014038	-0.06523189693689346	0.861510157585144	0.08573251962661743	-0.06672678887844086	-0.09414461255073547	0.30355116724967957	0.529246985912323	-0.09879223257303238	0.15235282480716705	-0.1410454362630844	-0.6683580279350281	-0.7599412798881531	0.009376680478453636	-0.14205822348594666	-0.10021285712718964	-0.6237568259239197	0.03241914138197899	0.0055019548162817955	0.24856290221214294	0.39735227823257446	0.15118849277496338	-0.017027851194143295	0.5043224096298218	0.046789899468421936	0.22633787989616394	-0.1190950945019722	-0.25551408529281616	0.6075409054756165	-0.016092851758003235	0.28774991631507874	0.33620548248291016	0.25120750069618225	0.5687130689620972	0.16045920550823212	0.025779588147997856	-0.0893184021115303	-0.4867238402366638	0.6833308339118958	1.1884129047393799	-0.4142136871814728	0.38859519362449646	0.3614857792854309	-0.16010908782482147	0.35594290494918823	-0.4571596682071686	-0.10631179809570312	-0.26409831643104553	-0.07892517745494843	-0.156073659658432	0.6750566363334656	0.17406411468982697	-0.28908583521842957	-0.587279736995697	-0.05423945561051369	-0.26905304193496704	0.09028556197881699	-0.5100669264793396	-0.11633278429508209	0.1689169853925705	0.4971567392349243	-0.038435693830251694	-0.16650813817977905	-0.011159813962876797	0.556640625	-0.11746999621391296	0.4976159930229187	0.2257072776556015	-0.4305137097835541	0.03625458478927612	0.19602862000465393	0.04143005236983299	0.045541372150182724	-0.09824316948652267	0.28898847103118896	-0.23623919486999512	-0.6059644222259521	-0.0874546691775322	-0.29852578043937683	0.049394622445106506	0.2869690954685211	-0.4186401963233948	0.08625831454992294	-0.6206598877906799	-0.30833926796913147	0.049003563821315765	-0.481526255607605	0.04532843828201294	0.029826795682311058	0.1561664193868637	0.5144603848457336	-0.4402107000350952	-0.3211437463760376	0.4594287574291229	-0.18187405169010162	-0.757719874382019	-0.38553768396377563	0.31697383522987366	-0.228286013007164	-0.5951398015022278	0.47328197956085205	-0.5406935811042786	-0.2566724717617035	-0.1715136617422104	-0.6267778873443604	0.2506506145000458	-0.05168316140770912	-0.1982778012752533	0.9815283417701721	0.2471480518579483	0.37277117371559143	-0.30942580103874207	-0.37817513942718506	0.2274296134710312	-0.6382282376289368	-0.07356894016265869	0.1809939444065094	-0.3166501224040985	-0.771584153175354	0.09682594239711761	0.15722428262233734	-0.047051236033439636	0.5530025362968445	0.11644255369901657	-0.19091753661632538	0.41501641273498535	-0.46288612484931946	0.7418033480644226	0.11909721791744232	-0.10474753379821777	0.41170769929885864	-0.04280781000852585	0.26044055819511414	0.6645100712776184	0.5034809112548828	-0.03950534388422966	0.2520911693572998	-0.3564199209213257	0.41307130455970764	0.2040880173444748	0.02663036435842514	0.2430237978696823	-0.6673078536987305	-0.06195873022079468	-0.3853249251842499	0.35155045986175537	0.441205233335495	-0.6727628111839294	-0.23304110765457153	-0.2038751095533371	-0.20488984882831573	0.27370762825012207	0.7694578766822815	0.7412841320037842	-0.278677761554718	0.2305041402578354	-0.7764554619789124	-0.03007582575082779	0.21560902893543243	0.2070682793855667	0.13456906378269196	0.4012530446052551
2020.03.09.983247_v1.xml	-0.15997947752475739	-0.0798579603433609	-0.8753782510757446	-0.17369522154331207	0.06170457601547241	-0.3299157917499542	-0.28375065326690674	0.2623855769634247	0.37576213479042053	-0.4225226640701294	0.02297269180417061	-0.2729926109313965	0.05455264449119568	-0.05020890384912491	-0.26677027344703674	0.20607253909111023	0.2578738033771515	0.2674320638179779	-0.19266636669635773	-0.3459811508655548	-0.022548453882336617	0.03821677342057228	0.15079426765441895	0.2972499132156372	0.6525857448577881	-0.2560638189315796	-0.35486167669296265	0.04674229770898819	-0.5875345468521118	0.2700982093811035	0.21512062847614288	-0.2789497971534729	0.03243850916624069	-0.21847708523273468	-0.03946651145815849	0.2549346089363098	-0.12126677483320236	0.22529637813568115	-0.047818634659051895	-0.25255686044692993	0.3385298550128937	0.0856969952583313	0.12550148367881775	-0.2788596451282501	0.15855637192726135	-0.29701364040374756	-0.02483130805194378	0.10775426775217056	-0.29649263620376587	0.09960068762302399	0.028832443058490753	0.10262416303157806	0.1568174511194229	-0.29580333828926086	-0.3031696677207947	-0.05516878888010979	0.16523827612400055	-0.14913709461688995	0.33771809935569763	0.7735094428062439	0.22058752179145813	-0.0488349050283432	-0.38436436653137207	-0.32720592617988586	0.13597656786441803	-0.34993109107017517	-0.5132456421852112	0.09387443214654922	0.15730376541614532	0.4195115268230438	-0.5022631287574768	0.262495219707489	-0.26665371656417847	-0.6493192911148071	0.20658312737941742	-0.11660122871398926	-0.8476883769035339	-0.11118762195110321	0.13743659853935242	0.15021882951259613	-0.5494862794876099	0.2043408453464508	-0.05515764653682709	-0.31888484954833984	0.14438077807426453	0.19583436846733093	0.3210865557193756	0.33369067311286926	-0.22792327404022217	-0.05053481459617615	-0.04882942885160446	0.05523272976279259	0.03099544532597065	-0.4133557379245758	-0.06707032024860382	0.05604293569922447	-0.14067769050598145	-0.23653708398342133	0.32537567615509033	0.38048580288887024	0.03998256474733353	-0.018790625035762787	-0.1941458135843277	0.20894086360931396	0.11101987957954407	-0.5092650055885315	0.15141631662845612	0.24475763738155365	0.11447224020957947	0.19715727865695953	0.5003030300140381	0.004055830184370279	-0.06660772114992142	-0.008812695741653442	0.29164642095565796	0.0023375600576400757	-0.19860190153121948	-0.23507778346538544	0.23515160381793976	-0.5865667462348938	0.06055900827050209	-0.27924787998199463	-0.12575481832027435	0.3920080363750458	-0.09477916359901428	-0.01849999651312828	-0.4947216808795929	0.4176656901836395	0.08932149410247803	-0.19528058171272278	0.03930770978331566	-0.12323601543903351	0.13369375467300415	-0.15406741201877594	-0.19978675246238708	-0.18780943751335144	-0.18342313170433044	-0.45118704438209534	-0.4392838478088379	0.25251269340515137	0.8480086326599121	-0.25037628412246704	-0.18236789107322693	-0.09256739914417267	0.36331185698509216	0.4699349105358124	-0.8461860418319702	0.1281377673149109	-0.07716315239667892	-0.6164454817771912	-0.5663484930992126	-0.2834951877593994	-0.21798430383205414	0.026128361001610756	-0.23718291521072388	-0.3905125558376312	-0.2673252820968628	0.10955731570720673	-0.07355283200740814	0.09122484177350998	-0.2994118928909302	0.49613475799560547	0.2987755537033081	-0.16723991930484772	-0.34226831793785095	-0.08722241967916489	0.14076967537403107	0.23574766516685486	-0.22468598186969757	0.17024125158786774	0.26141637563705444	0.27922555804252625	0.4618093967437744	-0.0696096122264862	-0.09147032350301743	-0.038263216614723206	-0.31682702898979187	0.3980945348739624	-0.18343056738376617	0.3764355778694153	0.43015381693840027	0.044627055525779724	0.15617014467716217	-0.42839401960372925	-0.2931166887283325	0.1307368278503418	0.24657484889030457	-0.12713216245174408	0.3252159059047699	-0.1373780518770218	-0.053307969123125076	-0.5254954695701599	0.0106063112616539	-0.37799233198165894	0.4190225899219513	-0.1466134637594223	0.5100264549255371	0.2855567932128906	0.2663281559944153	-0.36789482831954956	-0.436271607875824	-0.0613577626645565	0.3796940743923187	-0.08779992908239365	0.20928770303726196	0.17990297079086304	-0.3051147162914276	-0.029562093317508698	0.2607046365737915	-0.24575382471084595	0.06962848454713821	0.07588499039411545	0.07400844246149063	-0.23472295701503754	-0.2481871396303177	-0.20210689306259155	-0.041938986629247665	0.0977000892162323	-0.12948958575725555	-0.07876620441675186	0.30894559621810913	-0.5516358613967896	0.04095626622438431	0.1132541224360466	-0.14992277324199677	0.0699886903166771	-0.13872437179088593	0.12837664783000946	-0.02934996224939823	-0.03516613319516182	-0.46036267280578613	0.4284401834011078	-0.28362444043159485	-0.47731366753578186	-0.21381418406963348	-0.09842520952224731	-0.3636990487575531	-0.37033557891845703	0.5299781560897827	-0.11864851415157318	-0.10580907762050629	-0.0876297727227211	-0.41151493787765503	0.32429224252700806	-0.19162492454051971	-0.42620736360549927	1.091874122619629	0.36500540375709534	0.061830997467041016	0.2564309239387512	-0.2253788858652115	-0.038431696593761444	-0.2275671809911728	0.45857736468315125	0.2606322169303894	0.24928340315818787	-0.06892889738082886	0.02810407616198063	-0.4004168212413788	-0.12355423718690872	-0.08201459050178528	-0.11083861440420151	-0.19228233397006989	0.6182036399841309	0.3178742229938507	0.6146440505981445	0.42369523644447327	-0.24490348994731903	0.06474846601486206	-0.07473868131637573	0.15899159014225006	1.259442687034607	0.33329612016677856	0.4566382169723511	0.31291353702545166	-0.5347411036491394	0.22842352092266083	0.005301905330270529	-0.22857467830181122	0.1861000508069992	-0.3484155535697937	0.1596142202615738	-0.12614622712135315	0.33388593792915344	0.07839461416006088	-0.5381487607955933	-0.24523302912712097	0.21168307960033417	-0.16197510063648224	0.4540976881980896	0.4612833261489868	0.30315735936164856	0.10497564822435379	-0.12070001661777496	-0.6446036100387573	-0.08819541335105896	0.37786999344825745	0.2727256119251251	-0.46834132075309753	0.6528174877166748
2019.12.15.877035_v1.xml	-0.3584454655647278	0.2255437672138214	-0.5277599096298218	-0.04936245083808899	0.14593234658241272	0.044174641370773315	-0.22983010113239288	0.12143415212631226	0.4015198051929474	-0.9594420194625854	0.2757567763328552	-0.4963661730289459	0.2448541671037674	-0.5106951594352722	0.07362426817417145	0.11988359689712524	0.4895969331264496	0.2430642694234848	0.029701562598347664	-0.05934843420982361	-0.02344471402466297	0.049082618206739426	0.18413148820400238	0.42333415150642395	0.5662500858306885	-0.2790620028972626	-0.10513374209403992	-0.682579517364502	-0.7043581604957581	-0.11793961375951767	0.26103541254997253	-0.6590029001235962	0.0404510498046875	-0.1819465309381485	-0.35328754782676697	0.33882543444633484	-0.2632039189338684	0.48758745193481445	0.5678568482398987	-0.28554123640060425	0.23357877135276794	0.4737158715724945	0.3472873866558075	-0.7109422087669373	0.41724511981010437	0.33717668056488037	0.13852466642856598	0.6378700733184814	0.311906099319458	0.12318265438079834	0.17727012932300568	0.3967476487159729	-0.030113857239484787	-0.33050161600112915	-0.6322575211524963	-0.05204201862215996	0.41865110397338867	0.23371349275112152	0.4274689257144928	0.4952208697795868	0.01205530483275652	-0.21181978285312653	-0.23686179518699646	-0.3117728531360626	-0.25630617141723633	-0.4645995795726776	-0.529198408126831	-0.16196177899837494	0.12626829743385315	0.14390325546264648	-0.058679889887571335	0.013783604837954044	-0.15322427451610565	-0.6142923831939697	-0.12516602873802185	0.34839633107185364	-0.47026050090789795	0.09999826550483704	-0.028208652511239052	0.1757081151008606	-0.38257598876953125	0.2582193911075592	-0.12219119817018509	-0.15789702534675598	0.058097414672374725	-0.11411914974451065	0.24465490877628326	0.34657806158065796	0.14333967864513397	-0.09464669972658157	0.25920459628105164	-0.030995333567261696	0.2520948052406311	-0.39671775698661804	0.04363821819424629	-0.045201823115348816	0.22618453204631805	0.21234802901744843	0.3814883828163147	0.14515094459056854	-0.20903170108795166	0.5201213359832764	-0.47863662242889404	0.30098021030426025	0.13974875211715698	-0.7049529552459717	0.2625006437301636	0.3775610327720642	0.033560674637556076	0.8195701241493225	0.3408220112323761	-0.4427315592765808	-0.02848321944475174	0.0194383691996336	0.2768004238605499	0.4344613552093506	-0.20749224722385406	-0.2364671230316162	0.2482312172651291	-0.9300935864448547	0.2187298834323883	-0.5189688205718994	0.33666977286338806	0.5098902583122253	-0.3609694838523865	0.5375795960426331	-0.03206918016076088	0.22274701297283173	0.35311609506607056	0.28153544664382935	0.08309062570333481	-0.16393809020519257	0.056522268801927567	0.006485242862254381	-0.20979076623916626	-0.22422704100608826	-0.6085720658302307	-0.3993602693080902	-0.6127795577049255	0.5947824716567993	1.018852949142456	-0.33562979102134705	0.047342073172330856	-0.04694259166717529	0.4641677439212799	0.09176300466060638	-0.6069588661193848	0.20484253764152527	-0.37361088395118713	-0.5364916920661926	-0.613385796546936	-0.13846559822559357	0.20143046975135803	0.22512295842170715	-0.4050714373588562	0.157608300447464	0.44289007782936096	0.19523943960666656	-0.3102935254573822	0.29422658681869507	-0.1259261518716812	0.3436921238899231	-0.06556091457605362	-0.5006511211395264	-0.5410128831863403	-0.3547641932964325	0.27281641960144043	0.23457051813602448	0.060758233070373535	0.389112651348114	0.32718726992607117	0.1708747148513794	0.348140686750412	-0.3985264301300049	0.3451502025127411	-0.002959323115646839	0.31777432560920715	0.8452205657958984	-0.5831018090248108	0.33212578296661377	0.7077430486679077	-0.18499048054218292	0.7845818996429443	-0.47451868653297424	-0.19412927329540253	-0.09828216582536697	-0.09476659446954727	-0.04864305630326271	0.407662570476532	0.05229360982775688	0.17124420404434204	-0.7154663801193237	-0.0399656817317009	-0.13972781598567963	0.1170116439461708	-0.4890151619911194	0.20620490610599518	0.004551903810352087	0.40406692028045654	-0.08073344826698303	-0.592157244682312	-0.043689511716365814	0.32618066668510437	-0.20980249345302582	0.5440667867660522	0.14501316845417023	0.12814341485500336	-0.3587205708026886	-0.09245790541172028	-0.12400227785110474	0.24831120669841766	0.4004966914653778	0.3732069730758667	-0.13954125344753265	0.151065394282341	-0.20103567838668823	0.24517984688282013	0.4426230788230896	0.18084532022476196	0.11107345670461655	0.3302467465400696	-0.771027684211731	0.1262809932231903	-0.029656652361154556	-0.31115278601646423	0.1878736913204193	-0.3347800672054291	-0.10869325697422028	0.09230278432369232	-0.47558459639549255	-0.7757032513618469	0.37675172090530396	-0.1752377301454544	-0.5303717851638794	-0.2940485179424286	0.4593317210674286	-0.35155361890792847	-0.598606288433075	0.7663401365280151	-0.43828365206718445	-0.39827093482017517	-0.41857799887657166	-0.29187244176864624	0.02784658409655094	0.0037010947708040476	-0.39308178424835205	0.7036888003349304	-0.1773301512002945	0.06274119019508362	0.2787448465824127	-0.04405561089515686	0.2751064598560333	-0.8446061611175537	0.3603631258010864	0.3625102937221527	-0.16746816039085388	0.15538635849952698	-0.0998208150267601	0.020452603697776794	-0.1706165224313736	-0.011094518005847931	-0.04299233853816986	0.05883742868900299	0.6307924389839172	0.07285965979099274	0.9891976118087769	0.3946731388568878	-0.12776125967502594	0.5434171557426453	-0.32807815074920654	0.00012885688920505345	0.9792199730873108	0.3267279267311096	0.28056585788726807	0.21146856248378754	-0.6618762016296387	0.40135064721107483	0.13616059720516205	-0.18717774748802185	0.10674124956130981	-0.3779153525829315	-0.1444251537322998	-0.3040855824947357	0.269305944442749	0.12058918923139572	-0.28028661012649536	-0.017460327595472336	0.39249539375305176	0.3800028860569	0.7381656765937805	0.30699196457862854	-0.09151890128850937	0.3966217637062073	-0.05058779567480087	-0.612646758556366	-0.1419694572687149	0.38668856024742126	0.23951898515224457	-0.20601578056812286	0.34958651661872864
