digraph Tree {
node [shape=box] ;
rankdir=LR ;
0 [label="pc12 <= -0.18\nentropy = 1.0\nsamples = 120\nvalue = [60, 60]\nclass = bioRxiv"] ;
1 [label="pc13 <= 0.067\nentropy = 0.555\nsamples = 31\nvalue = [4, 27]\nclass = polka et al."] ;
0 -> 1 [labeldistance=2.5, labelangle=-45, headlabel="True"] ;
2 [label="entropy = 0.0\nsamples = 25\nvalue = [0, 25]\nclass = polka et al."] ;
1 -> 2 ;
3 [label="pc32 <= 0.006\nentropy = 0.918\nsamples = 6\nvalue = [4, 2]\nclass = bioRxiv"] ;
1 -> 3 ;
4 [label="entropy = 0.0\nsamples = 4\nvalue = [4, 0]\nclass = bioRxiv"] ;
3 -> 4 ;
5 [label="entropy = 0.0\nsamples = 2\nvalue = [0, 2]\nclass = polka et al."] ;
3 -> 5 ;
6 [label="pc43 <= 0.123\nentropy = 0.951\nsamples = 89\nvalue = [56, 33]\nclass = bioRxiv"] ;
0 -> 6 [labeldistance=2.5, labelangle=45, headlabel="False"] ;
7 [label="entropy = 0.0\nsamples = 20\nvalue = [20, 0]\nclass = bioRxiv"] ;
6 -> 7 ;
8 [label="pc47 <= -0.096\nentropy = 0.999\nsamples = 69\nvalue = [36, 33]\nclass = bioRxiv"] ;
6 -> 8 ;
9 [label="entropy = 0.0\nsamples = 8\nvalue = [0, 8]\nclass = polka et al."] ;
8 -> 9 ;
10 [label="pc34 <= -0.064\nentropy = 0.976\nsamples = 61\nvalue = [36, 25]\nclass = bioRxiv"] ;
8 -> 10 ;
11 [label="pc39 <= 0.134\nentropy = 0.912\nsamples = 52\nvalue = [35, 17]\nclass = bioRxiv"] ;
10 -> 11 ;
12 [label="pc24 <= -0.023\nentropy = 0.896\nsamples = 16\nvalue = [5, 11]\nclass = polka et al."] ;
11 -> 12 ;
13 [label="pc21 <= 0.072\nentropy = 0.65\nsamples = 6\nvalue = [5, 1]\nclass = bioRxiv"] ;
12 -> 13 ;
14 [label="entropy = 0.0\nsamples = 5\nvalue = [5, 0]\nclass = bioRxiv"] ;
13 -> 14 ;
15 [label="entropy = 0.0\nsamples = 1\nvalue = [0, 1]\nclass = polka et al."] ;
13 -> 15 ;
16 [label="entropy = 0.0\nsamples = 10\nvalue = [0, 10]\nclass = polka et al."] ;
12 -> 16 ;
17 [label="pc32 <= -0.014\nentropy = 0.65\nsamples = 36\nvalue = [30, 6]\nclass = bioRxiv"] ;
11 -> 17 ;
18 [label="pc8 <= 0.009\nentropy = 0.985\nsamples = 14\nvalue = [8, 6]\nclass = bioRxiv"] ;
17 -> 18 ;
19 [label="entropy = 0.0\nsamples = 6\nvalue = [6, 0]\nclass = bioRxiv"] ;
18 -> 19 ;
20 [label="pc37 <= 0.03\nentropy = 0.811\nsamples = 8\nvalue = [2, 6]\nclass = polka et al."] ;
18 -> 20 ;
21 [label="entropy = 0.0\nsamples = 2\nvalue = [2, 0]\nclass = bioRxiv"] ;
20 -> 21 ;
22 [label="entropy = 0.0\nsamples = 6\nvalue = [0, 6]\nclass = polka et al."] ;
20 -> 22 ;
23 [label="entropy = 0.0\nsamples = 22\nvalue = [22, 0]\nclass = bioRxiv"] ;
17 -> 23 ;
24 [label="pc7 <= 0.167\nentropy = 0.503\nsamples = 9\nvalue = [1, 8]\nclass = polka et al."] ;
10 -> 24 ;
25 [label="entropy = 0.0\nsamples = 1\nvalue = [1, 0]\nclass = bioRxiv"] ;
24 -> 25 ;
26 [label="entropy = 0.0\nsamples = 8\nvalue = [0, 8]\nclass = polka et al."] ;
24 -> 26 ;
}